{"learner":{"attributes":{"best_iteration":"18","best_score":"1.7535586339818763","scikit_learn":"{\"_estimator_type\": \"regressor\"}"},"feature_names":["career_wt_ast_total","career_wt_avg_shot_dist","career_wt_blk_total","career_wt_corner_3_pct","career_wt_corner_3_rate","career_wt_deep_3_rate","career_wt_fga_total","career_wt_ft_pct","career_wt_games_played","career_wt_games_played_pg","career_wt_has_ws_breakout_timing_eff","career_wt_has_ws_breakout_timing_minutes","career_wt_has_ws_breakout_timing_volume","career_wt_has_ws_last10","career_wt_has_ws_last5","career_wt_has_ws_prev10","career_wt_has_ws_prev5","career_wt_minutes_total","career_wt_poss_total","career_wt_rim_fg_pct","career_wt_rim_purity","career_wt_shot_dist_var","career_wt_stl_total","career_wt_three_fg_pct","career_wt_tov_total","career_wt_trueShootingPct","career_wt_usage","career_wt_ws_breakout_timing_eff","career_wt_ws_breakout_timing_minutes","career_wt_ws_breakout_timing_volume","career_wt_ws_delta_minutes_last10_minus_prev10","career_wt_ws_delta_minutes_last5_minus_prev5","career_wt_ws_delta_pps_last10_minus_prev10","career_wt_ws_delta_pps_last5_minus_prev5","career_wt_ws_fga_last10","career_wt_ws_fga_last5","career_wt_ws_minutes_last10","career_wt_ws_minutes_last5","career_wt_ws_on_net_rating_last10_mean","career_wt_ws_on_net_rating_last5_mean","career_wt_ws_pps_last10","career_wt_ws_pps_last5","career_wt_ws_pts_last10","career_wt_ws_pts_last5","career_wt_xy_coverage","career_years","career_years_traj","college_assisted_made_mid","college_assisted_made_rim","college_assisted_made_three","college_assisted_share_mid","college_assisted_share_rim","college_assisted_share_three","college_ast_total","college_ast_total_per100poss","college_ast_total_per40","college_avg_shot_dist","college_blk_total","college_blk_total_per100poss","college_blk_total_per40","college_corner_3_pct","college_corner_3_rate","college_d_rapm","college_deep_3_rate","college_dev_has_transfer","college_dev_obs_years","college_dev_p10","college_dev_p50","college_dev_p90","college_dev_quality_weight","college_dev_rate_creation_mean","college_dev_rate_creation_sd","college_dev_rate_eff_mean","college_dev_rate_eff_sd","college_dev_rate_impact_mean","college_dev_rate_impact_sd","college_dev_rate_off_mean","college_dev_rate_off_sd","college_dev_rate_phys_mean","college_dev_rate_phys_sd","college_drb_total","college_drb_total_per100poss","college_fga_total","college_ft_att","college_ft_made","college_ft_pct","college_ft_pct_z","college_games_played","college_is_power_conf","college_mid_att","college_mid_fg_pct","college_mid_fg_pct_z","college_mid_made","college_mid_share","college_minutes_total","college_o_rapm","college_on_drtg","college_on_net_rating","college_on_ortg","college_orb_total","college_orb_total_per100poss","college_poss_proxy","college_rapm_standard","college_recruiting_rank","college_recruiting_rating","college_recruiting_stars","college_rim_att","college_rim_fg_pct","college_rim_fg_pct_z","college_rim_made","college_rim_purity","college_rim_share","college_shot_dist_var","college_shots_total","college_stl_total","college_stl_total_per100poss","college_stl_total_per40","college_teamId","college_team_pace","college_team_rank","college_team_srs","college_three_att","college_three_fg_pct","college_three_fg_pct_team_resid","college_three_fg_pct_z","college_three_made","college_three_share","college_tov_total","college_tov_total_per100poss","college_tov_total_per40","college_trb_total","college_trb_total_per100poss","college_xy_3_shots","college_xy_rim_shots","college_xy_shots","delta_ast_total","delta_avg_shot_dist","delta_blk_total","delta_corner_3_pct","delta_corner_3_rate","delta_deep_3_rate","delta_fga_total","delta_ft_pct","delta_games_played","delta_games_played_pg","delta_has_ws_breakout_timing_eff","delta_has_ws_breakout_timing_minutes","delta_has_ws_breakout_timing_volume","delta_has_ws_last10","delta_has_ws_last5","delta_has_ws_prev10","delta_has_ws_prev5","delta_height","delta_minutes_total","delta_poss_total","delta_rim_fg_pct","delta_rim_purity","delta_shot_dist_var","delta_stl_total","delta_three_fg_pct","delta_tov_total","delta_trueShootingPct","delta_usage","delta_ws_breakout_timing_eff","delta_ws_breakout_timing_minutes","delta_ws_breakout_timing_volume","delta_ws_delta_minutes_last10_minus_prev10","delta_ws_delta_minutes_last5_minus_prev5","delta_ws_delta_pps_last10_minus_prev10","delta_ws_delta_pps_last5_minus_prev5","delta_ws_fga_last10","delta_ws_fga_last5","delta_ws_minutes_last10","delta_ws_minutes_last5","delta_ws_on_net_rating_last10_mean","delta_ws_on_net_rating_last5_mean","delta_ws_pps_last10","delta_ws_pps_last5","delta_ws_pts_last10","delta_ws_pts_last5","delta_xy_coverage","final_ast_total","final_avg_shot_dist","final_blk_total","final_corner_3_pct","final_corner_3_rate","final_deep_3_rate","final_fga_total","final_ft_pct","final_games_played","final_games_played_pg","final_has_ws_breakout_timing_eff","final_has_ws_breakout_timing_minutes","final_has_ws_breakout_timing_volume","final_has_ws_last10","final_has_ws_last5","final_has_ws_prev10","final_has_ws_prev5","final_minutes_total","final_poss_per_game","final_poss_total","final_rim_fg_pct","final_rim_purity","final_season","final_shot_dist_var","final_stl_total","final_three_fg_pct","final_tov_total","final_trueShootingPct","final_trueShootingPct_team_resid","final_trueShootingPct_z","final_usage","final_usage_team_resid","final_usage_z","final_ws_breakout_timing_eff","final_ws_breakout_timing_minutes","final_ws_breakout_timing_volume","final_ws_delta_minutes_last10_minus_prev10","final_ws_delta_minutes_last5_minus_prev5","final_ws_delta_pps_last10_minus_prev10","final_ws_delta_pps_last5_minus_prev5","final_ws_fga_last10","final_ws_fga_last5","final_ws_minutes_last10","final_ws_minutes_last5","final_ws_on_net_rating_last10_mean","final_ws_on_net_rating_last5_mean","final_ws_pps_last10","final_ws_pps_last5","final_ws_pts_last10","final_ws_pts_last5","final_xy_coverage","has_spatial_data","slope_ast_total","slope_avg_shot_dist","slope_blk_total","slope_corner_3_pct","slope_corner_3_rate","slope_deep_3_rate","slope_fga_total","slope_ft_pct","slope_games_played","slope_games_played_pg","slope_has_ws_breakout_timing_eff","slope_has_ws_breakout_timing_minutes","slope_has_ws_breakout_timing_volume","slope_has_ws_last10","slope_has_ws_last5","slope_has_ws_prev10","slope_has_ws_prev5","slope_minutes_total","slope_poss_total","slope_rim_fg_pct","slope_rim_purity","slope_shot_dist_var","slope_stl_total","slope_three_fg_pct","slope_tov_total","slope_trueShootingPct","slope_usage","slope_ws_breakout_timing_eff","slope_ws_breakout_timing_minutes","slope_ws_breakout_timing_volume","slope_ws_delta_minutes_last10_minus_prev10","slope_ws_delta_minutes_last5_minus_prev5","slope_ws_delta_pps_last10_minus_prev10","slope_ws_delta_pps_last5_minus_prev5","slope_ws_fga_last10","slope_ws_fga_last5","slope_ws_minutes_last10","slope_ws_minutes_last5","slope_ws_on_net_rating_last10_mean","slope_ws_on_net_rating_last5_mean","slope_ws_pps_last10","slope_ws_pps_last5","slope_ws_pts_last10","slope_ws_pts_last5","slope_xy_coverage"],"feature_types":["float","float","float","float","float","float","float","float","float","float","float","float","float","float","float","float","float","float","float","float","float","float","float","float","float","float","float","float","float","float","float","float","float","float","float","float","float","float","float","float","float","float","float","float","float","int","int","int","int","int","float","float","float","float","float","float","float","float","float","float","float","float","float","float","int","int","float","float","float","float","float","float","float","float","float","float","float","float","float","float","int","float","int","int","int","float","float","float","int","int","float","float","int","float","float","float","float","float","float","int","float","float","float","float","float","float","int","float","float","int","float","float","float","int","float","float","float","int","float","int","float","int","float","float","float","int","float","float","float","float","int","float","int","int","int","float","float","float","float","float","float","float","float","float","float","float","float","float","float","float","float","float","float","float","float","float","float","float","float","float","float","float","float","float","float","float","float","float","float","float","float","float","float","float","float","float","float","float","float","float","float","int","float","int","float","float","float","int","float","float","float","float","float","float","float","float","float","float","int","float","float","float","float","int","float","int","float","int","float","float","float","float","float","float","float","float","float","float","float","float","float","float","float","float","float","float","float","float","float","float","float","float","int","float","float","float","float","float","float","float","float","float","float","float","float","float","float","float","float","float","float","float","float","float","float","float","float","float","float","float","float","float","float","float","float","float","float","float","float","float","float","float","float","float","float","float","float","float"],"gradient_booster":{"model":{"cats":{"enc":[],"feature_segments":[],"sorted_idx":[]},"gbtree_model_param":{"num_parallel_tree":"1","num_trees":"69"},"iteration_indptr":[0,1,2,3,4,5,6,7,8,9,10,11,12,13,14,15,16,17,18,19,20,21,22,23,24,25,26,27,28,29,30,31,32,33,34,35,36,37,38,39,40,41,42,43,44,45,46,47,48,49,50,51,52,53,54,55,56,57,58,59,60,61,62,63,64,65,66,67,68,69],"tree_info":[0,0,0,0,0,0,0,0,0,0,0,0,0,0,0,0,0,0,0,0,0,0,0,0,0,0,0,0,0,0,0,0,0,0,0,0,0,0,0,0,0,0,0,0,0,0,0,0,0,0,0,0,0,0,0,0,0,0,0,0,0,0,0,0,0,0,0,0,0],"trees":[{"base_weights":[-9.9685965E-3,2.1183194E-1,-8.0772597E-1,5.6426245E-1,-3.1547853E-1,-4.2603216E-1,-1.4878293E0,1.8062063E-1,1.378893E0,-0E0,-1.539001E0,-9.612673E-1,6.717043E-1,-2.8497085E-2,-1.0371776E-1,-6.6012144E-1,5.3819567E-1,2.3472252E0,5.150653E-1,-2.421496E-1,8.945095E-2,-3.329323E-2,-1.0663606E-1,5.9479023E-3,-1.2787435E0,-4.021887E-4,6.639692E-2,-1.1675034E0,1.992121E-2,8.0665064E-1,-4.711793E-2,5.672378E-2,1.7061678E-1,-4.790558E-1,8.3368264E-2,-4.549659E-1,7.439693E-2,-3.0108279E-2,-8.366591E-2,-3.0663727E-2,-8.586984E-2,2.171288E-2,1.361711E-1,1.3566369E-2,-5.9795417E-2,-3.383753E-2,5.6860775E-2],"categories":[],"categories_nodes":[],"categories_segments":[],"categories_sizes":[],"default_left":[0,0,0,0,0,0,0,0,0,0,0,0,0,0,0,0,0,0,0,0,0,0,0,0,0,0,0,0,0,0,0,0,0,0,0,0,0,0,0,0,0,0,0,0,0,0,0],"id":0,"left_children":[1,3,5,7,9,11,13,15,17,19,21,23,25,-1,-1,27,29,31,33,35,-1,-1,-1,-1,37,-1,-1,39,-1,41,-1,-1,-1,43,-1,45,-1,-1,-1,-1,-1,-1,-1,-1,-1,-1,-1],"loss_changes":[4.1110283E1,3.3926678E1,1.2301243E1,3.3735992E1,2.815836E1,2.0583092E1,8.07267E0,2.3040825E1,2.7564674E1,2.5998331E1,6.058132E0,8.241756E0,5.3320713E0,0E0,0E0,1.2838675E1,2.2052942E1,1.6398346E1,2.348101E1,2.0127916E1,0E0,0E0,0E0,0E0,3.6037655E0,0E0,0E0,3.5274906E0,0E0,3.131745E1,0E0,0E0,0E0,6.4977894E0,0E0,1.7711884E1,0E0,0E0,0E0,0E0,0E0,0E0,0E0,0E0,0E0,0E0,0E0],"parents":[2147483647,0,0,1,1,2,2,3,3,4,4,5,5,6,6,7,7,8,8,9,9,10,10,11,11,12,12,15,15,16,16,17,17,18,18,19,19,24,24,27,27,29,29,33,33,35,35],"right_children":[2,4,6,8,10,12,14,16,18,20,22,24,26,-1,-1,28,30,32,34,36,-1,-1,-1,-1,38,-1,-1,40,-1,42,-1,-1,-1,44,-1,46,-1,-1,-1,-1,-1,-1,-1,-1,-1,-1,-1],"split_conditions":[6.85249E-2,2.1E1,1.2E1,6.069873E-1,5.25E-1,1.3708804E0,5E0,1.02564104E-1,6.339607E-1,9.065934E-2,3.2E1,3.8E1,7.116552E-2,-2.8497085E-2,-1.0371776E-1,1.3207143E2,1.5809414E0,1.8E1,3.2166668E1,2.42E2,8.945095E-2,-3.329323E-2,-1.0663606E-1,5.9479023E-3,3.7254903E-1,-4.021887E-4,6.639692E-2,5.5172414E-1,1.992121E-2,1.4782056E0,-4.711793E-2,5.672378E-2,1.7061678E-1,6.3199335E-1,8.3368264E-2,6.381316E-1,7.439693E-2,-3.0108279E-2,-8.366591E-2,-3.0663727E-2,-8.586984E-2,2.171288E-2,1.361711E-1,1.3566369E-2,-5.9795417E-2,-3.383753E-2,5.6860775E-2],"split_indices":[161,92,160,25,51,213,47,50,213,256,127,6,258,0,0,6,213,53,24,6,0,0,0,0,51,0,0,52,0,213,0,0,0,25,0,208,0,0,0,0,0,0,0,0,0,0,0],"split_type":[0,0,0,0,0,0,0,0,0,0,0,0,0,0,0,0,0,0,0,0,0,0,0,0,0,0,0,0,0,0,0,0,0,0,0,0,0,0,0,0,0,0,0,0,0,0,0],"sum_hessian":[2.300325E2,1.804665E2,4.9566E1,1.08242E2,7.22245E1,3.2884E1,1.6682E1,7.4501E1,3.3741E1,5.8259E1,1.39655E1,2.22505E1,1.06335E1,7.3389997E0,9.343E0,2.1895E1,5.2606E1,1.5044E1,1.8697E1,5.2109E1,6.15E0,6.5795E0,7.386E0,5.1245E0,1.7126E1,5.6335E0,5E0,1.4795E1,7.1E0,4.4974E1,7.632E0,8.044E0,7E0,1.03045E1,8.3925E0,4.7109E1,5E0,7.3325E0,9.7935E0,8.5125E0,6.2825E0,3.87285E1,6.2455E0,5.27E0,5.0345E0,4.1909E1,5.2E0],"tree_param":{"num_deleted":"0","num_feature":"278","num_nodes":"47","size_leaf_vector":"1"}},{"base_weights":[-6.739101E-5,-1.3935636E-1,1.0218753E0,8.607172E-2,-9.193871E-1,-1.952427E-2,1.7048599E0,-8.266354E-2,1.3089306E0,-1.3303039E0,2.5989516E-2,1.2631272E-1,2.5249466E-2,-1.1302369E0,1.1585612E-1,1.2836526E-1,1.6918348E-1,-8.010729E-1,-1.8498124E0,-1.4744619E0,-3.908808E-3,2.2918184E-1,-8.459208E-2,5.263579E-2,-3.507149E-2,3.1656665E-3,-1.1618992E0,-5.9104007E-2,-1.2112093E-1,-3.128753E-2,-8.986106E-2,3.4442127E-2,-9.472105E-3,-2.8033158E-2,-7.250194E-2],"categories":[],"categories_nodes":[],"categories_segments":[],"categories_sizes":[],"default_left":[0,0,0,0,0,0,0,0,0,0,0,0,0,0,0,0,0,0,0,0,0,0,0,0,0,0,0,0,0,0,0,0,0,0,0],"id":1,"left_children":[1,3,5,7,9,-1,11,13,15,17,-1,-1,-1,19,21,-1,23,25,27,29,-1,31,-1,-1,-1,-1,33,-1,-1,-1,-1,-1,-1,-1,-1],"loss_changes":[3.2455082E1,3.555659E1,2.7166992E1,3.2620136E1,2.757042E1,0E0,1.681232E1,2.9099123E1,2.6778275E1,8.0366745E0,0E0,0E0,0E0,7.800606E0,2.431636E1,0E0,9.3645115E0,6.2611313E0,3.3134384E0,3.198124E0,0E0,2.1639572E1,0E0,0E0,0E0,0E0,1.3906898E0,0E0,0E0,0E0,0E0,0E0,0E0,0E0,0E0],"parents":[2147483647,0,0,1,1,2,2,3,3,4,4,6,6,7,7,8,8,9,9,13,13,14,14,16,16,17,17,18,18,19,19,21,21,26,26],"right_children":[2,4,6,8,10,-1,12,14,16,18,-1,-1,-1,20,22,-1,24,26,28,30,-1,32,-1,-1,-1,-1,34,-1,-1,-1,-1,-1,-1,-1,-1],"split_conditions":[1.2384598E1,9.756E1,2.142245E0,8.5714287E-1,1.03E2,-1.952427E-2,1.6067377E-1,5.169487E-1,3.3333334E-1,-9.057971E-3,2.5989516E-2,1.2631272E-1,2.5249466E-2,5.5E1,7.244444E1,1.2836526E-1,-7.1428575E-2,5.1652894E0,1.332014E1,1.5E1,-3.908808E-3,3.880597E-1,-8.459208E-2,5.263579E-2,-3.507149E-2,3.1656665E-3,1.1776251E1,-5.9104007E-2,-1.2112093E-1,-3.128753E-2,-8.986106E-2,3.4442127E-2,-9.472105E-3,-2.8033158E-2,-7.250194E-2],"split_indices":[115,154,58,85,119,0,91,25,239,159,0,0,0,89,24,0,155,115,128,119,0,90,0,0,0,0,128,0,0,0,0,0,0,0,0],"split_type":[0,0,0,0,0,0,0,0,0,0,0,0,0,0,0,0,0,0,0,0,0,0,0,0,0,0,0,0,0,0,0,0,0,0,0],"sum_hessian":[2.26622E2,2.00285E2,2.6337E1,1.55971E2,4.4314E1,8.6765E0,1.76605E1,1.378065E2,1.81645E1,3.45845E1,9.7295E0,9.778E0,7.8825E0,2.1287E1,1.165195E2,7.996E0,1.01685E1,1.84865E1,1.6098E1,1.5665E1,5.622E0,1.105195E2,6E0,5E0,5.1685E0,5.6055E0,1.2881E1,8.927E0,7.171E0,5.211E0,1.0454E1,5.2484E1,5.80355E1,5.24E0,7.641E0],"tree_param":{"num_deleted":"0","num_feature":"278","num_nodes":"35","size_leaf_vector":"1"}},{"base_weights":[3.3139024E-2,-6.2293243E-1,2.7011296E-1,-1.0295749E0,3.4695235E-1,8.09039E-1,-1.2210421E-1,-1.3396312E0,4.323023E-3,6.953823E-2,-3.904952E-2,-5.2658238E-2,1.108167E0,-2.7566215E-1,6.049907E-2,-1.5573045E0,-2.5125036E-2,1.6285056E0,1.8735078E-1,5.802637E-1,-5.3446734E-1,-1.7690922E0,-4.2551175E-2,5.796E-1,2.2413414E0,5.6602743E-2,-5.744219E-1,1.2843975E0,-1.4993657E-2,-9.138871E-1,1.9334579E-1,-4.097461E-2,-1.0265964E-1,-2.1758245E-2,6.97344E-2,2.7475445E-2,1.5045278E-1,2.0734942E-2,-7.074617E-2,1.8481221E-2,9.6431844E-2,-6.607162E-2,7.441769E-4,-3.4606997E-2,4.477887E-2],"categories":[],"categories_nodes":[],"categories_segments":[],"categories_sizes":[],"default_left":[0,0,0,0,0,0,0,0,0,0,0,0,0,0,0,0,0,0,0,0,0,0,0,0,0,0,0,0,0,0,0,0,0,0,0,0,0,0,0,0,0,0,0,0,0],"id":2,"left_children":[1,3,5,7,9,11,13,15,-1,-1,-1,-1,17,19,-1,21,-1,23,25,27,29,31,-1,33,35,-1,37,39,-1,41,43,-1,-1,-1,-1,-1,-1,-1,-1,-1,-1,-1,-1,-1,-1],"loss_changes":[3.5528477E1,2.4326881E1,3.569187E1,1.5129066E1,2.3020157E1,4.0738945E1,2.0292889E1,5.1707306E0,0E0,0E0,0E0,0E0,2.9091827E1,1.9972254E1,0E0,2.1596413E0,0E0,2.3645454E1,1.7609533E1,1.3499266E1,1.9241983E1,3.1997185E0,0E0,1.38392315E1,2.9633736E1,0E0,1.1999899E1,6.0821514E0,0E0,1.736353E1,1.5752825E1,0E0,0E0,0E0,0E0,0E0,0E0,0E0,0E0,0E0,0E0,0E0,0E0,0E0,0E0],"parents":[2147483647,0,0,1,1,2,2,3,3,4,4,5,5,6,6,7,7,12,12,13,13,15,15,17,17,18,18,19,19,20,20,21,21,23,23,24,24,26,26,27,27,29,29,30,30],"right_children":[2,4,6,8,10,12,14,16,-1,-1,-1,-1,18,20,-1,22,-1,24,26,28,30,32,-1,34,36,-1,38,40,-1,42,44,-1,-1,-1,-1,-1,-1,-1,-1,-1,-1,-1,-1,-1,-1],"split_conditions":[6E-1,4.083892E-2,6.856514E-3,1.8515881E0,8.556E-1,-2.9358072E-2,9.042692E-2,5.125E1,4.323023E-3,6.953823E-2,-3.904952E-2,-5.2658238E-2,3.6826605E-1,5.479103E-1,6.049907E-2,1.0526316E-2,-2.5125036E-2,5.9293046E0,3.0340195E-2,1.4014214E0,4.9E1,1E1,-4.2551175E-2,1.9E1,6.669227E-1,5.6602743E-2,3.8701802E-2,3.539063E-2,-1.4993657E-2,9.000383E0,6.0937107E-1,-4.097461E-2,-1.0265964E-1,-2.1758245E-2,6.97344E-2,2.7475445E-2,1.5045278E-1,2.0734942E-2,-7.074617E-2,1.8481221E-2,9.6431844E-2,-6.607162E-2,7.441769E-4,-3.4606997E-2,4.477887E-2],"split_indices":[19,258,259,59,104,209,76,24,0,0,0,0,91,208,0,155,0,129,209,69,109,89,0,87,7,0,212,162,0,129,25,0,0,0,0,0,0,0,0,0,0,0,0,0,0],"split_type":[0,0,0,0,0,0,0,0,0,0,0,0,0,0,0,0,0,0,0,0,0,0,0,0,0,0,0,0,0,0,0,0,0,0,0,0,0,0,0,0,0,0,0,0,0],"sum_hessian":[2.26665E2,5.96025E1,1.670625E2,4.2024498E1,1.7578E1,7.003E1,9.70325E1,3.2801E1,9.2235E0,9.0545E0,8.5235E0,9.297E0,6.0733E1,8.77815E1,9.251E0,2.52545E1,7.5465E0,3.82445E1,2.24885E1,2.0002E1,6.77795E1,1.8162E1,7.0925E0,1.4882E1,2.33625E1,9.8805E0,1.2608E1,1.092E1,9.082E0,4.44755E1,2.3304E1,5.158E0,1.3004E1,6.782E0,8.1E0,7.8685E0,1.5494E1,5.9700003E0,6.638E0,5.227E0,5.693E0,3.06925E1,1.3783E1,1.02505E1,1.30535E1],"tree_param":{"num_deleted":"0","num_feature":"278","num_nodes":"45","size_leaf_vector":"1"}},{"base_weights":[3.9430697E-2,-7.4822587E-1,2.8791606E-1,7.593497E-2,-9.9537253E-1,3.827885E-1,-7.678924E-2,3.1894416E-2,-1.1886303E0,4.8957178E-1,-1.088257E0,-1.4213836E0,-5.3735886E-4,9.7231567E-1,1.6301873E-1,-7.811917E-2,-1.9902907E-2,-1.9207907E0,-6.953806E-1,-5.2567597E-2,1.3349458E0,-6.260508E-2,1.5085921E0,-3.4036245E-2,-1.1210008E-1,3.9747083E-3,-7.499059E-2,-0E0,8.4928714E-2,-1.2383501E-2,5.1437624E-2,1.4838913E-1,3.8579337E-3],"categories":[],"categories_nodes":[],"categories_segments":[],"categories_sizes":[],"default_left":[0,0,0,0,0,0,0,0,0,0,0,0,0,0,0,0,0,0,0,0,0,0,0,0,0,0,0,0,0,0,0,0,0],"id":3,"left_children":[1,3,5,-1,7,9,-1,-1,11,13,15,17,-1,19,21,-1,-1,23,25,-1,27,29,31,-1,-1,-1,-1,-1,-1,-1,-1,-1,-1],"loss_changes":[4.687628E1,3.3624878E1,3.2001564E1,0E0,1.735648E1,2.7816359E1,0E0,0E0,1.2800873E1,2.5430225E1,3.1179323E0,1.2685104E1,0E0,4.9471394E1,3.0167131E1,0E0,0E0,7.219078E0,1.129613E1,0E0,2.706533E1,1.7408937E1,2.925082E1,0E0,0E0,0E0,0E0,0E0,0E0,0E0,0E0,0E0,0E0],"parents":[2147483647,0,0,1,1,2,2,4,4,5,5,8,8,9,9,10,10,11,11,13,13,14,14,17,17,18,18,20,20,21,21,22,22],"right_children":[2,4,6,-1,8,10,-1,-1,12,14,16,18,-1,20,22,-1,-1,24,26,-1,28,30,32,-1,-1,-1,-1,-1,-1,-1,-1,-1,-1],"split_conditions":[5.508124E-1,-3.9703988E-2,6.1803937E0,7.593497E-2,8E0,4.8672566E-1,-7.678924E-2,3.1894416E-2,1.8E1,6.069521E-3,7.0369434E-1,4.3375436E-3,-5.3735886E-4,-3.605042E-2,1.2972064E-1,-7.811917E-2,-1.9902907E-2,-4.1663393E-2,2.1420335E-2,-5.2567597E-2,2.4447185E-1,8.5333336E1,6.3793105E-1,-3.4036245E-2,-1.1210008E-1,3.9747083E-3,-7.499059E-2,-0E0,8.4928714E-2,-1.2383501E-2,5.1437624E-2,1.4838913E-1,3.8579337E-3],"split_indices":[59,162,68,0,121,122,0,0,48,259,7,77,0,209,212,0,0,108,72,0,108,239,107,0,0,0,0,0,0,0,0,0,0],"split_type":[0,0,0,0,0,0,0,0,0,0,0,0,0,0,0,0,0,0,0,0,0,0,0,0,0,0,0,0,0,0,0,0,0],"sum_hessian":[2.3764E2,5.64115E1,1.812285E2,5E0,5.14115E1,1.7307E2,8.1585E0,5.1415E0,4.627E1,1.620425E2,1.10275E1,3.8392E1,7.878E0,6.4463E1,9.75795E1,5.702E0,5.3255E0,2.1689E1,1.6703E1,9.4655E0,5.49975E1,8.432E1,1.32595E1,5.168E0,1.6521E1,8.9035E0,7.7995E0,1.20285E1,4.2969E1,7.2834E1,1.1486E1,6E0,7.2595E0],"tree_param":{"num_deleted":"0","num_feature":"278","num_nodes":"33","size_leaf_vector":"1"}},{"base_weights":[-1.8672664E-2,-1.8028137E-1,1.0981408E0,-8.229269E-1,8.6117187E-4,5.104617E-1,1.1777957E-1,3.168268E-2,-1.0410777E0,1.3922715E-1,-1.2461184E0,1.771743E-2,7.66203E-2,-1.02904454E-1,-6.795031E-1,-1.4340693E-1,7.8245425E-1,-7.725519E-3,-1.6977593E0,4.992772E-2,-2.7305061E-2,-2.3067339E-1,-1.4195702E0,-3.6954883E-1,1.0959873E0,1.876456E0,2.1182126E-1,-4.2325553E-2,-1.1008226E-1,-3.2271173E-2,4.473658E-2,-9.70362E-2,-3.3420574E-2,1.6207306E-2,-3.5521757E-2,4.3479647E-3,1.3543643E-1,5.2640613E-2,1.5179257E-1,3.9694753E-2,-1.6278418E-2],"categories":[],"categories_nodes":[],"categories_segments":[],"categories_sizes":[],"default_left":[0,0,0,0,0,0,0,0,0,0,0,0,0,0,0,0,0,0,0,0,0,0,0,0,0,0,0,0,0,0,0,0,0,0,0,0,0,0,0,0,0],"id":4,"left_children":[1,3,5,7,9,11,-1,-1,13,15,17,19,-1,-1,21,23,25,-1,27,-1,-1,29,31,33,35,37,39,-1,-1,-1,-1,-1,-1,-1,-1,-1,-1,-1,-1,-1,-1],"loss_changes":[4.4219955E1,2.5047775E1,2.1389702E1,1.572353E1,2.90799E1,1.1112625E1,0E0,0E0,1.3609879E1,2.7873207E1,7.8476753E0,9.5554695E0,0E0,0E0,1.0211173E1,3.020465E1,2.8591282E1,0E0,2.8656273E0,0E0,0E0,1.0511847E1,3.0952759E0,2.1776081E1,2.6546898E1,1.1526272E1,1.02914505E1,0E0,0E0,0E0,0E0,0E0,0E0,0E0,0E0,0E0,0E0,0E0,0E0,0E0,0E0],"parents":[2147483647,0,0,1,1,2,2,3,3,4,4,5,5,8,8,9,9,10,10,11,11,14,14,15,15,16,16,18,18,21,21,22,22,23,23,24,24,25,25,26,26],"right_children":[2,4,6,8,10,12,-1,-1,14,16,18,20,-1,-1,22,24,26,-1,28,-1,-1,30,32,34,36,38,40,-1,-1,-1,-1,-1,-1,-1,-1,-1,-1,-1,-1,-1,-1],"split_conditions":[1.2384598E1,5.1314944E-1,2.016E3,8E0,7.331748E-1,1.7291666E1,1.1777957E-1,3.168268E-2,1.8484288E0,6.024874E-1,5.5401664E0,-1.7E1,7.66203E-2,-1.02904454E-1,3.3372622E-2,5.3333332E1,3.75E-1,-7.725519E-3,3.3E1,4.992772E-2,-2.7305061E-2,1.4E1,9.820214E0,3.2258064E-1,7.5238097E-1,7.733333E-1,2.5714285E1,-4.2325553E-2,-1.1008226E-1,-3.2271173E-2,4.473658E-2,-9.70362E-2,-3.3420574E-2,1.6207306E-2,-3.5521757E-2,4.3479647E-3,1.3543643E-1,5.2640613E-2,1.5179257E-1,3.9694753E-2,-1.6278418E-2],"split_indices":[115,59,203,84,124,120,0,0,116,25,129,141,0,0,76,24,90,0,83,0,0,160,115,51,85,85,24,0,0,0,0,0,0,0,0,0,0,0,0,0,0],"split_type":[0,0,0,0,0,0,0,0,0,0,0,0,0,0,0,0,0,0,0,0,0,0,0,0,0,0,0,0,0,0,0,0,0,0,0,0,0,0,0,0,0],"sum_hessian":[2.434155E2,2.134555E2,2.996E1,4.6279E1,1.671765E2,2.143E1,8.53E0,5.7205E0,4.05585E1,1.51351E2,1.58255005E1,1.5211E1,6.219E0,9.3345E0,3.1224E1,1.055805E2,4.57705E1,5.089E0,1.07365E1,5.3355E0,9.8755E0,2.0337E1,1.0887E1,8.99505E1,1.563E1,1.48455E1,3.0925E1,5.0625E0,5.6740003E0,1.5237E1,5.1E0,5.414E0,5.473E0,2.95575E1,6.0393E1,1.0301E1,5.329E0,9.8455E0,5E0,1.47055E1,1.62195E1],"tree_param":{"num_deleted":"0","num_feature":"278","num_nodes":"41","size_leaf_vector":"1"}},{"base_weights":[6.4814515E-2,3.3115688E-1,-5.544627E-1,5.9377003E-2,1.2309136E0,-6.710072E-2,-1.0760895E0,-8.52346E-2,1.321235E0,2.2870982E0,3.297618E-1,5.9056338E-2,-3.9095873E-1,8.7839775E-3,-1.4720814E0,-6.4702547E-1,2.6259172E-1,1.2799777E-1,-1.5251699E-2,2.7295847E0,4.8968624E-2,-1.9626506E-1,8.6598255E-2,-6.6511106E-1,4.4734668E-2,-1.7449356E0,-1.3461149E-2,-8.651294E-1,4.096226E-2,7.146317E-1,-5.966925E-1,8.548672E-2,1.6662304E-1,1.9462539E-2,-5.371732E-1,-8.8817203E-1,1.1612498E-2,-1.0490373E0,-1.1583672E-1,-5.45658E-2,-6.2430254E-3,-1.9280372E-2,5.8453757E-2,-6.0873657E-2,1.4451304E-2,-4.6924904E-2,-1.0488642E-3,-6.4303845E-2,-8.630496E-3,-3.0567095E-2,-6.463435E-2],"categories":[],"categories_nodes":[],"categories_segments":[],"categories_sizes":[],"default_left":[0,0,0,0,0,0,0,0,0,0,0,0,0,0,0,0,0,0,0,0,0,0,0,0,0,0,0,0,0,0,0,0,0,0,0,0,0,0,0,0,0,0,0,0,0,0,0,0,0,0,0],"id":5,"left_children":[1,3,5,7,9,11,13,15,17,19,21,-1,23,-1,25,27,29,-1,-1,31,-1,33,-1,35,-1,37,-1,39,-1,41,43,-1,-1,-1,45,47,-1,49,-1,-1,-1,-1,-1,-1,-1,-1,-1,-1,-1,-1,-1],"loss_changes":[4.059915E1,4.1900707E1,1.8624054E1,2.4573208E1,3.6870773E1,1.6317623E1,1.8022194E1,2.3759418E1,2.8896004E1,7.4334564E0,1.72362E1,0E0,1.1890804E1,0E0,8.253521E0,1.5579376E1,2.9585476E1,0E0,0E0,1.7373276E0,0E0,3.6876698E0,0E0,5.6976767E0,0E0,5.9531555E0,0E0,6.609123E0,0E0,2.5380224E1,1.4925234E1,0E0,0E0,0E0,2.265799E0,5.897957E0,0E0,2.7676678E-1,0E0,0E0,0E0,0E0,0E0,0E0,0E0,0E0,0E0,0E0,0E0,0E0,0E0],"parents":[2147483647,0,0,1,1,2,2,3,3,4,4,5,5,6,6,7,7,8,8,9,9,10,10,12,12,14,14,15,15,16,16,19,19,21,21,23,23,25,25,27,27,29,29,30,30,34,34,35,35,37,37],"right_children":[2,4,6,8,10,12,14,16,18,20,22,-1,24,-1,26,28,30,-1,-1,32,-1,34,-1,36,-1,38,-1,40,-1,42,44,-1,-1,-1,46,48,-1,50,-1,-1,-1,-1,-1,-1,-1,-1,-1,-1,-1,-1,-1],"split_conditions":[6.776E1,1.7E1,3.877551E-1,2.2892492E-1,7.5E1,3.006993E-1,-4.208472E-3,6.2128323E-1,4.6E1,3.1112817E-3,9.8E1,5.9056338E-2,5.5783212E-2,8.7839775E-3,9.266958E-2,6.2214847E0,7E0,1.2799777E-1,-1.5251699E-2,4.3E1,4.8968624E-2,1.05E2,8.6598255E-2,3.548387E-1,4.4734668E-2,1.2221204E1,-1.3461149E-2,2.258726E0,4.096226E-2,2.3359938E0,1.9E1,8.548672E-2,1.6662304E-1,1.9462539E-2,2.081315E-1,7E0,1.1612498E-2,4.6666667E-1,-1.1583672E-1,-5.45658E-2,-6.2430254E-3,-1.9280372E-2,5.8453757E-2,-6.0873657E-2,1.4451304E-2,-4.6924904E-2,-1.0488642E-3,-6.4303845E-2,-8.630496E-3,-3.0567095E-2,-6.463435E-2],"split_indices":[154,57,51,211,83,23,72,19,119,240,106,0,142,0,209,116,57,0,0,84,0,117,0,51,0,128,0,71,0,116,103,0,0,0,211,57,0,51,0,0,0,0,0,0,0,0,0,0,0,0,0],"split_type":[0,0,0,0,0,0,0,0,0,0,0,0,0,0,0,0,0,0,0,0,0,0,0,0,0,0,0,0,0,0,0,0,0,0,0,0,0,0,0,0,0,0,0,0,0,0,0,0,0,0,0],"sum_hessian":[2.441675E2,1.711745E2,7.2993E1,1.323685E2,3.8806E1,3.84185E1,3.45745E1,1.19524E2,1.28445E1,1.7107E1,2.1699E1,7.3055E0,3.1113E1,8.382E0,2.61925E1,4.54855E1,7.40385E1,7E0,5.8445E0,1.19125E1,5.1945E0,1.6353E1,5.346E0,2.61065E1,5.0065E0,2.09145E1,5.278E0,4.0012E1,5.4735003E0,4.87025E1,2.5336E1,5.9125E0,6E0,5.8575E0,1.04955E1,2.10065E1,5.1E0,1.0791E1,1.01235E1,3.0181E1,9.831E0,1.4216E1,3.44865E1,1.4742E1,1.0594E1,5.3355E0,5.16E0,1.28975E1,8.109E0,5.2605E0,5.5305E0],"tree_param":{"num_deleted":"0","num_feature":"278","num_nodes":"51","size_leaf_vector":"1"}},{"base_weights":[4.933088E-3,-1.838527E-1,8.100802E-1,-3.362689E-1,4.374447E-1,2.7637678E-1,2.1940475E0,-1.22639656E-1,-9.286671E-1,9.880766E-2,4.993599E-2,8.3726627E-1,-5.662892E-1,4.3238927E-2,1.6843617E-1,-2.5998023E-1,7.7933274E-2,4.612236E-2,-1.3430053E0,-4.731267E-1,1.0261648E0,-0E0,7.149411E-2,1.796801E-3,-4.684296E-2,-1.5192645E0,-4.8371453E-2,-8.694334E-1,-1.9292506E0,-6.108999E-2,1.5643556E-1,2.0388292E-2,7.335882E-2,-2.987436E-2,-9.8144755E-2,-1.459977E-2,4.2868342E-2,-5.8499325E-2,-4.666279E-3,-5.716879E-2,-1.1653236E-1,3.0638332E-2,-1.4446355E-2],"categories":[],"categories_nodes":[],"categories_segments":[],"categories_sizes":[],"default_left":[0,0,0,0,0,0,0,0,0,0,0,0,0,0,0,0,0,0,0,0,0,0,0,0,0,0,0,0,0,0,0,0,0,0,0,0,0,0,0,0,0,0,0],"id":6,"left_children":[1,3,5,7,9,11,13,15,17,-1,19,21,23,-1,-1,25,-1,-1,27,29,31,-1,-1,-1,-1,33,35,37,39,-1,41,-1,-1,-1,-1,-1,-1,-1,-1,-1,-1,-1,-1],"loss_changes":[3.5133327E1,1.7828474E1,3.1589705E1,1.885463E1,2.1825138E1,1.6049042E1,1.5444691E1,2.6148169E1,3.170691E1,0E0,1.6227839E1,1.0043241E1,3.1746693E0,0E0,0E0,2.7615646E1,0E0,0E0,7.167206E0,1.0017096E1,2.2414446E0,0E0,0E0,0E0,0E0,4.6774826E0,2.0177732E1,4.4517536E0,1.3318214E0,0E0,2.651373E0,0E0,0E0,0E0,0E0,0E0,0E0,0E0,0E0,0E0,0E0,0E0,0E0],"parents":[2147483647,0,0,1,1,2,2,3,3,4,4,5,5,6,6,7,7,8,8,10,10,11,11,12,12,15,15,18,18,19,19,20,20,25,25,26,26,27,27,28,28,30,30],"right_children":[2,4,6,8,10,12,14,16,18,-1,20,22,24,-1,-1,26,-1,-1,28,30,32,-1,-1,-1,-1,34,36,38,40,-1,42,-1,-1,-1,-1,-1,-1,-1,-1,-1,-1,-1,-1],"split_conditions":[4.2783155E0,1.15726285E-1,9.13381E0,5.279166E-2,1.4E1,1.9243104E0,9.826E-1,3.834197E-1,4E0,9.880766E-2,9.283819E0,1.5548E2,6.7945855E-4,4.3238927E-2,1.6843617E-1,6E0,7.7933274E-2,4.612236E-2,2.3333333E-1,2.9308E2,-3.5983536E-1,-0E0,7.149411E-2,1.796801E-3,-4.684296E-2,-1.2E1,6.1791384E-1,5.3E1,1.1392811E-2,-6.108999E-2,2.3642164E-1,2.0388292E-2,7.335882E-2,-2.987436E-2,-9.8144755E-2,-1.459977E-2,4.2868342E-2,-5.8499325E-2,-4.666279E-3,-5.716879E-2,-1.1653236E-1,3.0638332E-2,-1.4446355E-2],"split_indices":[59,212,115,161,92,116,104,93,87,0,115,101,162,0,0,114,0,0,50,101,66,0,0,0,0,141,25,239,252,0,211,0,0,0,0,0,0,0,0,0,0,0,0],"split_type":[0,0,0,0,0,0,0,0,0,0,0,0,0,0,0,0,0,0,0,0,0,0,0,0,0,0,0,0,0,0,0,0,0,0,0,0,0,0,0,0,0,0,0],"sum_hessian":[2.28748E2,1.858245E2,4.29235E1,1.49716E2,3.61085E1,3.18955E1,1.1028E1,1.110465E2,3.86695E1,6.3875E0,2.9721E1,1.92245E1,1.26710005E1,6.028E0,5E0,1.03497E2,7.5495E0,6.804E0,3.18655E1,1.9621E1,1.01E1,8.378E0,1.08465E1,5.068E0,7.603E0,1.39325E1,8.95645E1,1.90945E1,1.2771E1,8.6055E0,1.10155E1,5.1E0,5E0,5.3625E0,8.57E0,7.1201E1,1.83635E1,1.33055E1,5.789E0,5.703E0,7.068E0,5.366E0,5.6495E0],"tree_param":{"num_deleted":"0","num_feature":"278","num_nodes":"43","size_leaf_vector":"1"}},{"base_weights":[5.0483484E-2,-7.233349E-1,2.762756E-1,-1.1310795E-1,-1.6767623E0,4.7630417E-1,-5.990675E-1,-7.403731E-2,1.9032106E-1,-9.9824235E-2,-2.862375E-2,6.04102E-1,-1.1891963E0,3.564472E-1,-1.2837368E0,7.567092E-2,-1.6547146E-1,-5.5411905E-2,7.086862E-1,-1.8503914E-2,-8.837601E-2,-1.8172847E-2,4.6972435E-2,-1.7972953E0,-2.8943805E-2,-7.6306075E-1,4.498613E-1,3.495488E-2,9.2853934E-1,-4.8502363E-2,-1.1421877E-1,-1.3449076E-2,-6.054178E-2,5.8030885E-2,-1.9803653E-2,-2.2129416E-2,8.675083E-2,-1.4402687E-2,5.7459146E-2],"categories":[],"categories_nodes":[],"categories_segments":[],"categories_sizes":[],"default_left":[0,0,0,0,0,0,0,0,0,0,0,0,0,0,0,0,0,0,0,0,0,0,0,0,0,0,0,0,0,0,0,0,0,0,0,0,0,0,0],"id":7,"left_children":[1,3,5,7,9,11,13,-1,15,-1,-1,17,19,21,23,-1,25,-1,27,-1,-1,-1,-1,29,-1,31,33,35,37,-1,-1,-1,-1,-1,-1,-1,-1,-1,-1],"loss_changes":[4.254166E1,3.1615332E1,3.3299313E1,1.4792446E1,6.1266365E0,3.347787E1,2.3732304E1,0E0,1.4126125E1,0E0,0E0,2.6518524E1,4.470418E0,6.910145E0,6.2952843E0,0E0,9.14297E0,0E0,2.0059845E1,0E0,0E0,0E0,0E0,2.1109047E0,0E0,2.3029518E0,7.9285536E0,2.9056257E1,2.7961777E1,0E0,0E0,0E0,0E0,0E0,0E0,0E0,0E0,0E0,0E0],"parents":[2147483647,0,0,1,1,2,2,3,3,4,4,5,5,6,6,8,8,11,11,12,12,13,13,14,14,16,16,18,18,23,23,25,25,26,26,27,27,28,28],"right_children":[2,4,6,8,10,12,14,-1,16,-1,-1,18,20,22,24,-1,26,-1,28,-1,-1,-1,-1,30,-1,32,34,36,38,-1,-1,-1,-1,-1,-1,-1,-1,-1,-1],"split_conditions":[5.5187637E-1,2.8672943E-2,3.1165108E-1,-7.262566E-2,8E0,4.8314607E-1,3.6E1,-7.403731E-2,8E0,-9.9824235E-2,-2.862375E-2,-2.5428134E-1,-4.6296295E-2,3.0449826E-1,3.3973855E-1,7.567092E-2,3.9E1,-5.5411905E-2,-3E0,-1.8503914E-2,-8.837601E-2,-1.8172847E-2,4.6972435E-2,1E0,-2.8943805E-2,7.0028055E-1,1.2584219E0,9.230769E-1,-3.0303031E-2,-4.8502363E-2,-1.1421877E-1,-1.3449076E-2,-6.054178E-2,5.8030885E-2,-1.9803653E-2,-2.2129416E-2,8.675083E-2,-1.4402687E-2,5.7459146E-2],"split_indices":[59,162,74,209,47,122,141,0,83,0,0,213,252,111,23,0,53,0,141,0,0,0,0,88,0,7,68,52,252,0,0,0,0,0,0,0,0,0,0],"split_type":[0,0,0,0,0,0,0,0,0,0,0,0,0,0,0,0,0,0,0,0,0,0,0,0,0,0,0,0,0,0,0,0,0,0,0,0,0,0,0],"sum_hessian":[2.41594E2,5.39735E1,1.876205E2,3.3656E1,2.03175E1,1.531855E2,3.4435E1,5.4665E0,2.81895E1,1.5059E1,5.2585E0,1.429165E2,1.0269E1,1.45135E1,1.99215E1,5.344E0,2.2845499E1,7.619E0,1.352975E2,5E0,5.269E0,6.586E0,7.9275E0,1.05460005E1,9.3755E0,1.15505E1,1.1295E1,3.3685E1,1.016125E2,5.093E0,5.453E0,6.3585E0,5.192E0,6E0,5.295E0,2.68295E1,6.8555E0,1.5483E1,8.61295E1],"tree_param":{"num_deleted":"0","num_feature":"278","num_nodes":"39","size_leaf_vector":"1"}},{"base_weights":[-6.5133005E-2,3.5177967E-1,-4.5106992E-1,6.035621E-1,-8.987509E-1,-1.4690745E0,-2.6093623E-1,7.975722E-1,-5.374976E-1,-7.622426E-2,-2.0897854E-3,-1.7970897E-2,-9.369088E-2,-5.272356E-1,4.7685E-1,1.0489922E0,-3.4297004E-1,-5.950885E-2,2.0509187E-2,3.860018E-1,-7.9569024E-1,-4.3899722E-2,1.0564743E0,8.875525E-2,1.4912442E0,-4.7780685E-2,2.2281844E-2,-1.9984584E-2,8.5642976E-1,8.755053E-2,-1.0196229E0,1.2049072E-1,4.3600017E-1,-3.3704348E-2,3.0036388E-2,2.2949455E-2,1.0375791E-1,6.37192E-2,1.1799329E-2,-3.779683E-2,5.3886253E-2,-3.0259723E-2,-8.600394E-2,4.9469285E-2,-1.9971825E-2],"categories":[],"categories_nodes":[],"categories_segments":[],"categories_sizes":[],"default_left":[0,0,0,0,0,0,0,0,0,0,0,0,0,0,0,0,0,0,0,0,0,0,0,0,0,0,0,0,0,0,0,0,0,0,0,0,0,0,0,0,0,0,0,0,0],"id":8,"left_children":[1,3,5,7,9,11,13,15,17,-1,-1,-1,-1,19,21,23,25,-1,-1,27,29,-1,31,33,35,-1,-1,-1,37,39,41,-1,43,-1,-1,-1,-1,-1,-1,-1,-1,-1,-1,-1,-1],"loss_changes":[3.7449757E1,3.572013E1,2.2841412E1,2.1207142E1,1.0008441E1,7.513302E0,2.0524015E1,2.3542114E1,9.315327E0,0E0,0E0,0E0,0E0,1.9071926E1,2.2764618E1,2.7889687E1,7.839591E0,0E0,0E0,7.0184546E0,1.1937714E1,0E0,1.5429602E1,9.013038E0,2.6097694E1,0E0,0E0,0E0,2.5610971E0,1.1580436E1,1.2539158E1,0E0,7.3707085E0,0E0,0E0,0E0,0E0,0E0,0E0,0E0,0E0,0E0,0E0,0E0,0E0],"parents":[2147483647,0,0,1,1,2,2,3,3,4,4,5,5,6,6,7,7,8,8,13,13,14,14,15,15,16,16,19,19,20,20,22,22,23,23,24,24,28,28,29,29,30,30,32,32],"right_children":[2,4,6,8,10,12,14,16,18,-1,-1,-1,-1,20,22,24,26,-1,-1,28,30,-1,32,34,36,-1,-1,-1,38,40,42,-1,44,-1,-1,-1,-1,-1,-1,-1,-1,-1,-1,-1,-1],"split_conditions":[5.5004773E-3,3.04E2,8.151288E-1,1.13852E1,5.2E1,2.8672943E-2,1.21421054E-1,9.2E1,6.07221E-1,-7.622426E-2,-2.0897854E-3,-1.7970897E-2,-9.369088E-2,2.1E1,5.0813007E0,5.7703404E0,7.8E1,-5.950885E-2,2.0509187E-2,1.6166666E1,1.6966406E0,-4.3899722E-2,2.014E3,3.36574E-1,6.164803E-1,-4.7780685E-2,2.2281844E-2,-1.9984584E-2,2E1,1.02564104E-1,4.0988356E-2,1.2049072E-1,7.4E1,-3.3704348E-2,3.0036388E-2,2.2949455E-2,1.0375791E-1,6.37192E-2,1.1799329E-2,-3.779683E-2,5.3886253E-2,-3.0259723E-2,-8.600394E-2,4.9469285E-2,-1.9971825E-2],"split_indices":[162,117,58,129,121,162,212,83,208,0,0,0,0,24,115,129,84,0,0,24,58,0,203,124,19,0,0,0,53,50,72,0,84,0,0,0,0,0,0,0,0,0,0,0,0],"split_type":[0,0,0,0,0,0,0,0,0,0,0,0,0,0,0,0,0,0,0,0,0,0,0,0,0,0,0,0,0,0,0,0,0,0,0,0,0,0,0,0,0,0,0,0,0],"sum_hessian":[2.30701E2,1.10818E2,1.19883E2,9.27425E1,1.80755E1,1.77255E1,1.021575E2,7.95975E1,1.3145E1,9.9295E0,8.146E0,5.308E0,1.24175E1,7.5373E1,2.67845E1,6.5358E1,1.42395E1,7.695E0,5.45E0,1.6939E1,5.8434E1,7.8195E0,1.8965E1,2.10595E1,4.42985E1,7.966E0,6.2735E0,6.3205E0,1.06185E1,1.18515E1,4.65825E1,5.0045E0,1.39605E1,8.252E0,1.28075E1,1.6712E1,2.75865E1,5.6184998E0,5E0,6.473E0,5.3785E0,3.05275E1,1.6055E1,8.359E0,5.6015E0],"tree_param":{"num_deleted":"0","num_feature":"278","num_nodes":"45","size_leaf_vector":"1"}},{"base_weights":[1.2158699E-2,3.730068E-1,-3.1676733E-1,-6.626988E-1,6.3448507E-1,5.9372663E-2,-4.3119612E-1,-1.2700531E0,9.80493E-3,1.6054646E0,8.323591E-2,-6.988728E-2,-8.2755655E-1,-3.2557875E-2,-8.403095E-2,-4.7177004E-4,2.2377393E0,6.262535E-1,-6.637174E-1,1.9926016E-1,-1.1407958E0,-1.2392353E0,-1.9954047E-1,1.1198639E0,3.0130577E0,-2.638105E-2,1.0910379E0,-1.1518524E0,9.640161E-3,-2.8323052E-2,7.8909114E-2,-7.7850826E-2,-2.0414611E-2,-1.8697744E-2,-1.5103589E0,-4.5927364E-2,3.689535E-1,8.9679904E-2,1.4446246E-2,1.8199758E-1,9.3024515E-2,1.1432077E-3,7.556035E-2,-7.237954E-2,-2.569361E-2,3.6956828E-2,-2.029132E-2,-4.001966E-2,-9.730634E-2,-6.779571E-3,4.072083E-2],"categories":[],"categories_nodes":[],"categories_segments":[],"categories_sizes":[],"default_left":[0,0,0,0,0,0,0,0,0,0,0,0,0,0,0,0,0,0,0,0,0,0,0,0,0,0,0,0,0,0,0,0,0,0,0,0,0,0,0,0,0,0,0,0,0,0,0,0,0,0,0],"id":9,"left_children":[1,3,5,7,9,-1,11,13,-1,15,17,19,21,-1,-1,-1,23,25,27,29,31,33,35,37,39,-1,41,43,-1,45,-1,-1,-1,-1,47,-1,49,-1,-1,-1,-1,-1,-1,-1,-1,-1,-1,-1,-1,-1,-1],"loss_changes":[2.8704718E1,3.1678177E1,2.2187464E1,1.2707804E1,4.934289E1,0E0,1.6783827E1,2.2482624E0,0E0,3.4416786E1,2.4863424E1,1.8501287E1,1.4127335E1,0E0,0E0,0E0,1.7100204E1,1.9670212E1,1.1098426E1,1.6261597E1,3.098154E0,7.1367607E0,1.0009115E1,5.7194366E0,2.494255E0,0E0,1.1343634E1,2.1999092E0,0E0,1.3260943E1,0E0,0E0,0E0,0E0,5.961281E0,0E0,3.273765E0,0E0,0E0,0E0,0E0,0E0,0E0,0E0,0E0,0E0,0E0,0E0,0E0,0E0,0E0],"parents":[2147483647,0,0,1,1,2,2,3,3,4,4,6,6,7,7,9,9,10,10,11,11,12,12,16,16,17,17,18,18,19,19,20,20,21,21,22,22,23,23,24,24,26,26,27,27,29,29,34,34,36,36],"right_children":[2,4,6,8,10,-1,12,14,-1,16,18,20,22,-1,-1,-1,24,26,28,30,32,34,36,38,40,-1,42,44,-1,46,-1,-1,-1,-1,48,-1,50,-1,-1,-1,-1,-1,-1,-1,-1,-1,-1,-1,-1,-1,-1],"split_conditions":[2.4095415E-1,3E0,2.872E1,1.9752493E-2,1.5E1,5.9372663E-2,3.7288135E-1,8.7833685E-1,9.80493E-3,5.537365E0,1.1319051E0,5.1633116E-2,7E0,-3.2557875E-2,-8.403095E-2,-4.7177004E-4,7.6033056E-1,5.432807E-1,2.45612E0,7.8431375E-2,3.6328218E0,7.146767E-1,5.0966873E0,-1.1502184E-2,4.2E1,-2.638105E-2,-7.493671E-3,2.1815437E-1,9.640161E-3,-2.5280898E-2,7.8909114E-2,-7.7850826E-2,-2.0414611E-2,-1.8697744E-2,1.2221204E1,-4.5927364E-2,1.1612364E-1,8.9679904E-2,1.4446246E-2,1.8199758E-1,9.3024515E-2,1.1432077E-3,7.556035E-2,-7.237954E-2,-2.569361E-2,3.6956828E-2,-2.029132E-2,-4.001966E-2,-9.730634E-2,-6.779571E-3,4.072083E-2],"split_indices":[91,57,101,258,87,0,122,213,0,115,67,161,160,0,0,0,188,25,67,240,70,213,129,76,119,0,252,211,0,240,0,0,0,0,128,0,123,0,0,0,0,0,0,0,0,0,0,0,0,0,0],"split_type":[0,0,0,0,0,0,0,0,0,0,0,0,0,0,0,0,0,0,0,0,0,0,0,0,0,0,0,0,0,0,0,0,0,0,0,0,0,0,0,0,0,0,0,0,0,0,0,0,0,0,0],"sum_hessian":[2.397985E2,1.144315E2,1.25367E2,2.268E1,9.17515E1,8.138E0,1.17229E2,1.30725E1,9.6075E0,3.2468E1,5.92835E1,6.20735E1,5.51555E1,6.342E0,6.7304997E0,9.368E0,2.31E1,3.4499E1,2.47845E1,5.0182E1,1.18915E1,3.2632E1,2.25235E1,1.0514E1,1.2586E1,9.8055E0,2.46935E1,1.5642E1,9.1425E0,4.38515E1,6.3305E0,6.778E0,5.1135E0,8.441E0,2.4191E1,9.751E0,1.27725E1,5.1E0,5.414E0,6.698E0,5.888E0,7.336E0,1.73575E1,9.7135E0,5.9285E0,1.4055E1,2.97965E1,1.0367E1,1.3824E1,6.21E0,6.5625E0],"tree_param":{"num_deleted":"0","num_feature":"278","num_nodes":"51","size_leaf_vector":"1"}},{"base_weights":[4.036061E-3,-1.7752403E-1,6.1405295E-1,-8.191886E-2,-9.1160834E-2,1.8391857E-1,1.6601639E0,-2.4431653E-1,6.39117E-1,7.1617925E-1,-7.5218666E-1,6.257211E-3,2.3579392E0,1.7755386E-1,-5.873808E-1,1.9074526E-1,9.744874E-2,-2.599335E-2,1.0685608E0,-2.2552838E-3,-7.83713E-2,6.940334E-2,1.4543276E-1,-2.4444571E-1,1.0775303E0,-7.815038E-1,2.4641882E-1,-1.7000747E-1,6.550227E-2,5.312573E-1,8.775189E-2,-2.9089166E-2,5.2991327E-2,9.401639E-3,9.42849E-2,1.9297313E-3,-4.821637E-2,4.9830932E-2,-3.5161033E-2,9.078112E-3,-4.863852E-2,-4.242449E-4,4.671402E-2],"categories":[],"categories_nodes":[],"categories_segments":[],"categories_sizes":[],"default_left":[0,0,0,0,0,0,0,0,0,0,0,0,0,0,0,0,0,0,0,0,0,0,0,0,0,0,0,0,0,0,0,0,0,0,0,0,0,0,0,0,0,0,0],"id":10,"left_children":[1,3,5,7,-1,9,11,13,15,17,19,-1,21,23,25,27,-1,-1,29,-1,-1,-1,-1,31,33,35,37,39,-1,41,-1,-1,-1,-1,-1,-1,-1,-1,-1,-1,-1,-1,-1],"loss_changes":[2.7311216E1,2.9494238E1,2.4975761E1,2.123034E1,0E0,2.1111166E1,1.6912838E1,2.1565624E1,1.8977047E1,1.2330205E1,8.638885E0,0E0,1.4635735E0,2.5798313E1,1.3516712E1,1.0827402E1,0E0,0E0,6.7059345E0,0E0,0E0,0E0,0E0,2.096714E1,1.5003599E1,1.0151634E1,1.2233262E1,6.031658E0,0E0,3.032792E0,0E0,0E0,0E0,0E0,0E0,0E0,0E0,0E0,0E0,0E0,0E0,0E0,0E0],"parents":[2147483647,0,0,1,1,2,2,3,3,5,5,6,6,7,7,8,8,9,9,10,10,12,12,13,13,14,14,15,15,18,18,23,23,24,24,25,25,26,26,27,27,29,29],"right_children":[2,4,6,8,-1,10,12,14,16,18,20,-1,22,24,26,28,-1,-1,30,-1,-1,-1,-1,32,34,36,38,40,-1,42,-1,-1,-1,-1,-1,-1,-1,-1,-1,-1,-1,-1,-1],"split_conditions":[3.5891302E0,6.5214634E0,9.893E-1,8.3333336E-2,-9.1160834E-2,9.08E-1,1E0,6.3905045E-3,4.7666668E1,4.7E1,1.6E1,6.257211E-3,2.8432473E-3,1.9E1,1.0063254E1,7.7380955E-2,9.744874E-2,-2.599335E-2,2.016E3,-2.2552838E-3,-7.83713E-2,6.940334E-2,1.4543276E-1,6.195135E-1,7.7823126E-1,2.7114968E0,1.3888889E-2,1.6133942E-2,6.550227E-2,4.722222E-1,8.775189E-2,-2.9089166E-2,5.2991327E-2,9.401639E-3,9.42849E-2,1.9297313E-3,-4.821637E-2,4.9830932E-2,-3.5161033E-2,9.078112E-3,-4.863852E-2,-4.242449E-4,4.671402E-2],"split_indices":[59,68,104,142,0,104,121,259,24,82,87,0,123,103,115,252,0,0,203,0,0,0,0,25,7,55,240,159,0,51,0,0,0,0,0,0,0,0,0,0,0,0,0],"split_type":[0,0,0,0,0,0,0,0,0,0,0,0,0,0,0,0,0,0,0,0,0,0,0,0,0,0,0,0,0,0,0,0,0,0,0,0,0,0,0,0,0,0,0],"sum_hessian":[2.442135E2,1.886195E2,5.5594E1,1.79313E2,9.3065E0,4.02965E1,1.52975E1,1.470035E2,3.23095E1,2.59075E1,1.4389E1,5.194E0,1.01035E1,6.6015E1,8.09885E1,2.49805E1,7.329E0,5.579E0,2.03285E1,8.3365E0,6.0525E0,5E0,5.1035E0,4.5362E1,2.0653E1,6.5842E1,1.51465E1,1.94655E1,5.515E0,1.248E1,7.8485003E0,3.65415E1,8.8205E0,1.04775E1,1.01755E1,1.20465E1,5.37955E1,8.493E0,6.6535E0,1.39885E1,5.477E0,5.6475E0,6.8325E0],"tree_param":{"num_deleted":"0","num_feature":"278","num_nodes":"43","size_leaf_vector":"1"}},{"base_weights":[-7.3096566E-3,-6.4954555E-1,1.7488204E-1,2.3681087E-2,-9.380441E-1,2.8310758E-1,-9.575549E-1,-1.19538E0,1.2984133E-2,-2.965235E-1,5.2907515E-1,-1.3627644E-2,-7.8222685E-2,-1.4660062E0,-1.7078873E-2,-6.1171196E-2,-1.0261543E0,6.767467E-1,-7.726535E-1,-2.8928144E-2,-1.7325228E0,-3.5863626E-1,5.8051407E-2,-7.0247434E-2,-2.115499E-2,-3.9961595E-2,8.055605E-1,2.0969108E-2,-9.1329865E-2,-4.6631247E-2,-9.7724594E-2,5.110895E-3,-6.863331E-2,6.6876434E-2,1.6937379E-2],"categories":[],"categories_nodes":[],"categories_segments":[],"categories_sizes":[],"default_left":[0,0,0,0,0,0,0,0,0,0,0,0,0,0,0,0,0,0,0,0,0,0,0,0,0,0,0,0,0,0,0,0,0,0,0],"id":11,"left_children":[1,3,5,-1,7,9,11,13,-1,15,17,-1,-1,19,-1,21,23,25,27,-1,29,31,-1,-1,-1,-1,33,-1,-1,-1,-1,-1,-1,-1,-1],"loss_changes":[2.6843037E1,1.6927738E1,2.2056456E1,0E0,1.2968807E1,2.3505157E1,5.9174376E0,7.1291695E0,0E0,8.287697E0,2.2685307E1,0E0,0E0,4.7445183E0,0E0,1.4302004E1,1.9291286E0,2.0454205E1,1.6170649E1,0E0,1.23526E0,1.5092848E1,0E0,0E0,0E0,0E0,2.3315659E1,0E0,0E0,0E0,0E0,0E0,0E0,0E0,0E0],"parents":[2147483647,0,0,1,1,2,2,4,4,5,5,6,6,7,7,9,9,10,10,13,13,15,15,16,16,17,17,18,18,20,20,21,21,26,26],"right_children":[2,4,6,-1,8,10,12,14,-1,16,18,-1,-1,20,-1,22,24,26,28,-1,30,32,-1,-1,-1,-1,34,-1,-1,-1,-1,-1,-1,-1,-1],"split_conditions":[5.1314944E-1,-3.702E1,1.2657256E0,2.3681087E-2,3.8771103E1,3.710575E0,4.4210526E-1,3.18E2,1.2984133E-2,9.866E-1,7.331748E-1,-1.3627644E-2,-7.8222685E-2,9.52381E-2,-1.7078873E-2,6.5E1,1.83295E1,-1.985147E-2,4.067142E-1,-2.8928144E-2,1.5E1,7.1408355E-1,5.8051407E-2,-7.0247434E-2,-2.115499E-2,-3.9961595E-2,6.069521E-3,2.0969108E-2,-9.1329865E-2,-4.6631247E-2,-9.7724594E-2,5.110895E-3,-6.863331E-2,6.6876434E-2,1.6937379E-2],"split_indices":[59,251,74,0,54,55,51,113,0,104,124,0,0,51,0,89,128,212,23,0,119,7,0,0,0,0,259,0,0,0,0,0,0,0,0],"split_type":[0,0,0,0,0,0,0,0,0,0,0,0,0,0,0,0,0,0,0,0,0,0,0,0,0,0,0,0,0,0,0,0,0,0,0],"sum_hessian":[2.270315E2,4.97265E1,1.77305E2,9.9605E0,3.9766E1,1.626035E2,1.47015E1,3.28035E1,6.9625E0,4.82615E1,1.14342E2,7.6644998E0,7.037E0,2.4275E1,8.5285E0,3.7414E1,1.08475E1,1.031925E2,1.11495E1,6.4255E0,1.78495E1,3.07245E1,6.6895E0,5.744E0,5.1035E0,7.803E0,9.53895E1,5.47E0,5.6795E0,5.105E0,1.27445E1,2.16745E1,9.05E0,4.36115E1,5.1778E1],"tree_param":{"num_deleted":"0","num_feature":"278","num_nodes":"35","size_leaf_vector":"1"}},{"base_weights":[9.8053835E-2,-8.585434E-2,8.956861E-1,-1.9600676E-2,-8.2300805E-2,1.3745205E0,-4.1187316E-1,4.1331595E-1,-2.0329122E-1,7.3751515E-1,2.3929186E0,2.0708114E-2,-6.673941E-2,-3.748005E-2,6.903702E-1,-1.1828233E0,-4.76956E-2,1.1996875E0,-2.0967439E-2,7.360526E-2,1.4130281E-1,1.4763381E0,2.737932E-1,-8.7473206E-2,-1.0419282E-2,4.5140016E-1,-4.6365306E-1,7.993297E-2,2.4738459E-2,1.0820202E-1,1.746624E-2,8.241703E-2,-6.4638914E-3,6.610723E-2,2.840812E-3,-6.45089E-3,-5.3715166E-2],"categories":[],"categories_nodes":[],"categories_segments":[],"categories_sizes":[],"default_left":[0,0,0,0,0,0,0,0,0,0,0,0,0,0,0,0,0,0,0,0,0,0,0,0,0,0,0,0,0,0,0,0,0,0,0,0,0],"id":12,"left_children":[1,3,5,7,-1,9,11,13,15,17,19,-1,-1,-1,21,23,25,27,-1,-1,-1,29,31,-1,-1,33,35,-1,-1,-1,-1,-1,-1,-1,-1,-1,-1],"loss_changes":[3.4465042E1,1.9530106E1,2.8216934E1,1.4708118E1,0E0,1.9005383E1,1.0182013E1,1.8241913E1,1.9654068E1,1.2076269E1,1.9599152E-1,0E0,0E0,0E0,1.4165142E1,9.216957E0,2.375774E1,3.4104195E0,0E0,0E0,0E0,1.0842445E1,1.7398138E1,0E0,0E0,1.7638462E1,1.2505989E1,0E0,0E0,0E0,0E0,0E0,0E0,0E0,0E0,0E0,0E0],"parents":[2147483647,0,0,1,1,2,2,3,3,5,5,6,6,7,7,8,8,9,9,10,10,14,14,15,15,16,16,17,17,21,21,22,22,25,25,26,26],"right_children":[2,4,6,8,-1,10,12,14,16,18,20,-1,-1,-1,22,24,26,28,-1,-1,-1,30,32,-1,-1,34,36,-1,-1,-1,-1,-1,-1,-1,-1,-1,-1],"split_conditions":[1.9E1,6.5214634E0,3E1,5E0,-8.2300805E-2,9.893E-1,8.874E-1,-2.4716264E-1,3.4678072E-1,9.134E-1,1.8292683E-1,2.0708114E-2,-6.673941E-2,-3.748005E-2,2.439088E-2,7.3E1,3.877551E-1,2.0523255E0,-2.0967439E-2,7.360526E-2,1.4130281E-1,4.2293115E0,6.5010114E0,-8.7473206E-2,-1.0419282E-2,5.0108933E0,2.9601593E-2,7.993297E-2,2.4738459E-2,1.0820202E-1,1.746624E-2,8.241703E-2,-6.4638914E-3,6.610723E-2,2.840812E-3,-6.45089E-3,-5.3715166E-2],"split_indices":[57,68,92,48,0,104,104,91,59,104,93,0,0,0,91,53,51,68,0,0,0,70,54,0,0,55,161,0,0,0,0,0,0,0,0,0,0],"split_type":[0,0,0,0,0,0,0,0,0,0,0,0,0,0,0,0,0,0,0,0,0,0,0,0,0,0,0,0,0,0,0,0,0,0,0,0,0],"sum_hessian":[2.328735E2,1.89864E2,4.30095E1,1.831625E2,6.7015E0,3.14995E1,1.151E1,5.40305E1,1.29132E2,2.04995E1,1.1E1,6.3075E0,5.2025E0,9.998E0,4.40325E1,1.67075E1,1.124245E2,1.4683E1,5.8165E0,5E0,6E0,1.42890005E1,2.97435E1,9.9965E0,6.711E0,5.0957E1,6.14675E1,8.476E0,6.207E0,8.2475E0,6.0415E0,6.1E0,2.36435E1,1.50785E1,3.58785E1,4.0596E1,2.08715E1],"tree_param":{"num_deleted":"0","num_feature":"278","num_nodes":"37","size_leaf_vector":"1"}},{"base_weights":[6.0428713E-2,-3.4015718E-1,2.6978803E-1,-5.330864E-1,8.4480965E-1,-4.111535E-1,4.7100553E-1,-7.5522435E-1,2.3087068E-1,8.55942E-2,-3.9805113E-3,3.3774402E-2,-6.39333E-1,8.308887E-1,4.201377E-2,-9.774523E-2,-4.751845E-1,3.767729E-2,-5.4785456E-3,-2.4600124E-1,-6.783911E-2,-1.6532248E-1,1.3175509E0,-8.65656E-1,3.7694648E-1,3.9483327E-2,-7.276857E-1,-7.959021E-1,2.520748E-2,6.493564E-1,-9.9335015E-1,1.6464943E0,-1.9016432E-3,-0E0,-7.333281E-2,7.9473495E-2,6.3905075E-2,-3.649701E-3,-5.0840784E-2,-5.179285E-2,-2.3278274E-2,-0E0,6.1587542E-2,-7.206498E-2,-1.7184038E-2,9.926326E-2,9.332425E-3,2.8971964E-2,-3.891298E-2],"categories":[],"categories_nodes":[],"categories_segments":[],"categories_sizes":[],"default_left":[0,0,0,0,0,0,0,0,0,0,0,0,0,0,0,0,0,0,0,0,0,0,0,0,0,0,0,0,0,0,0,0,0,0,0,0,0,0,0,0,0,0,0,0,0,0,0,0,0],"id":13,"left_children":[1,3,5,7,9,11,13,15,17,-1,-1,-1,19,21,23,-1,25,-1,-1,27,-1,29,31,33,35,-1,37,39,-1,41,43,45,-1,-1,-1,47,-1,-1,-1,-1,-1,-1,-1,-1,-1,-1,-1,-1,-1],"loss_changes":[1.942013E1,1.8574165E1,2.1045048E1,1.1932882E1,9.463925E0,9.136847E0,1.8097692E1,1.6894543E1,3.0302205E0,0E0,0E0,0E0,7.863738E0,3.1359715E1,1.7003365E1,0E0,1.4936374E1,0E0,0E0,8.862516E0,0E0,1.5401398E1,1.9474525E1,7.8401318E0,1.0744258E1,0E0,7.0264187E0,3.3935833E-1,0E0,4.412877E0,2.6087036E0,1.663459E1,0E0,0E0,0E0,1.4131778E1,0E0,0E0,0E0,0E0,0E0,0E0,0E0,0E0,0E0,0E0,0E0,0E0,0E0],"parents":[2147483647,0,0,1,1,2,2,3,3,4,4,5,5,6,6,7,7,8,8,12,12,13,13,14,14,16,16,19,19,21,21,22,22,23,23,24,24,26,26,27,27,29,29,30,30,31,31,35,35],"right_children":[2,4,6,8,10,12,14,16,18,-1,-1,-1,20,22,24,-1,26,-1,-1,28,-1,30,32,34,36,-1,38,40,-1,42,44,46,-1,-1,-1,48,-1,-1,-1,-1,-1,-1,-1,-1,-1,-1,-1,-1,-1],"split_conditions":[5.580357E0,8.5227275E-1,1.4027606E0,9.33553E0,-5.8477786E-3,-4.7391858E-2,5.5E1,5.9273183E-1,1.2798011E1,8.55942E-2,-3.9805113E-3,3.3774402E-2,3.8112827E-2,9.611111E0,6.6E1,-9.774523E-2,-8.5E0,3.767729E-2,-5.4785456E-3,7.430525E-1,-6.783911E-2,6.1764708E0,8.456659E-2,7.3260074E0,7.6123595E-1,3.9483327E-2,0E0,1.7733134E-2,2.520748E-2,3.7171524E-3,5.988365E-2,2.785146E1,-1.9016432E-3,-0E0,-7.333281E-2,1.4668757E-1,6.3905075E-2,-3.649701E-3,-5.0840784E-2,-5.179285E-2,-2.3278274E-2,-0E0,6.1587542E-2,-7.206498E-2,-1.7184038E-2,9.926326E-2,9.332425E-3,2.8971964E-2,-3.891298E-2],"split_indices":[115,188,58,58,72,240,106,7,128,0,0,0,162,120,106,0,257,0,0,58,0,120,155,115,7,0,159,240,0,72,209,128,0,0,0,86,0,0,0,0,0,0,0,0,0,0,0,0,0],"split_type":[0,0,0,0,0,0,0,0,0,0,0,0,0,0,0,0,0,0,0,0,0,0,0,0,0,0,0,0,0,0,0,0,0,0,0,0,0,0,0,0,0,0,0,0,0,0,0,0,0],"sum_hessian":[2.2955E2,7.8413E1,1.51137E2,6.79795E1,1.04335E1,3.41225E1,1.170145E2,5.2776E1,1.52035E1,5E0,5.4335E0,5.5055E0,2.8617E1,6.2996502E1,5.4018E1,8.7885E0,4.39875E1,5.634E0,9.5695E0,1.9441E1,9.176E0,2.0824E1,4.21725E1,1.40525E1,3.99655E1,6.9E0,3.70875E1,1.12595E1,8.1815E0,1.05445E1,1.02795E1,3.3824E1,8.3485E0,6.164E0,7.8885E0,3.09485E1,9.017E0,1.1851E1,2.52365E1,5.1095E0,6.15E0,5.4275E0,5.117E0,5.272E0,5.0075E0,2.71055E1,6.7185E0,1.98305E1,1.1118E1],"tree_param":{"num_deleted":"0","num_feature":"278","num_nodes":"49","size_leaf_vector":"1"}},{"base_weights":[-2.0641273E-2,-2.0843482E-1,6.4821583E-1,-1.2862077E0,-7.425067E-2,-3.0164847E-1,1.060059E0,-7.3208576E-1,-1.15515284E-1,3.494378E-1,-3.4949428E-1,7.532749E-3,-4.3602765E-2,1.9435515E-1,1.8128767E0,-9.5941557E-4,-5.9122898E-2,5.7664756E-2,1.09276675E-1,-4.6714E-1,6.046427E-2,6.8585193E-1,-3.2343432E-2,2.4112062E0,1.7136445E-2,2.5140202E-1,-5.6370955E-2,-2.3144643E-1,-1.3551236E0,5.9899755E-2,3.0108185E-3,7.614088E-2,1.4398713E-1,3.2654364E-4,7.158857E-2,-3.994614E-2,-4.410573E-4,-8.837235E-2,-3.3884425E-2],"categories":[],"categories_nodes":[],"categories_segments":[],"categories_sizes":[],"default_left":[0,0,0,0,0,0,0,0,0,0,0,0,0,0,0,0,0,0,0,0,0,0,0,0,0,0,0,0,0,0,0,0,0,0,0,0,0,0,0],"id":14,"left_children":[1,3,5,7,9,11,13,15,-1,17,19,-1,-1,21,23,-1,-1,25,-1,27,-1,29,-1,31,-1,33,-1,35,37,-1,-1,-1,-1,-1,-1,-1,-1,-1,-1],"loss_changes":[2.7567047E1,2.4594725E1,1.9204071E1,8.708416E0,1.805826E1,4.1370707E0,2.1496479E1,4.2773046E0,0E0,3.228886E1,1.77063E1,0E0,0E0,7.4426575E0,1.4656399E1,0E0,0E0,1.2512567E1,0E0,1.7960161E1,0E0,3.4033446E0,0E0,3.8515472E-1,0E0,1.3431044E1,0E0,8.868353E0,3.6352272E0,0E0,0E0,0E0,0E0,0E0,0E0,0E0,0E0,0E0,0E0],"parents":[2147483647,0,0,1,1,2,2,3,3,4,4,5,5,6,6,7,7,9,9,10,10,13,13,14,14,17,17,19,19,21,21,23,23,25,25,27,27,28,28],"right_children":[2,4,6,8,10,12,14,16,-1,18,20,-1,-1,22,24,-1,-1,26,-1,28,-1,30,-1,32,-1,34,-1,36,38,-1,-1,-1,-1,-1,-1,-1,-1,-1,-1],"split_conditions":[3.5891302E0,5.963409E-1,0E0,1.931884E-1,7.171717E-1,9.316E-1,-5.882353E-3,2.5114155E-1,-1.15515284E-1,3.7752903E-1,2.5408745E-1,7.532749E-3,-4.3602765E-2,1.6E1,1.8E1,-9.5941557E-4,-5.9122898E-2,1.8214324E-1,1.09276675E-1,4.914356E-2,6.046427E-2,1.1425165E-1,-3.2343432E-2,1.1811024E1,1.7136445E-2,6.195135E-1,-5.6370955E-2,1.4971918E-1,1.4222222E1,5.9899755E-2,3.0108185E-3,7.614088E-2,1.4398713E-1,3.2654364E-4,7.158857E-2,-3.994614E-2,-4.410573E-4,-8.837235E-2,-3.3884425E-2],"split_indices":[59,7,160,211,7,104,159,93,0,86,211,0,0,92,103,0,0,123,0,72,0,26,0,54,0,25,0,26,120,0,0,0,0,0,0,0,0,0,0],"split_type":[0,0,0,0,0,0,0,0,0,0,0,0,0,0,0,0,0,0,0,0,0,0,0,0,0,0,0,0,0,0,0,0,0,0,0,0,0,0,0],"sum_hessian":[2.17745E2,1.706655E2,4.70795E1,1.78625E1,1.52803E2,1.42465E1,3.2833E1,1.2767E1,5.0955E0,5.99255E1,9.28775E1,8.2585E0,5.988E0,1.59185E1,1.69145E1,5.4325E0,7.3345E0,5.26455E1,7.28E0,8.70705E1,5.807E0,1.02395E1,5.679E0,1.15185E1,5.396E0,4.5998E1,6.6475E0,6.98925E1,1.7178E1,5.0394998E0,5.2E0,5.5185E0,6E0,3.8998E1,7E0,1.88375E1,5.1055E1,9.5865E0,7.5915003E0],"tree_param":{"num_deleted":"0","num_feature":"278","num_nodes":"39","size_leaf_vector":"1"}},{"base_weights":[6.2369633E-2,-9.4527535E-2,5.918313E-1,-1.0062836E0,2.6541999E-2,9.060928E-1,-6.1807454E-1,-1.46941E0,-1.8998579E-3,8.334609E-1,-1.1928131E-1,1.289801E0,2.341183E-1,-6.9824815E-2,1.0251903E-2,-1.0470823E-1,-2.1193078E-2,3.290323E-1,1.02725446E-1,4.5539257E-1,-3.712746E-1,1.938443E0,6.269328E-1,-1.6455668E-1,4.9243744E-2,-2.1358458E-2,5.1060732E-2,-4.1315016E-1,9.518897E-1,-5.0407267E-1,3.8501184E-2,1.1853967E-1,6.125387E-2,-9.760442E-3,6.14656E-2,-2.2711802E-2,7.996412E-3,-4.0884495E-2,-6.6246203E-4,2.5056055E-2,1.051683E-1,-4.2417284E-2,-3.9770105E-3],"categories":[],"categories_nodes":[],"categories_segments":[],"categories_sizes":[],"default_left":[0,0,0,0,0,0,0,0,0,0,0,0,0,0,0,0,0,0,0,0,0,0,0,0,0,0,0,0,0,0,0,0,0,0,0,0,0,0,0,0,0,0,0],"id":15,"left_children":[1,3,5,7,9,11,13,15,-1,17,19,21,23,-1,-1,-1,-1,25,-1,27,29,31,33,35,-1,-1,-1,37,39,41,-1,-1,-1,-1,-1,-1,-1,-1,-1,-1,-1,-1,-1],"loss_changes":[1.944407E1,2.0026707E1,2.0930405E1,9.3258915E0,1.9002117E1,1.0617126E1,7.811986E0,8.19038E0,0E0,1.4314556E1,1.9900688E1,1.0143879E1,5.309437E0,0E0,0E0,0E0,0E0,1.0307579E1,0E0,1.8507233E1,1.4825514E1,7.763672E-1,7.7301497E0,1.2134445E0,0E0,0E0,0E0,2.4713516E0,1.2712038E1,1.2433699E1,0E0,0E0,0E0,0E0,0E0,0E0,0E0,0E0,0E0,0E0,0E0,0E0,0E0],"parents":[2147483647,0,0,1,1,2,2,3,3,4,4,5,5,6,6,7,7,9,9,10,10,11,11,12,12,17,17,19,19,20,20,21,21,22,22,23,23,27,27,28,28,29,29],"right_children":[2,4,6,8,10,12,14,16,-1,18,20,22,24,-1,-1,-1,-1,26,-1,28,30,32,34,36,-1,-1,-1,38,40,42,-1,-1,-1,-1,-1,-1,-1,-1,-1,-1,-1,-1,-1],"split_conditions":[1.7E1,5.963409E-1,1.5E1,2.8279312E0,1.1111111E-1,-2.2472482E-2,8.75E-1,4.9382715E0,-1.8998579E-3,5.4E1,5.537247E-1,6.1E1,4.347826E-1,-6.9824815E-2,1.0251903E-2,-1.0470823E-1,-2.1193078E-2,5.9482956E-1,1.02725446E-1,6.5E-1,1.3530723E1,2.2181818E-1,1.9E1,3.511111E1,4.9243744E-2,-2.1358458E-2,5.1060732E-2,-1.3391483E-2,1.0339998E-2,2.7325583E-1,3.8501184E-2,1.1853967E-1,6.125387E-2,-9.760442E-3,6.14656E-2,-2.2711802E-2,7.996412E-3,-4.0884495E-2,-6.6246203E-4,2.5056055E-2,1.051683E-1,-4.2417284E-2,-3.9770105E-3],"split_indices":[57,7,47,59,51,72,52,55,0,121,208,106,50,0,0,0,0,19,0,52,115,93,87,24,0,0,0,209,72,126,0,0,0,0,0,0,0,0,0,0,0,0,0],"split_type":[0,0,0,0,0,0,0,0,0,0,0,0,0,0,0,0,0,0,0,0,0,0,0,0,0,0,0,0,0,0,0,0,0,0,0,0,0,0,0,0,0,0,0],"sum_hessian":[2.317935E2,1.79295E2,5.24985E1,2.0257E1,1.59038E2,4.1939E1,1.05595E1,1.3283E1,6.974E0,2.3725E1,1.35313E2,2.60155E1,1.59235E1,5.1315002E0,5.428E0,7.627E0,5.656E0,1.77455E1,5.9795E0,4.08805E1,9.44325E1,1.21E1,1.39155E1,1.08235E1,5.1E0,8.5945E0,9.151E0,1.4857E1,2.60235E1,8.51685E1,9.264E0,6E0,6.1E0,6.1E0,7.8155003E0,5.67E0,5.1535E0,6.742E0,8.115E0,1.9796E1,6.2275E0,4.63485E1,3.882E1],"tree_param":{"num_deleted":"0","num_feature":"278","num_nodes":"43","size_leaf_vector":"1"}},{"base_weights":[-1.847125E-2,-1.5382233E-1,5.972198E-1,1.2433706E-1,-5.2366847E-1,1.308331E0,7.7961266E-2,-4.872009E-1,4.1396564E-1,5.40824E-2,-6.883924E-1,9.4328366E-2,2.0787572E-2,-3.302784E-1,3.1985324E-2,-8.0850095E-1,1.5107523E-2,9.53804E-1,-2.567824E-1,-8.747547E-1,1.7763974E-1,1.3887981E-2,-3.482304E-2,-1.3085964E-2,-1.151379E0,-1.6567433E-2,1.2881819E0,-6.9540846E-1,3.632438E-2,2.1010173E-2,-1.0358034E0,4.2594053E-2,-3.8454834E-2,-7.659357E-2,-3.2535646E-2,8.4350005E-2,9.917976E-3,-5.100415E-2,1.6792258E-2,-2.4554037E-2,-6.631785E-2],"categories":[],"categories_nodes":[],"categories_segments":[],"categories_sizes":[],"default_left":[0,0,0,0,0,0,0,0,0,0,0,0,0,0,0,0,0,0,0,0,0,0,0,0,0,0,0,0,0,0,0,0,0,0,0,0,0,0,0,0,0],"id":16,"left_children":[1,3,5,7,9,11,13,15,17,-1,19,-1,-1,21,-1,23,-1,25,27,29,31,-1,-1,-1,33,-1,35,37,-1,-1,39,-1,-1,-1,-1,-1,-1,-1,-1,-1,-1],"loss_changes":[1.8532982E1,1.8908186E1,1.4547118E1,1.8786795E1,2.154346E1,7.634083E0,5.812798E0,8.939642E0,2.6344223E1,0E0,1.186771E1,0E0,0E0,3.4913938E0,0E0,4.16691E0,0E0,1.7765087E1,1.4631737E1,1.2931995E1,9.287599E0,0E0,0E0,0E0,1.586134E0,0E0,1.3431625E1,8.191098E0,0E0,0E0,7.616764E0,0E0,0E0,0E0,0E0,0E0,0E0,0E0,0E0,0E0,0E0],"parents":[2147483647,0,0,1,1,2,2,3,3,4,4,5,5,6,6,7,7,8,8,10,10,13,13,15,15,17,17,18,18,19,19,20,20,24,24,26,26,27,27,30,30],"right_children":[2,4,6,8,10,12,14,16,18,-1,20,-1,-1,22,-1,24,-1,26,28,30,32,-1,-1,-1,34,-1,36,38,-1,-1,40,-1,-1,-1,-1,-1,-1,-1,-1,-1,-1],"split_conditions":[4.2783155E0,3.7254903E-1,1.3711152E1,1.145213E0,-3.6E1,6.3E1,1.11E2,3.3711308E1,7.5872536E0,5.40824E-2,4.2161724E-1,9.4328366E-2,2.0787572E-2,5.169492E-1,3.1985324E-2,3.770506E-1,1.5107523E-2,-5.903866E-2,9E0,2.3E1,6.5327215E-1,1.3887981E-2,-3.482304E-2,-1.3085964E-2,7.3746312E-3,-1.6567433E-2,3.9276072E-1,6.8E1,3.632438E-2,2.1010173E-2,1.2901799E1,4.2594053E-2,-3.8454834E-2,-7.659357E-2,-3.2535646E-2,8.4350005E-2,9.917976E-3,-5.100415E-2,1.6792258E-2,-2.4554037E-2,-6.631785E-2],"split_indices":[59,51,58,58,239,119,82,54,55,0,23,0,0,85,0,210,0,252,57,82,124,0,0,0,256,0,23,89,0,0,128,0,0,0,0,0,0,0,0,0,0],"split_type":[0,0,0,0,0,0,0,0,0,0,0,0,0,0,0,0,0,0,0,0,0,0,0,0,0,0,0,0,0,0,0,0,0,0,0,0,0,0,0,0,0],"sum_hessian":[2.208225E2,1.817745E2,3.9048E1,1.039715E2,7.7803E1,1.5757E1,2.3291E1,3.30855E1,7.0886E1,6.666E0,7.1137E1,8.8185E0,6.9385E0,1.3624E1,9.667E0,2.3587E1,9.4985E0,3.91245E1,3.17615E1,5.86265E1,1.25105E1,5.109E0,8.515E0,9.8825E0,1.37045E1,8.018E0,3.11065E1,2.22365E1,9.525E0,6.238E0,5.23885E1,7.427E0,5.0835E0,6.503E0,7.2015E0,2.23045E1,8.802E0,1.6994E1,5.2425E0,1.9279E1,3.31095E1],"tree_param":{"num_deleted":"0","num_feature":"278","num_nodes":"41","size_leaf_vector":"1"}},{"base_weights":[-1.8453823E-2,-1.7016537E-1,6.013864E-1,-1.0036868E0,-6.382277E-2,1.1789366E0,-2.4801983E-2,-0E0,-1.4361095E0,-2.0343041E-1,6.139E-1,2.0161333E0,3.403359E-1,3.3929363E-2,-6.508913E-1,-3.763915E-2,-8.770584E-2,-1.2012258E-1,-6.859363E-2,-2.672483E-1,1.5124353E0,1.3784038E-1,4.7034692E-2,4.4005547E-2,-7.177289E-3,-9.557614E-3,-4.9710568E-2,2.2843128E-1,-4.55314E-1,2.4722239E-2,-5.7958316E-2,1.0789781E-1,1.6824238E-2,2.44708E-2,-4.3631192E-2,4.5903113E-2,-2.950508E-2],"categories":[],"categories_nodes":[],"categories_segments":[],"categories_sizes":[],"default_left":[0,0,0,0,0,0,0,0,0,0,0,0,0,0,0,0,0,0,0,0,0,0,0,0,0,0,0,0,0,0,0,0,0,0,0,0,0],"id":17,"left_children":[1,3,5,7,9,11,13,-1,15,17,19,21,23,-1,25,-1,-1,27,-1,29,31,-1,-1,-1,-1,-1,-1,33,35,-1,-1,-1,-1,-1,-1,-1,-1],"loss_changes":[2.0795202E1,1.5612133E1,1.5858572E1,8.599028E0,1.5135853E1,1.5019825E1,1.0014417E1,0E0,1.4547825E0,1.2611496E1,2.2143295E1,5.878647E0,3.4926496E0,0E0,1.5995965E0,0E0,0E0,1.4745333E1,0E0,1.0542761E1,9.441574E0,0E0,0E0,0E0,0E0,0E0,0E0,1.8164614E1,1.2405402E1,0E0,0E0,0E0,0E0,0E0,0E0,0E0,0E0],"parents":[2147483647,0,0,1,1,2,2,3,3,4,4,5,5,6,6,8,8,9,9,10,10,11,11,12,12,14,14,17,17,19,19,20,20,27,27,28,28],"right_children":[2,4,6,8,10,12,14,-1,16,18,20,22,24,-1,26,-1,-1,28,-1,30,32,-1,-1,-1,-1,-1,-1,34,36,-1,-1,-1,-1,-1,-1,-1,-1],"split_conditions":[4.2783155E0,-1.09175466E-1,-1.6749896E-2,-1.633987E-2,1E0,2.2222222E-1,1.8987342E0,-0E0,2.296588E0,5.714286E-1,3.0567722E0,3.412582E-2,5.9273183E-1,3.3929363E-2,8.37922E0,-3.763915E-2,-8.770584E-2,8.18567E-1,-6.859363E-2,2.17E2,-2.1307433E0,1.3784038E-1,4.7034692E-2,4.4005547E-2,-7.177289E-3,-9.557614E-3,-4.9710568E-2,3.8170878E-2,4.8446134E-1,2.4722239E-2,-5.7958316E-2,1.0789781E-1,1.6824238E-2,2.44708E-2,-4.3631192E-2,4.5903113E-2,-2.950508E-2],"split_indices":[59,86,72,155,52,93,116,0,55,50,70,212,7,0,54,0,0,67,0,117,74,0,0,0,0,0,0,162,25,0,0,0,0,0,0,0,0],"split_type":[0,0,0,0,0,0,0,0,0,0,0,0,0,0,0,0,0,0,0,0,0,0,0,0,0,0,0,0,0,0,0,0,0,0,0,0,0],"sum_hessian":[2.19509E2,1.77059E2,4.245E1,1.89725E1,1.580865E2,2.17065E1,2.07435E1,6.0475E0,1.2925E1,1.317865E2,2.63E1,1.01E1,1.16065E1,9.654E0,1.10895E1,5.274E0,7.651E0,1.24125E2,7.6615E0,1.3577E1,1.2723E1,5E0,5.1E0,5.197E0,6.4095E0,5.531E0,5.5585E0,6.08595E1,6.32655E1,7.503E0,6.074E0,7.62E0,5.103E0,4.97205E1,1.1139E1,5.0685E0,5.8197E1],"tree_param":{"num_deleted":"0","num_feature":"278","num_nodes":"37","size_leaf_vector":"1"}},{"base_weights":[-1.8714514E-2,-1.5991889E-1,4.6803847E-1,-2.4883561E-1,8.3656114E-1,1.0065476E0,-2.792953E-1,-3.081506E-3,-6.7914915E-1,1.967916E-3,7.4401364E-2,1.3847845E0,3.7166253E-3,-1.0083864E0,3.9042926E-1,-1.697499E-1,9.9543536E-1,-1.8227693E-1,-1.0430691E0,1.7262506E0,1.8818041E-2,-2.0017242E-2,-7.137744E-2,4.983578E-2,-5.5273017E-3,-7.067143E-1,1.0530409E-1,1.0015692E-1,-1.5920725E-2,2.7349386E-1,-4.7130078E-2,-1.5055366E-2,-1.2821664E0,9.9378005E-2,4.978841E-2,8.055909E-3,-6.37744E-2,-3.334629E-3,6.2287357E-2,4.2981856E-2,-9.193916E-3,-7.1639426E-2,-3.0332437E-2],"categories":[],"categories_nodes":[],"categories_segments":[],"categories_sizes":[],"default_left":[0,0,0,0,0,0,0,0,0,0,0,0,0,0,0,0,0,0,0,0,0,0,0,0,0,0,0,0,0,0,0,0,0,0,0,0,0,0,0,0,0,0,0],"id":18,"left_children":[1,3,5,7,9,11,13,15,17,-1,-1,19,-1,21,23,25,27,29,31,33,-1,-1,-1,-1,-1,35,37,-1,-1,39,-1,-1,41,-1,-1,-1,-1,-1,-1,-1,-1,-1,-1],"loss_changes":[1.6571867E1,1.674496E1,2.2153545E1,1.8205627E1,7.82876E0,1.0955841E1,1.1876851E1,1.8584373E1,1.1019165E1,0E0,0E0,6.8782845E0,0E0,2.1892977E0,4.099054E0,1.4341635E1,2.1935541E1,9.966142E0,5.81472E0,8.596611E-1,0E0,0E0,0E0,0E0,0E0,1.6524801E1,1.2824671E1,0E0,0E0,5.0747766E0,0E0,0E0,1.6436234E0,0E0,0E0,0E0,0E0,0E0,0E0,0E0,0E0,0E0,0E0],"parents":[2147483647,0,0,1,1,2,2,3,3,4,4,5,5,6,6,7,7,8,8,11,11,13,13,14,14,15,15,16,16,17,17,18,18,19,19,25,25,26,26,29,29,32,32],"right_children":[2,4,6,8,10,12,14,16,18,-1,-1,20,-1,22,24,26,28,30,32,34,-1,-1,-1,-1,-1,36,38,-1,-1,40,-1,-1,42,-1,-1,-1,-1,-1,-1,-1,-1,-1,-1],"split_conditions":[1.7E1,3.5E1,1.8E1,3.812E1,9.841678E-3,1.0918936E-1,1.07E2,4.5466226E-2,3.8170878E-2,1.967916E-3,7.4401364E-2,4.2E-1,3.7166253E-3,1.0885714E2,-7.5213574E-3,8.3E-1,2.868669E-1,3.877551E-1,-4.988404E-2,2E0,1.8818041E-2,-2.0017242E-2,-7.137744E-2,4.983578E-2,-5.5273017E-3,0E0,7.7404046E-1,1.0015692E-1,-1.5920725E-2,1.24E2,-4.7130078E-2,-1.5055366E-2,1.2551634E-1,9.9378005E-2,4.978841E-2,8.055909E-3,-6.37744E-2,-3.334629E-3,6.2287357E-2,4.2981856E-2,-9.193916E-3,-7.1639426E-2,-3.0332437E-2],"split_indices":[57,114,103,154,159,212,103,162,162,0,0,90,0,6,72,104,108,51,161,45,0,0,0,0,0,162,86,0,0,117,0,0,212,0,0,0,0,0,0,0,0,0,0],"split_type":[0,0,0,0,0,0,0,0,0,0,0,0,0,0,0,0,0,0,0,0,0,0,0,0,0,0,0,0,0,0,0,0,0,0,0,0,0,0,0,0,0,0,0],"sum_hessian":[2.39469E2,1.86301E2,5.3168E1,1.7182E2,1.4481E1,3.07775E1,2.23905E1,1.101515E2,6.16685E1,7.058E0,7.423E0,2.14725E1,9.305E0,1.05495E1,1.1841E1,9.51925E1,1.4959E1,2.68225E1,3.4846E1,1.5435E1,6.0375E0,5.2000003E0,5.3495E0,5E0,6.841E0,3.1836E1,6.33565E1,8.212E0,6.747E0,1.7088E1,9.7345E0,9.145E0,2.5701E1,1E1,5.435E0,1.28185E1,1.90175E1,5.57955E1,7.561E0,7.2E0,9.888E0,1.99775E1,5.7235E0],"tree_param":{"num_deleted":"0","num_feature":"278","num_nodes":"43","size_leaf_vector":"1"}},{"base_weights":[-1.0159101E-1,-6.6997266E-1,7.8700915E-2,-9.3046373E-1,-2.9763713E-2,4.5495695E-1,-1.5856813E-1,-2.8824303E-3,-1.0616931E0,-4.812426E-2,4.429501E-1,-4.547229E-2,6.372702E-1,-7.743153E-2,-7.14521E-2,-1.2676903E0,-1.7594444E-2,4.8760988E-2,-1.2177289E-2,1.03630506E-1,3.9665216E-1,2.6697758E-1,-3.504271E-1,-8.135562E-2,-8.6635494E-1,7.77156E-2,1.5767352E-1,8.1576973E-1,-2.4943104E-1,4.374407E-1,-6.42564E-1,-2.0154191E-2,-5.466765E-2,-1.2314611E-2,2.8569793E-2,8.727673E-2,2.0303769E-2,2.3241222E-2,-2.9133623E-2,-5.949995E-3,6.399059E-2,-2.460969E-3,-5.567762E-2],"categories":[],"categories_nodes":[],"categories_segments":[],"categories_sizes":[],"default_left":[0,0,0,0,0,0,0,0,0,0,0,0,0,0,0,0,0,0,0,0,0,0,0,0,0,0,0,0,0,0,0,0,0,0,0,0,0,0,0,0,0,0,0],"id":19,"left_children":[1,3,5,7,9,11,13,-1,15,-1,17,-1,19,-1,21,23,-1,-1,-1,-1,25,27,29,-1,31,-1,33,35,37,39,41,-1,-1,-1,-1,-1,-1,-1,-1,-1,-1,-1,-1],"loss_changes":[2.3802862E1,9.200739E0,1.5838673E1,4.362377E0,8.112429E0,1.7614765E1,1.2888554E1,0E0,4.402176E0,0E0,4.7336736E0,0E0,2.0053886E1,0E0,9.863304E0,2.100769E0,0E0,0E0,0E0,0E0,1.4433512E1,1.36146755E1,1.3482584E1,0E0,9.4337463E-1,0E0,7.807055E0,7.9030657E0,6.221092E0,7.7647686E0,1.1642881E1,0E0,0E0,0E0,0E0,0E0,0E0,0E0,0E0,0E0,0E0,0E0,0E0],"parents":[2147483647,0,0,1,1,2,2,3,3,4,4,5,5,6,6,8,8,10,10,12,12,14,14,15,15,20,20,21,21,22,22,24,24,26,26,27,27,28,28,29,29,30,30],"right_children":[2,4,6,8,10,12,14,-1,16,-1,18,-1,20,-1,22,24,-1,-1,-1,-1,26,28,30,-1,32,-1,34,36,38,40,42,-1,-1,-1,-1,-1,-1,-1,-1,-1,-1,-1,-1],"split_conditions":[5.9905994E-1,4.8066545E-2,4.0445316E-1,-3.4965035E-2,1.69E2,-7.3E1,4.9896273E-1,-2.8824303E-3,9.912143E0,-4.812426E-2,2.9E1,-4.547229E-2,-1.55E1,-7.743153E-2,2.5012058E-1,1.7E1,-1.7594444E-2,4.8760988E-2,-1.2177289E-2,1.03630506E-1,8E0,4.5682155E-3,4.07498E0,-8.135562E-2,6E1,7.77156E-2,2.7325583E-1,2.5E1,-3.159304E-2,4.9E1,1.7E1,-2.0154191E-2,-5.466765E-2,-1.2314611E-2,2.8569793E-2,8.727673E-2,2.0303769E-2,2.3241222E-2,-2.9133623E-2,-5.949995E-3,6.399059E-2,-2.460969E-3,-5.567762E-2],"split_indices":[19,161,108,240,117,141,25,0,129,0,103,0,257,0,91,114,0,0,0,0,119,162,115,0,84,0,126,84,240,84,119,0,0,0,0,0,0,0,0,0,0,0,0],"split_type":[0,0,0,0,0,0,0,0,0,0,0,0,0,0,0,0,0,0,0,0,0,0,0,0,0,0,0,0,0,0,0,0,0,0,0,0,0,0,0,0,0,0,0],"sum_hessian":[2.30189E2,5.49125E1,1.752765E2,3.8598E1,1.63145E1,6.7593E1,1.076835E2,5.3325E0,3.32655E1,5.21E0,1.11045E1,7.4325E0,6.01605E1,5.2935E0,1.0239E2,2.50645E1,8.201E0,6.1E0,5.0045E0,7.4845E0,5.2676E1,4.61225E1,5.62675E1,1.148E1,1.35845E1,8E0,4.4676E1,2.2173E1,2.39495E1,1.4993E1,4.12745E1,5.525E0,8.0595E0,2.2687E1,2.1989E1,5.71E0,1.6463E1,7.398E0,1.65515E1,9.4745E0,5.5185E0,1.88475E1,2.2427E1],"tree_param":{"num_deleted":"0","num_feature":"278","num_nodes":"43","size_leaf_vector":"1"}},{"base_weights":[2.21978E-2,-1.2218448E-1,4.8362312E-1,2.7008485E-2,-7.605759E-1,-4.2495083E-2,6.5188855E-1,1.2049599E-1,-6.055188E-2,8.147071E-3,-9.841206E-1,2.989753E-1,1.3769274E0,1.1759273E-2,8.265664E-1,-1.1833583E0,-4.7044563E-3,9.800341E-1,-2.0235139E-1,1.0925791E-2,1.03375904E-1,8.5340774E-1,-7.920954E-2,-4.2598443E-3,8.632065E-2,-6.9303656E-1,-8.2335465E-2,7.4780226E-2,3.3253909E-3,-6.237896E-1,2.6577631E-2,-6.0952554E-4,7.493942E-2,-1.3764108E-2,2.406483E-2,-5.037547E-2,-1.4633839E-2,-5.4891862E-2,2.1521617E-3],"categories":[],"categories_nodes":[],"categories_segments":[],"categories_sizes":[],"default_left":[0,0,0,0,0,0,0,0,0,0,0,0,0,0,0,0,0,0,0,0,0,0,0,0,0,0,0,0,0,0,0,0,0,0,0,0,0,0,0],"id":20,"left_children":[1,3,5,7,9,-1,11,13,-1,-1,15,17,19,21,23,25,-1,27,29,-1,-1,31,33,-1,-1,35,-1,-1,-1,37,-1,-1,-1,-1,-1,-1,-1,-1,-1],"loss_changes":[1.5957516E1,1.7426598E1,1.3349377E1,1.7207E1,7.3926735E0,0E0,1.2558811E1,1.0571947E1,0E0,0E0,4.7463074E0,1.25354E1,1.2471424E1,9.448739E0,1.5408665E1,3.8032799E0,0E0,7.0349665E0,6.9677596E0,0E0,0E0,6.895753E0,1.2252644E1,0E0,0E0,1.2000017E0,0E0,0E0,0E0,4.6279106E0,0E0,0E0,0E0,0E0,0E0,0E0,0E0,0E0,0E0],"parents":[2147483647,0,0,1,1,2,2,3,3,4,4,6,6,7,7,10,10,11,11,12,12,13,13,14,14,15,15,17,17,18,18,21,21,22,22,25,25,29,29],"right_children":[2,4,6,8,10,-1,12,14,-1,-1,16,18,20,22,24,26,-1,28,30,-1,-1,32,34,-1,-1,36,-1,-1,-1,38,-1,-1,-1,-1,-1,-1,-1,-1,-1],"split_conditions":[1.0063254E1,3.507014E0,-3.7245932E-1,1.2768567E1,2.6083334E1,-4.2495083E-2,8.787879E-1,1.6952038E0,-6.055188E-2,8.147071E-3,1.8970875E0,3E-1,6.0995334E-1,-1.8926854E-1,4.4977512E-2,2.0970222E2,-4.7044563E-3,6.9491524E-1,5.92167E-1,1.0925791E-2,1.03375904E-1,8.5685056E-1,9.25181E0,-4.2598443E-3,8.632065E-2,2.14E2,-8.2335465E-2,7.4780226E-2,3.3253909E-3,5.968E1,2.6577631E-2,-6.0952554E-4,7.493942E-2,-1.3764108E-2,2.406483E-2,-5.037547E-2,-1.4633839E-2,-5.4891862E-2,2.1521617E-3],"split_indices":[115,116,91,70,24,0,52,66,0,0,213,23,19,108,155,18,0,107,25,0,0,213,58,0,0,117,0,0,0,251,0,0,0,0,0,0,0,0,0],"split_type":[0,0,0,0,0,0,0,0,0,0,0,0,0,0,0,0,0,0,0,0,0,0,0,0,0,0,0,0,0,0,0,0,0,0,0,0,0,0,0],"sum_hessian":[2.37095E2,1.80983E2,5.6112E1,1.473485E2,3.36345E1,5.7665E0,5.03455E1,1.379175E2,9.431E0,6.5205E0,2.7114E1,3.49055E1,1.544E1,1.20516E2,1.74015E1,2.17935E1,5.3205E0,1.44795E1,2.0426E1,6.3125E0,9.1275E0,1.1045E1,1.09471E2,9.038E0,8.3635E0,1.1906E1,9.8875E0,8.7785E0,5.701E0,1.3157E1,7.269E0,5.0705E0,5.9745E0,8.161E1,2.7861E1,5.679E0,6.227E0,7.4E0,5.757E0],"tree_param":{"num_deleted":"0","num_feature":"278","num_nodes":"39","size_leaf_vector":"1"}},{"base_weights":[1.4653814E-2,2.7323186E-1,-2.1132083E-1,-1.403296E-1,7.377947E-1,-4.0700763E-1,2.3358898E-1,-6.71914E-1,2.0321283E-1,1.1591738E-1,4.609803E-1,-5.463478E-1,2.8455752E-1,4.4107282E-1,-4.122235E-2,-1.0304968E0,6.9919336E-3,7.554804E-2,-5.0406568E-2,7.446854E-1,-4.6700338E-1,-6.2962043E-1,2.1395009E-2,-1.3783159E-2,4.5938324E-2,-2.3624081E-2,7.145285E-1,-6.346228E-2,-2.0810414E-2,3.360804E-2,-3.672727E-1,9.7221905E-1,-2.5267387E-2,-5.0696554E-3,-3.73843E-2,-1.0239576E0,-2.427871E-1,9.8631537E-1,-7.364356E-3,-5.233136E-2,1.4423671E-2,1.6675593E-2,7.7544026E-2,-6.431007E-2,-1.640053E-2,-4.1222867E-2,1.0776933E-3,6.4517386E-2,1.007151E-2],"categories":[],"categories_nodes":[],"categories_segments":[],"categories_sizes":[],"default_left":[0,0,0,0,0,0,0,0,0,0,0,0,0,0,0,0,0,0,0,0,0,0,0,0,0,0,0,0,0,0,0,0,0,0,0,0,0,0,0,0,0,0,0,0,0,0,0,0,0],"id":21,"left_children":[1,3,5,7,9,11,13,15,17,-1,19,21,23,25,-1,27,-1,-1,29,31,33,35,-1,-1,-1,-1,37,-1,-1,-1,39,41,-1,-1,-1,43,45,47,-1,-1,-1,-1,-1,-1,-1,-1,-1,-1,-1],"loss_changes":[1.3727193E1,2.123779E1,1.1007475E1,1.0913812E1,2.1375505E1,8.606983E0,8.822363E0,7.048093E0,1.2276772E1,0E0,1.2353439E1,6.230932E0,5.717917E0,8.628487E0,0E0,1.7148724E0,0E0,0E0,7.3930387E0,1.0581453E1,9.870405E-1,9.992521E0,0E0,0E0,0E0,0E0,6.3074474E0,0E0,0E0,0E0,1.0415609E1,1.0486961E1,0E0,0E0,0E0,5.479229E0,5.594723E0,4.350752E0,0E0,0E0,0E0,0E0,0E0,0E0,0E0,0E0,0E0,0E0,0E0],"parents":[2147483647,0,0,1,1,2,2,3,3,4,4,5,5,6,6,7,7,8,8,10,10,11,11,12,12,13,13,15,15,18,18,19,19,20,20,21,21,26,26,30,30,31,31,35,35,36,36,37,37],"right_children":[2,4,6,8,10,12,14,16,18,-1,20,22,24,26,-1,28,-1,-1,30,32,34,36,-1,-1,-1,-1,38,-1,-1,-1,40,42,-1,-1,-1,44,46,48,-1,-1,-1,-1,-1,-1,-1,-1,-1,-1,-1],"split_conditions":[5.5004773E-3,6.27984E-3,7.8198195E-2,4E0,-4.6698645E-2,8.223684E0,1.4324E2,1.1770245E1,2E1,1.1591738E-1,1.4463384E0,5.416667E-1,4.8302285E-2,6.8E0,-4.122235E-2,2.3988007E1,6.9919336E-3,7.554804E-2,1.8865381E0,8.8E1,1.8E2,1.74E2,2.1395009E-2,-1.3783159E-2,4.5938324E-2,-2.3624081E-2,4.2028984E-1,-6.346228E-2,-2.0810414E-2,3.360804E-2,9.009009E0,7.681764E-1,-2.5267387E-2,-5.0696554E-3,-3.73843E-2,2.747253E-1,4E0,1.0055018E1,-7.364356E-3,-5.233136E-2,1.4423671E-2,1.6675593E-2,7.7544026E-2,-6.431007E-2,-1.640053E-2,-4.1222867E-2,1.0776933E-3,6.4517386E-2,1.007151E-2],"split_indices":[162,123,142,105,124,58,154,58,82,0,67,90,259,154,0,54,0,0,116,83,82,117,0,0,0,0,90,0,0,0,115,213,0,0,0,111,57,129,0,0,0,0,0,0,0,0,0,0,0],"split_type":[0,0,0,0,0,0,0,0,0,0,0,0,0,0,0,0,0,0,0,0,0,0,0,0,0,0,0,0,0,0,0,0,0,0,0,0,0,0,0,0,0,0,0,0,0,0,0,0,0],"sum_hessian":[2.328315E2,1.086915E2,1.2414E2,5.77575E1,5.0934002E1,8.64335E1,3.77065E1,2.24125E1,3.5345E1,6.438E0,4.4496E1,7.2234E1,1.41995E1,3.2091E1,5.6155E0,1.5444E1,6.9685E0,5E0,3.0345E1,3.43115E1,1.01845E1,6.69665E1,5.2675E0,7.756E0,6.4435E0,7.141E0,2.495E1,1.02365E1,5.2075E0,8.8125E0,2.15325E1,2.92835E1,5.028E0,5.169E0,5.0155E0,3.2218E1,3.47485E1,1.89465E1,6.0035E0,1.0358E1,1.11744995E1,1.4751E1,1.45325E1,2.268E1,9.538E0,1.03135E1,2.4435E1,1.31005E1,5.846E0],"tree_param":{"num_deleted":"0","num_feature":"278","num_nodes":"49","size_leaf_vector":"1"}},{"base_weights":[1.01362625E-2,-4.9627062E-2,1.1984942E0,2.2687662E-1,-3.195091E-1,8.336514E-2,2.7224397E-2,-3.9300606E-1,5.1144737E-1,-9.426799E-1,-1.5435804E-1,1.0864169E-1,-9.2514986E-1,1.0089229E-1,9.207355E-1,-4.3109106E-3,-1.1634512E0,2.6869262E-2,-9.304137E-1,-3.0221555E-2,6.120229E-1,-8.732022E-3,-6.131481E-2,-1.4774242E-1,4.0266E-2,-1.0312488E-1,1.3500409E0,-2.789459E-2,-1.3901471E0,7.839103E-1,-1.6377793E-1,-3.3668731E-3,-6.6851184E-2,5.7944626E-2,-0E0,-2.7807072E-2,2.0164385E-2,-3.1047944E-2,1.7756218E-2,9.098139E-2,-1.1210684E-2,-4.5762204E-2,-8.705079E-2,9.724367E-4,6.868763E-2,1.7782135E-2,-2.1497322E-2],"categories":[],"categories_nodes":[],"categories_segments":[],"categories_sizes":[],"default_left":[0,0,0,0,0,0,0,0,0,0,0,0,0,0,0,0,0,0,0,0,0,0,0,0,0,0,0,0,0,0,0,0,0,0,0,0,0,0,0,0,0,0,0,0,0,0,0],"id":22,"left_children":[1,3,5,7,9,-1,-1,11,13,15,17,19,21,23,25,-1,27,29,31,-1,33,-1,-1,35,-1,37,39,-1,41,43,45,-1,-1,-1,-1,-1,-1,-1,-1,-1,-1,-1,-1,-1,-1,-1,-1],"loss_changes":[1.683475E1,1.681485E1,2.3517132E0,1.9821522E1,1.1484974E1,0E0,0E0,9.640022E0,1.26983795E1,4.2324314E0,1.298393E1,7.2034287E0,3.5770159E0,7.111904E0,1.7045666E1,0E0,1.5790291E0,1.1021332E1,5.8949327E0,0E0,4.011512E0,0E0,0E0,6.984699E0,0E0,3.127768E0,2.0556824E1,0E0,2.607727E-1,6.7667303E0,8.548034E0,0E0,0E0,0E0,0E0,0E0,0E0,0E0,0E0,0E0,0E0,0E0,0E0,0E0,0E0,0E0,0E0],"parents":[2147483647,0,0,1,1,2,2,3,3,4,4,7,7,8,8,9,9,10,10,11,11,12,12,13,13,14,14,16,16,17,17,18,18,20,20,23,23,25,25,26,26,28,28,29,29,30,30],"right_children":[2,4,6,8,10,-1,-1,12,14,16,18,20,22,24,26,-1,28,30,32,-1,34,-1,-1,36,-1,38,40,-1,42,44,46,-1,-1,-1,-1,-1,-1,-1,-1,-1,-1,-1,-1,-1,-1,-1,-1],"split_conditions":[2.2361359E1,3.7254903E-1,1.384664E-1,1.3770311E0,6.041667E-1,8.336514E-2,2.7224397E-2,3.6206895E-1,3.9671373E-1,5.3666668E1,4.461749E-2,5.5813956E-1,1.5384616E-1,8.611111E-1,5.4782515E0,-4.3109106E-3,-2.2396417E-3,6.464477E-1,5E0,-3.0221555E-2,1.0721662E0,-8.732022E-3,-6.131481E-2,3.0232558E-1,4.0266E-2,3.2156188E-2,4.6391785E-1,-2.789459E-2,5.703183E-1,2.0689656E-1,6.828757E-1,-3.3668731E-3,-6.6851184E-2,5.7944626E-2,-0E0,-2.7807072E-2,2.0164385E-2,-3.1047944E-2,1.7756218E-2,9.098139E-2,-1.1210684E-2,-4.5762204E-2,-8.705079E-2,9.724367E-4,6.868763E-2,1.7782135E-2,-2.1497322E-2],"split_indices":[58,51,209,58,19,0,0,122,86,6,72,52,51,52,129,0,142,213,114,0,69,0,0,111,0,76,91,0,19,122,19,0,0,0,0,0,0,0,0,0,0,0,0,0,0,0,0],"split_type":[0,0,0,0,0,0,0,0,0,0,0,0,0,0,0,0,0,0,0,0,0,0,0,0,0,0,0,0,0,0,0,0,0,0,0,0,0,0,0,0,0,0,0,0,0,0,0],"sum_hessian":[2.335865E2,2.23234E2,1.03525E1,1.1016E2,1.13074E2,5.0385E0,5.314E0,3.44295E1,7.57305E1,2.25755E1,9.04985E1,1.80355E1,1.6394E1,3.8551E1,3.71795E1,5.0045E0,1.7571E1,7.4044E1,1.64545E1,7.298E0,1.07375E1,5.242E0,1.1152E1,2.8973E1,9.578E0,1.11395E1,2.604E1,5.849E0,1.1722E1,1.4375E1,5.9669E1,5.7215E0,1.0733E1,5.2605E0,5.477E0,1.6739E1,1.2234E1,5.1655E0,5.974E0,1.9986E1,6.054E0,6.635E0,5.087E0,6.7845E0,7.5905E0,1.99755E1,3.96935E1],"tree_param":{"num_deleted":"0","num_feature":"278","num_nodes":"47","size_leaf_vector":"1"}},{"base_weights":[5.1808618E-2,2.5719938E-1,-3.022576E-1,-9.411965E-1,3.789499E-1,3.199369E-1,-5.072151E-1,-6.902378E-2,-3.7478504E-3,8.4684366E-1,5.652969E-2,-3.7528196E-1,1.0406921E0,-6.2845206E-1,3.0863166E-2,1.5591913E0,3.048888E-1,-8.736822E-2,9.2527527E-1,7.717406E-4,-3.9380796E-2,7.349564E-2,1.9720951E-2,-8.026688E-1,1.23210125E-1,2.378005E0,7.9910356E-1,-4.444475E-2,6.590591E-1,-2.2432962E-1,5.2464385E-2,9.7114585E-2,-1.6964515E-3,-5.899335E-1,-7.896974E-2,3.3080574E-2,-1.7049944E-2,7.367907E-2,1.4500515E-1,-8.255653E-3,7.472988E-2,5.8083154E-2,3.540647E-3,-2.1836169E-2,2.0920452E-2,-1.4061765E-3,-4.1242853E-2],"categories":[],"categories_nodes":[],"categories_segments":[],"categories_sizes":[],"default_left":[0,0,0,0,0,0,0,0,0,0,0,0,0,0,0,0,0,0,0,0,0,0,0,0,0,0,0,0,0,0,0,0,0,0,0,0,0,0,0,0,0,0,0,0,0,0,0],"id":23,"left_children":[1,3,5,7,9,11,13,-1,-1,15,17,19,21,23,-1,25,27,29,31,-1,-1,-1,-1,33,35,37,39,-1,41,43,-1,-1,-1,45,-1,-1,-1,-1,-1,-1,-1,-1,-1,-1,-1,-1,-1],"loss_changes":[1.7745573E1,2.2845081E1,1.1593969E1,5.2538843E0,2.1140974E1,1.1815885E1,9.6359825E0,0E0,0E0,2.1477608E1,1.0753909E1,2.0553489E0,2.4142647E0,8.260082E0,0E0,1.3002396E1,1.489227E1,1.1592886E1,1.2179621E1,0E0,0E0,0E0,0E0,7.181755E0,3.3538122E0,5.793686E-1,9.937216E0,0E0,7.710946E0,9.260673E0,0E0,0E0,0E0,5.338813E0,0E0,0E0,0E0,0E0,0E0,0E0,0E0,0E0,0E0,0E0,0E0,0E0,0E0],"parents":[2147483647,0,0,1,1,2,2,3,3,4,4,5,5,6,6,9,9,10,10,11,11,12,12,13,13,15,15,16,16,17,17,18,18,23,23,24,24,25,25,26,26,28,28,29,29,33,33],"right_children":[2,4,6,8,10,12,14,-1,-1,16,18,20,22,24,-1,26,28,30,32,-1,-1,-1,-1,34,36,38,40,-1,42,44,-1,-1,-1,46,-1,-1,-1,-1,-1,-1,-1,-1,-1,-1,-1,-1,-1],"split_conditions":[1.3E1,2.2222222E-1,3.9098513E-1,6.3106935E-3,6.856514E-3,1.7E1,9.6875E-1,-6.902378E-2,-3.7478504E-3,2.7826086E-1,5.3333332E1,1.6150579E-1,1.5809414E0,8.5714287E-1,3.0863166E-2,1.184291E1,8.563E-1,1.3530723E1,6.122449E-1,7.717406E-4,-3.9380796E-2,7.349564E-2,1.9720951E-2,1.7116392E1,1.5851479E0,1.4E1,2.416357E-1,-4.444475E-2,2.027972E-1,1.9E1,5.2464385E-2,9.7114585E-2,-1.6964515E-3,1.6514855E-2,-7.896974E-2,3.3080574E-2,-1.7049944E-2,7.367907E-2,1.4500515E-1,-8.255653E-3,7.472988E-2,5.8083154E-2,3.540647E-3,-2.1836169E-2,2.0920452E-2,-1.4061765E-3,-4.1242853E-2],"split_indices":[49,90,210,76,259,87,52,0,0,111,24,26,213,85,0,54,104,115,107,0,0,0,0,128,68,53,126,0,93,57,0,0,0,209,0,0,0,0,0,0,0,0,0,0,0,0,0],"split_type":[0,0,0,0,0,0,0,0,0,0,0,0,0,0,0,0,0,0,0,0,0,0,0,0,0,0,0,0,0,0,0,0,0,0,0,0,0,0,0,0,0,0,0,0,0,0,0],"sum_hessian":[2.420125E2,1.535155E2,8.8497E1,1.34615E1,1.40054E2,2.16685E1,6.68285E1,8.4615E0,5E0,5.6347E1,8.3707E1,1.1203E1,1.04655E1,6.0803E1,6.0255E0,2.34555E1,3.28915E1,7.2485E1,1.1222E1,6.122E0,5.081E0,5.43E0,5.0355E0,4.9415E1,1.1388E1,1.02035E1,1.3252E1,7.1155E0,2.5776E1,6.5485E1,7E0,5E0,6.222E0,4.0273E1,9.142E0,5.1755E0,6.2125E0,5.2035E0,5E0,5.8125E0,7.4395E0,1.32825E1,1.24935E1,4.9578E1,1.5907E1,1.23305E1,2.79425E1],"tree_param":{"num_deleted":"0","num_feature":"278","num_nodes":"47","size_leaf_vector":"1"}},{"base_weights":[-9.896772E-3,4.9942568E-2,-1.0508271E0,4.438209E-1,-7.987588E-2,-3.0178264E-2,-7.228498E-2,-8.776026E-2,9.385838E-1,5.998079E-2,-1.4084065E-1,4.8235264E-2,-4.030497E-1,1.9245702E0,3.1078628E-1,-5.105107E-1,6.7111075E-2,-4.5339998E-2,-1.3728498E-1,3.400604E-2,1.4501736E-1,-2.4497643E-1,5.102108E-2,2.349128E-1,-6.9516194E-1,4.817364E-1,-2.0158777E-1,6.0885213E-3,-2.9649734E-2,8.283383E-3,-3.1142218E-2,-1.754987E-2,4.144242E-2,-4.524272E-2,-2.6985102E-3,7.373838E-2,1.2086334E-2,3.2738395E-2,-2.2474604E-2],"categories":[],"categories_nodes":[],"categories_segments":[],"categories_sizes":[],"default_left":[0,0,0,0,0,0,0,0,0,0,0,0,0,0,0,0,0,0,0,0,0,0,0,0,0,0,0,0,0,0,0,0,0,0,0,0,0,0,0],"id":24,"left_children":[1,3,5,7,9,-1,-1,11,13,-1,15,-1,17,19,21,23,25,-1,27,-1,-1,29,-1,31,33,35,37,-1,-1,-1,-1,-1,-1,-1,-1,-1,-1,-1,-1],"loss_changes":[1.5190124E1,1.1789281E1,1.2643671E0,1.5198019E1,1.3558419E1,0E0,0E0,9.74555E0,1.7613695E1,0E0,1.2848023E1,0E0,2.797571E0,1.1429264E1,7.9987807E0,8.480453E0,1.2047988E1,0E0,2.0208285E0,0E0,0E0,1.9543743E0,0E0,4.7129803E0,6.3790817E0,9.606789E0,1.4177999E1,0E0,0E0,0E0,0E0,0E0,0E0,0E0,0E0,0E0,0E0,0E0,0E0],"parents":[2147483647,0,0,1,1,2,2,3,3,4,4,7,7,8,8,10,10,12,12,13,13,14,14,15,15,16,16,18,18,21,21,23,23,24,24,25,25,26,26],"right_children":[2,4,6,8,10,-1,-1,12,14,-1,16,-1,18,20,22,24,26,-1,28,-1,-1,30,-1,32,34,36,38,-1,-1,-1,-1,-1,-1,-1,-1,-1,-1,-1,-1],"split_conditions":[6.1803937E0,6.908004E-1,2.3072119E-1,2.8432473E-3,5E-1,-3.0178264E-2,-7.228498E-2,5E0,4.8747927E-2,5.998079E-2,5E0,4.8235264E-2,9.69125E-2,3.473302E-2,1.3307096E-1,-1.8E1,3.7254903E-1,-4.5339998E-2,7.152455E-1,3.400604E-2,1.4501736E-1,3E1,5.102108E-2,2.5237236E0,1.1424243E-1,2.6084185E-1,-1.1561479E-1,6.0885213E-3,-2.9649734E-2,8.283383E-3,-3.1142218E-2,-1.754987E-2,4.144242E-2,-4.524272E-2,-2.6985102E-3,7.373838E-2,1.2086334E-2,3.2738395E-2,-2.2474604E-2],"split_indices":[68,213,66,123,107,0,0,89,123,0,57,0,26,209,209,160,51,0,7,0,0,119,0,68,123,23,123,0,0,0,0,0,0,0,0,0,0,0,0],"split_type":[0,0,0,0,0,0,0,0,0,0,0,0,0,0,0,0,0,0,0,0,0,0,0,0,0,0,0,0,0,0,0,0,0,0,0,0,0,0,0],"sum_hessian":[2.404175E2,2.281575E2,1.226E1,5.6149E1,1.720085E2,7.053E0,5.207E0,2.73665E1,2.87825E1,6.899E0,1.651095E2,5.7605E0,2.1606E1,1.03315E1,1.8451E1,5.9091E1,1.060185E2,6.499E0,1.5107E1,5.3315E0,5E0,1.06355E1,7.8155003E0,1.157E1,4.7521E1,4.15235E1,6.4495E1,9.959E0,5.1480002E0,5.239E0,5.3965E0,5.9455E0,5.6245E0,3.53825E1,1.21385E1,7E0,3.45235E1,1.402E1,5.0475E1],"tree_param":{"num_deleted":"0","num_feature":"278","num_nodes":"39","size_leaf_vector":"1"}},{"base_weights":[3.6087275E-2,-9.35806E-2,4.81108E-1,5.8947183E-2,-1.3576357E-1,-2.2581732E-2,9.754237E-1,-1.9333392E-1,4.4405572E-2,-4.8369315E-2,4.7339913E-1,1.5503734E0,3.8798574E-1,-9.687053E-2,-8.6201495E-1,-3.7042405E-2,6.754847E-2,1.0626588E-1,3.1188605E-2,-8.328675E-3,4.4938322E-2,-3.82762E-2,-6.749815E-2,-1.323906E0,-3.3329958E-1,-2.3989402E-2,1.4357357E-2,7.822634E-3,-1.895363E-2,-9.2997484E-2,-2.6882797E-2,-0E0,-3.0751785E-2],"categories":[],"categories_nodes":[],"categories_segments":[],"categories_sizes":[],"default_left":[0,0,0,0,0,0,0,0,0,0,0,0,0,0,0,0,0,0,0,0,0,0,0,0,0,0,0,0,0,0,0,0,0],"id":25,"left_children":[1,3,5,-1,7,9,11,13,-1,-1,15,17,19,21,23,25,-1,-1,-1,-1,-1,27,-1,29,31,-1,-1,-1,-1,-1,-1,-1,-1],"loss_changes":[1.4138466E1,1.0215511E1,1.388401E1,0E0,1.0958065E1,1.3751775E1,8.67119E0,1.1126673E1,0E0,0E0,8.753373E0,5.721943E0,4.552106E0,1.1149014E1,4.7266655E0,2.0229695E0,0E0,0E0,0E0,0E0,0E0,9.946081E0,0E0,3.4888477E0,1.0406891E0,0E0,0E0,0E0,0E0,0E0,0E0,0E0,0E0],"parents":[2147483647,0,0,1,1,2,2,4,4,5,5,6,6,7,7,10,10,11,11,12,12,13,13,14,14,15,15,21,21,23,23,24,24],"right_children":[2,4,6,-1,8,10,12,14,-1,-1,16,18,20,22,24,26,-1,-1,-1,-1,-1,28,-1,30,32,-1,-1,-1,-1,-1,-1,-1,-1],"split_conditions":[1.0063254E1,1E-1,3.1989763E0,5.8947183E-2,2.5408745E-1,2.7E1,2.9E1,1.3E1,4.4405572E-2,-4.8369315E-2,3.944011E-2,1.5218878E0,1.0376959E1,6.7666664E1,5.833333E-1,5.9482956E-1,6.754847E-2,1.0626588E-1,3.1188605E-2,-8.328675E-3,4.4938322E-2,3.3546665E1,-6.749815E-2,2.12E2,7.027027E-1,-2.3989402E-2,1.4357357E-2,7.822634E-3,-1.895363E-2,-9.2997484E-2,-2.6882797E-2,-0E0,-3.0751785E-2],"split_indices":[115,93,58,0,211,127,127,47,0,0,258,68,55,24,50,19,0,0,0,0,0,251,0,82,85,0,0,0,0,0,0,0,0],"split_type":[0,0,0,0,0,0,0,0,0,0,0,0,0,0,0,0,0,0,0,0,0,0,0,0,0,0,0,0,0,0,0,0,0],"sum_hessian":[2.425615E2,1.882695E2,5.4292E1,5.1E0,1.831695E2,2.72635E1,2.70285E1,1.74279E2,8.8905E0,9.1275E0,1.8136E1,1.2745E1,1.42835E1,1.534385E2,2.08405E1,1.2E1,6.136E0,7E0,5.745E0,7.0775E0,7.206E0,1.47645E2,5.7935E0,1.02195E1,1.0621E1,5E0,7E0,9.41155E1,5.35295E1,5.189E0,5.0305E0,5.457E0,5.164E0],"tree_param":{"num_deleted":"0","num_feature":"278","num_nodes":"33","size_leaf_vector":"1"}},{"base_weights":[-1.894975E-2,3.774878E-2,-7.182424E-1,7.4628286E-2,-6.0041215E-2,4.883805E-3,-1.1627711E0,-7.3434605E-4,7.614192E-1,-7.235744E-2,-3.2764416E-2,1.3898447E-1,-4.1665727E-1,1.3095239E0,-1.6622461E-2,2.5955114E-1,-4.262061E-1,-6.169196E-1,3.9417185E-2,9.36041E-2,3.2469403E-2,2.181073E-2,-8.780491E-3,-4.491913E-2,1.620934E-2,-4.6462186E-2,-8.6435145E-3],"categories":[],"categories_nodes":[],"categories_segments":[],"categories_sizes":[],"default_left":[0,0,0,0,0,0,0,0,0,0,0,0,0,0,0,0,0,0,0,0,0,0,0,0,0,0,0],"id":26,"left_children":[1,3,5,7,-1,-1,9,11,13,-1,-1,15,17,19,-1,21,23,25,-1,-1,-1,-1,-1,-1,-1,-1,-1],"loss_changes":[9.227902E0,9.746734E0,6.5519037E0,1.0879557E1,0E0,0E0,4.949665E-1,1.106587E1,1.2986105E1,0E0,0E0,9.770692E0,1.2038387E1,3.7685719E0,0E0,9.159283E0,9.277296E0,5.518236E0,0E0,0E0,0E0,0E0,0E0,0E0,0E0,0E0,0E0],"parents":[2147483647,0,0,1,1,2,2,3,3,6,6,7,7,8,8,11,11,12,12,13,13,15,15,16,16,17,17],"right_children":[2,4,6,8,-1,-1,10,12,14,-1,-1,16,18,20,-1,22,24,26,-1,-1,-1,-1,-1,-1,-1,-1,-1],"split_conditions":[8.2587314E-1,7.477778E1,-6.371329E-2,6.466588E-1,-6.0041215E-2,4.883805E-3,2.2352612E0,3.8333333E-1,1.2051687E-2,-7.235744E-2,-3.2764416E-2,5.1633116E-2,2.7605245E0,3.3333334E-1,-1.6622461E-2,1.5809414E0,7.740511E-2,2.705314E-1,3.9417185E-2,9.36041E-2,3.2469403E-2,2.181073E-2,-8.780491E-3,-4.491913E-2,1.620934E-2,-4.6462186E-2,-8.6435145E-3],"split_indices":[124,24,155,124,0,0,116,122,73,0,0,161,59,239,0,213,212,126,0,0,0,0,0,0,0,0,0],"split_type":[0,0,0,0,0,0,0,0,0,0,0,0,0,0,0,0,0,0,0,0,0,0,0,0,0,0,0],"sum_hessian":[2.293405E2,2.12883E2,1.64575E1,2.077185E2,5.1645E0,6E0,1.04575E1,1.87948E2,1.97705E1,5.389E0,5.0685E0,1.41006E2,4.6942E1,1.31005E1,6.67E0,1.168065E2,2.41995E1,4.0742E1,6.2E0,6E0,7.1005E0,8.32405E1,3.3565998E1,1.4814E1,9.3855E0,2.3145E1,1.7597E1],"tree_param":{"num_deleted":"0","num_feature":"278","num_nodes":"27","size_leaf_vector":"1"}},{"base_weights":[3.3294808E-2,6.980678E-2,-9.296129E-3,-2.5382817E-1,1.7128687E-1,4.8599014E-1,-4.375637E-1,1.1653138E0,-4.308728E-2,7.257338E-2,6.2428262E-2,-6.583368E-1,5.8063652E-2,3.3690926E-1,1.04646936E-1,4.2995113E-1,-2.8048047E-1,-2.8916702E-2,4.1607425E-2,-2.9583668E-2,-8.9387697E-1,-2.624453E-1,3.899382E-2,3.677867E-2,-8.351052E-3,-2.5255054E-2,7.8694105E-1,-1.6449916E-1,-5.4639693E-2,-4.1727927E-2,2.073269E-2,-1.9421369E-2,-7.083846E-2,2.1641233E-3,-3.1799454E-2,7.185314E-2,1.7102938E-2,-2.7533103E-2,6.6332757E-3],"categories":[],"categories_nodes":[],"categories_segments":[],"categories_sizes":[],"default_left":[0,0,0,0,0,0,0,0,0,0,0,0,0,0,0,0,0,0,0,0,0,0,0,0,0,0,0,0,0,0,0,0,0,0,0,0,0,0,0],"id":27,"left_children":[1,-1,3,5,7,9,11,13,15,17,-1,19,21,23,-1,25,27,-1,-1,29,31,33,-1,-1,-1,-1,35,37,-1,-1,-1,-1,-1,-1,-1,-1,-1,-1,-1],"loss_changes":[1.3925604E1,0E0,1.0253631E1,1.3634586E1,2.855791E1,6.0877013E0,8.825687E0,1.730869E1,1.251386E1,7.4909673E0,0E0,8.085911E0,6.123158E0,2.9519157E0,0E0,1.2835341E1,6.696337E0,0E0,0E0,6.198327E0,9.881432E0,2.1668286E0,0E0,0E0,0E0,0E0,7.247555E0,7.725165E0,0E0,0E0,0E0,0E0,0E0,0E0,0E0,0E0,0E0,0E0,0E0],"parents":[2147483647,0,0,2,2,3,3,4,4,5,5,6,6,7,7,8,8,9,9,11,11,12,12,13,13,15,15,16,16,19,19,20,20,21,21,26,26,27,27],"right_children":[2,-1,4,6,8,10,12,14,16,18,-1,20,22,24,-1,26,28,-1,-1,30,32,34,-1,-1,-1,-1,36,38,-1,-1,-1,-1,-1,-1,-1,-1,-1,-1,-1],"split_conditions":[1E-1,6.980678E-2,1.6435E2,8E0,1.95E2,1.6583358E-1,9.937223E-2,3.7533042E-1,1.6648339E-1,4.057971E-1,6.2428262E-2,1.21E2,2.9456642E-1,5.918667E0,1.04646936E-1,5.4E1,5.4285717E-1,-2.8916702E-2,4.1607425E-2,1.4754099E0,0E0,3.0844375E-1,3.899382E-2,3.677867E-2,-8.351052E-3,-2.5255054E-2,1.5408524E0,3.326392E-1,-5.4639693E-2,-4.1727927E-2,2.073269E-2,-1.9421369E-2,-7.083846E-2,2.1641233E-3,-3.1799454E-2,7.185314E-2,1.7102938E-2,-2.7533103E-2,6.6332757E-3],"split_indices":[93,0,18,127,113,26,209,86,124,90,0,117,66,118,0,84,51,0,0,55,256,91,0,0,0,0,213,108,0,0,0,0,0,0,0,0,0,0,0],"split_type":[0,0,0,0,0,0,0,0,0,0,0,0,0,0,0,0,0,0,0,0,0,0,0,0,0,0,0,0,0,0,0,0,0,0,0,0,0,0,0],"sum_hessian":[2.36299E2,6.269E0,2.3003E2,9.77765E1,1.322535E2,1.90165E1,7.876E1,2.2758E1,1.094955E2,1.31265E1,5.89E0,5.4401E1,2.4359E1,1.2799E1,9.959E0,3.61765E1,7.3319E1,7.1265E0,6E0,1.5248E1,3.9153E1,1.72135E1,7.1455E0,7E0,5.799E0,9.8035E0,2.6373E1,6.53185E1,8.0005E0,5.19E0,1.0058E1,2.0892E1,1.8261E1,9.805E0,7.4085E0,9.7175E0,1.66555E1,2.8181E1,3.71375E1],"tree_param":{"num_deleted":"0","num_feature":"278","num_nodes":"39","size_leaf_vector":"1"}},{"base_weights":[2.683712E-2,-1.0754115E-1,5.031935E-1,1.3117371E-2,-6.6093355E-1,1.0411239E0,8.239593E-2,-5.8508503E-1,1.3164957E-1,-8.828111E-1,1.8453564E-2,3.574998E-1,1.6697767E0,-3.1094715E-2,3.0583772E-1,2.3714846E-2,-9.0648025E-1,-5.39189E-1,2.4903099E-1,-1.9964075E-1,-1.311443E0,-1.8990446E-2,4.81692E-2,1.0946113E-1,4.497948E-2,6.9130147E-1,-1.2178928E-2,-6.734387E-3,-1.230543E0,-6.518449E-3,-4.7499187E-2,7.3982227E-1,1.9900411E-2,-2.4040211E-2,3.91776E-3,-8.345529E-2,-3.3948828E-2,4.980912E-2,9.94664E-3,-7.2273485E-2,-3.618438E-2,2.8912963E-3,6.036191E-2,1.5480364E-2,-2.0159196E-2],"categories":[],"categories_nodes":[],"categories_segments":[],"categories_sizes":[],"default_left":[0,0,0,0,0,0,0,0,0,0,0,0,0,0,0,0,0,0,0,0,0,0,0,0,0,0,0,0,0,0,0,0,0,0,0,0,0,0,0,0,0,0,0,0,0],"id":28,"left_children":[1,3,5,7,9,11,13,15,17,19,-1,21,23,-1,25,-1,27,29,31,33,35,-1,-1,-1,-1,37,-1,-1,39,-1,-1,41,43,-1,-1,-1,-1,-1,-1,-1,-1,-1,-1,-1,-1],"loss_changes":[1.4998956E1,1.2244427E1,1.147603E1,1.0701761E1,7.872344E0,8.846769E0,4.8996935E0,8.961502E0,1.007039E1,7.598425E0,0E0,5.830286E0,2.2603168E0,0E0,5.221651E0,0E0,4.5857487E0,2.9648747E0,1.2112503E1,1.0015624E0,2.3737526E0,0E0,0E0,0E0,0E0,1.8238387E0,0E0,0E0,2.1310997E-1,0E0,0E0,1.076033E1,9.326026E0,0E0,0E0,0E0,0E0,0E0,0E0,0E0,0E0,0E0,0E0,0E0,0E0],"parents":[2147483647,0,0,1,1,2,2,3,3,4,4,5,5,6,6,7,7,8,8,9,9,11,11,12,12,14,14,16,16,17,17,18,18,19,19,20,20,25,25,28,28,31,31,32,32],"right_children":[2,4,6,8,10,12,14,16,18,20,-1,22,24,-1,26,-1,28,30,32,34,36,-1,-1,-1,-1,38,-1,-1,40,-1,-1,42,44,-1,-1,-1,-1,-1,-1,-1,-1,-1,-1,-1,-1],"split_conditions":[1.0063254E1,3.5573626E0,3.059626E-1,3.5217467E-1,9.3939394E-1,9.572E-1,5.964912E-1,-3.4965035E-2,-5.942623E-2,2.0175439E-1,1.8453564E-2,1.0971876E-2,2.6E1,-3.1094715E-2,4.892186E-1,2.3714846E-2,3E0,1.0128528E1,3.375E-1,3.6065573E-1,2.1440823E1,-1.8990446E-2,4.81692E-2,1.0946113E-1,4.497948E-2,5.3E1,-1.2178928E-2,-6.734387E-3,1.3714286E1,-6.518449E-3,-4.7499187E-2,7.4936897E-1,1.8631293E-1,-2.4040211E-2,3.91776E-3,-8.345529E-2,-3.3948828E-2,4.980912E-2,9.94664E-3,-7.2273485E-2,-3.618438E-2,2.8912963E-3,6.036191E-2,1.5480364E-2,-2.0159196E-2],"split_indices":[115,116,23,59,52,104,107,240,142,111,0,259,53,0,86,0,48,54,51,51,54,0,0,0,0,106,0,0,120,0,0,7,211,0,0,0,0,0,0,0,0,0,0,0,0],"split_type":[0,0,0,0,0,0,0,0,0,0,0,0,0,0,0,0,0,0,0,0,0,0,0,0,0,0,0,0,0,0,0,0,0,0,0,0,0,0,0,0,0,0,0,0,0],"sum_hessian":[2.318515E2,1.81278E2,5.05735E1,1.494815E2,3.17965E1,2.1446E1,2.91275E1,2.39305E1,1.25551E2,2.63585E1,5.438E0,1.11015E1,1.03445E1,6.478E0,2.26495E1,5.387E0,1.85435E1,1.8035E1,1.07516E2,1.0817E1,1.55415E1,5.1015E0,6E0,5E0,5.3445E0,1.3266E1,9.3835E0,5.9934998E0,1.255E1,9.8215E0,8.2135E0,3.3371E1,7.4145E1,5.1940002E0,5.623E0,8.7795E0,6.762E0,7.4355E0,5.8305E0,7.374E0,5.176E0,1.41145E1,1.92565E1,4.4309002E1,2.9836E1],"tree_param":{"num_deleted":"0","num_feature":"278","num_nodes":"45","size_leaf_vector":"1"}},{"base_weights":[3.3984583E-2,-1.0789124E-2,5.7095833E-2,2.6944518E-2,-5.4959428E-2,2.596838E-1,-1.9532844E-1,-8.134768E-2,5.892901E-1,-8.637341E-1,-3.441755E-2,1.7860247E-1,-6.3442516E-1,-1.3700886E-1,8.4106916E-1,-1.9002793E-2,-5.866247E-2,8.2569647E-1,-1.910996E-1,5.956706E-4,4.239577E-2,-4.8452046E-2,7.5265947E-3,1.3100094E-2,-3.5699308E-2,6.473288E-2,1.17261475E-2,8.994907E-2,4.1882945E-3,-3.5304048E-3,-4.305669E-2],"categories":[],"categories_nodes":[],"categories_segments":[],"categories_sizes":[],"default_left":[0,0,0,0,0,0,0,0,0,0,0,0,0,0,0,0,0,0,0,0,0,0,0,0,0,0,0,0,0,0,0],"id":29,"left_children":[1,3,-1,5,-1,7,9,11,13,15,17,19,21,23,25,-1,-1,27,29,-1,-1,-1,-1,-1,-1,-1,-1,-1,-1,-1,-1],"loss_changes":[1.2162781E1,9.752657E0,0E0,1.1809478E1,0E0,1.2646122E1,1.2416172E1,8.151424E0,1.0615269E1,2.7600365E0,1.2910495E1,4.1964054E0,4.9863176E0,3.7867475E0,1.1262152E1,0E0,0E0,1.030782E1,6.414213E0,0E0,0E0,0E0,0E0,0E0,0E0,0E0,0E0,0E0,0E0,0E0,0E0],"parents":[2147483647,0,0,1,1,3,3,5,5,6,6,7,7,8,8,9,9,10,10,11,11,12,12,13,13,14,14,17,17,18,18],"right_children":[2,4,-1,6,-1,8,10,12,14,16,18,20,22,24,26,-1,-1,28,30,-1,-1,-1,-1,-1,-1,-1,-1,-1,-1,-1,-1],"split_conditions":[2.2361359E1,6.7666664E1,5.7095833E-2,3.7254903E-1,-5.4959428E-2,2.2286606E0,6.054907E-1,2.9411766E-1,-1.7094018E-2,5.5564415E-1,-1.8E1,2.672065E-1,1.7952466E-2,2.6666668E-1,2.3655914E-1,-1.9002793E-2,-5.866247E-2,-1.2601274E-2,4.461749E-2,5.956706E-4,4.239577E-2,-4.8452046E-2,7.5265947E-3,1.3100094E-2,-3.5699308E-2,6.473288E-2,1.17261475E-2,8.994907E-2,4.1882945E-3,-3.5304048E-3,-4.305669E-2],"split_indices":[58,24,0,51,0,58,19,126,159,19,160,126,73,51,93,0,0,161,72,0,0,0,0,0,0,0,0,0,0,0,0],"split_type":[0,0,0,0,0,0,0,0,0,0,0,0,0,0,0,0,0,0,0,0,0,0,0,0,0,0,0,0,0,0,0],"sum_hessian":[2.41658E2,2.331365E2,8.5215E0,2.261785E2,6.958E0,1.106255E2,1.15553E2,5.45915E1,5.6034E1,2.14525E1,9.41005E1,3.74745E1,1.7117E1,1.44395E1,4.15945E1,9.3665E0,1.2086E1,1.3744E1,8.03565E1,3.0937E1,6.5375E0,1.1926E1,5.191E0,8.7565E0,5.683E0,2.30545E1,1.854E1,5.2705E0,8.4735E0,6.9172E1,1.11845E1],"tree_param":{"num_deleted":"0","num_feature":"278","num_nodes":"31","size_leaf_vector":"1"}},{"base_weights":[2.242843E-3,5.7054657E-1,-7.692432E-2,-2.9016396E-2,1.1386456E0,-1.2621555E-1,4.394979E-2,1.18069565E-2,1.5365177E0,-2.4778359E-1,2.810293E-1,4.2228144E-2,1.0245261E-1,-8.797181E-2,-6.831761E-1,-3.02958E-1,4.8099315E-1,-3.7101126E-1,2.166033E-1,-3.8017792E-1,-1.1710602E0,-4.1391898E-2,1.2508633E-2,7.537941E-1,-2.1402737E-2,-8.298508E-3,-5.1739372E-2,4.658675E-2,-2.3617174E-3,1.1078287E-2,-3.707806E-2,-3.0639544E-2,-7.055909E-2,1.1646104E-2,6.478875E-2],"categories":[],"categories_nodes":[],"categories_segments":[],"categories_sizes":[],"default_left":[0,0,0,0,0,0,0,0,0,0,0,0,0,0,0,0,0,0,0,0,0,0,0,0,0,0,0,0,0,0,0,0,0,0,0],"id":30,"left_children":[1,3,5,-1,7,9,-1,-1,11,13,15,-1,-1,17,19,21,23,25,27,29,31,-1,-1,33,-1,-1,-1,-1,-1,-1,-1,-1,-1,-1,-1],"loss_changes":[1.0709909E1,1.9759512E1,9.829098E0,0E0,6.6041985E0,9.900026E0,0E0,0E0,2.7856045E0,1.0556457E1,5.5284634E0,0E0,0E0,9.900789E0,5.4530716E0,3.808167E0,8.969762E0,7.8051243E0,1.05562E1,6.059022E0,9.5449066E-1,0E0,0E0,7.214349E0,0E0,0E0,0E0,0E0,0E0,0E0,0E0,0E0,0E0,0E0,0E0],"parents":[2147483647,0,0,1,1,2,2,4,4,5,5,8,8,9,9,10,10,13,13,14,14,15,15,16,16,17,17,18,18,19,19,20,20,23,23],"right_children":[2,4,6,-1,8,10,-1,-1,12,14,16,-1,-1,18,20,22,24,26,28,30,32,-1,-1,34,-1,-1,-1,-1,-1,-1,-1,-1,-1,-1,-1],"split_conditions":[1.1321095E-1,5.564857E-1,2.5408745E-1,-2.9016396E-2,1.5E1,1.0135662E1,4.394979E-2,1.18069565E-2,8.076923E-1,3.3703588E-2,5.602241E0,4.2228144E-2,1.0245261E-1,5.2E1,3.8112827E-2,4.9E1,4.2857143E-1,5.8E1,1.7894992E-1,1.5307372E0,3.888889E-1,-4.1391898E-2,1.2508633E-2,7.1875E-1,-2.1402737E-2,-8.298508E-3,-5.1739372E-2,4.658675E-2,-2.3617174E-3,1.1078287E-2,-3.707806E-2,-3.0639544E-2,-7.055909E-2,1.1646104E-2,6.478875E-2],"split_indices":[211,25,211,0,207,115,0,0,52,72,129,0,0,84,162,141,122,89,211,58,51,0,0,52,0,0,0,0,0,0,0,0,0,0,0],"split_type":[0,0,0,0,0,0,0,0,0,0,0,0,0,0,0,0,0,0,0,0,0,0,0,0,0,0,0,0,0,0,0,0,0,0,0],"sum_hessian":[2.34973E2,2.8126E1,2.06847E2,9.23E0,1.8896E1,1.97629E2,9.218E0,6.346E0,1.255E1,1.52687E2,4.4942E1,6.55E0,6E0,1.12738E2,3.9949E1,1.12045E1,3.37375E1,5.8492E1,5.4246E1,2.5868E1,1.4081E1,5.587E0,5.6175E0,2.6166E1,7.5715E0,4.5758E1,1.2734E1,1.40395E1,4.02065E1,9.7475E0,1.61205E1,5.4285E0,8.6525E0,1.4166E1,1.2E1],"tree_param":{"num_deleted":"0","num_feature":"278","num_nodes":"35","size_leaf_vector":"1"}},{"base_weights":[6.270027E-2,2.3524528E-2,6.17185E-2,7.20529E-2,-7.9367113E-1,-7.7567947E-1,1.2059975E-1,-6.838962E-2,-1.1739633E-2,-1.8652167E-2,-5.0827112E-2,3.8363358E-1,-1.0657936E-1,9.40246E-1,1.7456076E-1,-3.6222845E-1,3.764001E-1,-6.7016296E-3,7.054504E-2,2.4273593E-2,-9.711051E-3,1.2442215E-2,-2.8262049E-2,8.510466E-3,7.000857E-2],"categories":[],"categories_nodes":[],"categories_segments":[],"categories_sizes":[],"default_left":[0,0,0,0,0,0,0,0,0,0,0,0,0,0,0,0,0,0,0,0,0,0,0,0,0],"id":31,"left_children":[1,3,-1,5,7,9,11,-1,-1,-1,-1,13,15,17,19,21,23,-1,-1,-1,-1,-1,-1,-1,-1],"loss_changes":[1.0828855E1,9.211287E0,0E0,9.10848E0,3.6927128E0,6.430659E-1,1.2597441E1,0E0,0E0,0E0,0E0,1.1080894E1,1.4097282E1,1.3608385E1,8.413155E0,9.425158E0,7.94141E0,0E0,0E0,0E0,0E0,0E0,0E0,0E0,0E0],"parents":[2147483647,0,0,1,1,3,3,4,4,5,5,6,6,11,11,12,12,13,13,14,14,15,15,16,16],"right_children":[2,4,-1,6,8,10,12,-1,-1,-1,-1,14,16,18,20,22,24,-1,-1,-1,-1,-1,-1,-1,-1],"split_conditions":[2.2361359E1,6.1803937E0,6.17185E-2,2E-1,2.4786324E-3,-1E1,3.7662336E-1,-6.838962E-2,-1.1739633E-2,-1.8652167E-2,-5.0827112E-2,1.3E1,2.511757E-1,-3.4920637E-2,-4.8149046E-1,2.1142857E1,1.6688889E2,-6.7016296E-3,7.054504E-2,2.4273593E-2,-9.711051E-3,1.2442215E-2,-2.8262049E-2,8.510466E-3,7.000857E-2],"split_indices":[58,68,0,90,159,141,90,0,0,0,0,87,66,256,66,24,6,0,0,0,0,0,0,0,0],"split_type":[0,0,0,0,0,0,0,0,0,0,0,0,0,0,0,0,0,0,0,0,0,0,0,0,0],"sum_hessian":[2.382905E2,2.316505E2,6.64E0,2.196415E2,1.2009E1,1.0974E1,2.086675E2,5.1215E0,6.8875E0,5.217E0,5.757E0,9.65875E1,1.1208E2,2.5288E1,7.12995E1,7.35865E1,3.84935E1,7.857E0,1.7431E1,3.86605E1,3.2639E1,1.81715E1,5.5415E1,3.30925E1,5.401E0],"tree_param":{"num_deleted":"0","num_feature":"278","num_nodes":"25","size_leaf_vector":"1"}},{"base_weights":[1.2723237E-1,8.470272E-2,9.6298593E-1,3.5101068E-1,-3.0164562E-2,8.600506E-2,3.6209181E-3,-9.7305514E-2,1.0976771E0,-2.4559934E-1,3.0911955E-1,-2.9715508E-1,3.2628782E-2,1.4171283E0,8.867493E-3,-3.184158E-1,4.2989478E-2,-1.6264062E-1,8.125173E-1,-4.7917104E-1,2.044431E-2,8.327439E-1,1.2103363E-1,-4.3932703E-1,4.3071002E-1,2.5466192E-1,-9.7111374E-1,1.0987484E0,2.7051607E-1,-3.556441E-2,-7.2164796E-3,1.3665092E-2,7.0253745E-2,-2.6247606E-2,2.1735458E-2,-8.898816E-3,5.6767322E-2,-1.3599428E-2,3.945961E-2,-7.091645E-2,-1.8509526E-2,1.6280685E-2,7.1669824E-2,-1.0491241E-2,3.5280317E-2],"categories":[],"categories_nodes":[],"categories_segments":[],"categories_sizes":[],"default_left":[0,0,0,0,0,0,0,0,0,0,0,0,0,0,0,0,0,0,0,0,0,0,0,0,0,0,0,0,0,0,0,0,0,0,0,0,0,0,0,0,0,0,0,0,0],"id":32,"left_children":[1,3,5,7,9,-1,-1,11,13,15,17,19,-1,21,-1,23,-1,25,27,29,-1,31,-1,33,35,37,39,41,43,-1,-1,-1,-1,-1,-1,-1,-1,-1,-1,-1,-1,-1,-1,-1,-1],"loss_changes":[8.2585125E0,6.995551E0,7.311637E0,2.3249191E1,1.1724781E1,0E0,0E0,6.729286E0,7.230276E0,8.129112E0,1.4966205E1,4.7537785E0,0E0,8.842274E0,0E0,8.614493E0,0E0,1.1396586E1,4.2751236E0,2.0445113E0,0E0,3.8151684E0,0E0,6.27617E0,6.0088534E0,6.5629187E0,2.3778954E0,4.381218E0,2.6925743E0,0E0,0E0,0E0,0E0,0E0,0E0,0E0,0E0,0E0,0E0,0E0,0E0,0E0,0E0,0E0,0E0],"parents":[2147483647,0,0,1,1,2,2,3,3,4,4,7,7,8,8,9,9,10,10,11,11,13,13,15,15,17,17,18,18,19,19,21,21,23,23,24,24,25,25,26,26,27,27,28,28],"right_children":[2,4,6,8,10,-1,-1,12,14,16,18,20,-1,22,-1,24,-1,26,28,30,-1,32,-1,34,36,38,40,42,44,-1,-1,-1,-1,-1,-1,-1,-1,-1,-1,-1,-1,-1,-1,-1,-1],"split_conditions":[2.2361359E1,5.5020005E-1,2E0,7.6E-1,6.109875E-1,8.600506E-2,3.6209181E-3,1.35862E0,1.933216E1,3.9E1,2.3722627E0,2.654E2,3.2628782E-2,1.858337E-1,8.867493E-3,1.0695789E1,4.2989478E-2,4.5308094E0,2.1234792E-2,6.630435E-1,2.044431E-2,8.235294E-1,1.2103363E-1,2.5408745E-1,1.6079666E2,1.1450069E0,5.8E1,-1.444899E-2,1.7837584E-2,-3.556441E-2,-7.2164796E-3,1.3665092E-2,7.0253745E-2,-2.6247606E-2,2.1735458E-2,-8.898816E-3,5.6767322E-2,-1.3599428E-2,3.945961E-2,-7.091645E-2,-1.8509526E-2,1.6280685E-2,7.1669824E-2,-1.0491241E-2,3.5280317E-2],"split_indices":[58,208,45,85,25,0,0,71,54,114,116,18,0,26,0,58,0,115,259,7,0,52,0,211,18,213,106,162,142,0,0,0,0,0,0,0,0,0,0,0,0,0,0,0,0],"split_type":[0,0,0,0,0,0,0,0,0,0,0,0,0,0,0,0,0,0,0,0,0,0,0,0,0,0,0,0,0,0,0,0,0,0,0,0,0,0,0,0,0,0,0,0,0],"sum_hessian":[2.365865E2,2.26292E2,1.02945E1,6.7836E1,1.58456E2,5E0,5.2945E0,4.2846E1,2.499E1,9.7266E1,6.119E1,3.4412E1,8.434E0,1.80695E1,6.9205E0,9.20075E1,5.2585E0,3.18345E1,2.93555E1,2.7727E1,6.685E0,1.2639E1,5.4305E0,7.9692E1,1.23155E1,2.1367E1,1.04675E1,1.84175E1,1.0938E1,1.5535E1,1.2192E1,7.227E0,5.412E0,7.30495E1,6.6425E0,6.9325E0,5.383E0,1.0916E1,1.0451E1,5.126E0,5.3415E0,6.25E0,1.21675E1,5.3355E0,5.6025E0],"tree_param":{"num_deleted":"0","num_feature":"278","num_nodes":"45","size_leaf_vector":"1"}},{"base_weights":[-5.659866E-2,-6.27765E-1,2.9939663E-2,4.042013E-2,-9.627985E-1,9.924066E-2,-7.429487E-1,-1.9606505E-2,-1.0796053E0,-4.5337933E-1,1.6415972E-1,-5.6715425E-2,-7.6819384E-3,-3.0957047E-2,-7.2204195E-2,1.5023502E-2,-7.782216E-1,3.4093058E-1,-7.795068E-2,-5.3720452E-2,-9.243579E-3,5.742893E-1,-1.1611599E-1,8.736293E-2,-5.794207E-2,1.9706292E-2,6.94504E-2,-1.5824644E-2,4.086573E-2,-1.3912871E-2,2.5818435E-2],"categories":[],"categories_nodes":[],"categories_segments":[],"categories_sizes":[],"default_left":[0,0,0,0,0,0,0,0,0,0,0,0,0,0,0,0,0,0,0,0,0,0,0,0,0,0,0,0,0,0,0],"id":33,"left_children":[1,3,5,-1,7,9,11,-1,13,15,17,-1,-1,-1,-1,-1,19,21,23,-1,-1,25,27,29,-1,-1,-1,-1,-1,-1,-1],"loss_changes":[1.1714395E1,1.579262E1,1.1002332E1,0E0,1.148489E0,6.8385787E0,3.591734E0,0E0,2.3721447E0,5.181577E0,7.343161E0,0E0,0E0,0E0,0E0,0E0,2.1982317E0,1.0658731E1,1.315606E1,0E0,0E0,8.928427E0,6.5882688E0,1.0158731E1,0E0,0E0,0E0,0E0,0E0,0E0,0E0],"parents":[2147483647,0,0,1,1,2,2,4,4,5,5,6,6,8,8,9,9,10,10,16,16,17,17,18,18,21,21,22,22,23,23],"right_children":[2,4,6,-1,8,10,12,-1,14,16,18,-1,-1,-1,-1,-1,20,22,24,-1,-1,26,28,30,-1,-1,-1,-1,-1,-1,-1],"split_conditions":[3.260515E-1,-2.864408E-2,7.7213657E-1,4.042013E-2,1.1627907E-1,4.9896273E-1,3.376181E-2,-1.9606505E-2,5.4466233E0,2.3E1,3.0420142E-1,-5.6715425E-2,-7.6819384E-3,-3.0957047E-2,-7.2204195E-2,1.5023502E-2,9.405714E-2,4.928E1,1.6498952E-1,-5.3720452E-2,-9.243579E-3,6.105684E-1,3.5E1,6.01023E-1,-5.794207E-2,1.9706292E-2,6.94504E-2,-1.5824644E-2,4.086573E-2,-1.3912871E-2,2.5818435E-2],"split_indices":[59,162,124,0,51,25,259,0,129,82,91,0,0,0,0,0,212,251,209,0,0,25,114,25,0,0,0,0,0,0,0],"split_type":[0,0,0,0,0,0,0,0,0,0,0,0,0,0,0,0,0,0,0,0,0,0,0,0,0,0,0,0,0,0,0],"sum_hessian":[2.344105E2,3.0172E1,2.042385E2,5.3835E0,2.47885E1,1.88351E2,1.58875E1,5.0975E0,1.9691E1,1.90095E1,1.693415E2,8.8895E0,6.998E0,1.00135E1,9.6775E0,5.6545E0,1.33550005E1,9.7881E1,7.14605E1,8.255E0,5.1E0,