{"learner":{"attributes":{"best_iteration":"13","best_score":"1.7895694724147715","scikit_learn":"{\"_estimator_type\": \"regressor\"}"},"feature_names":["career_wt_ast_total","career_wt_avg_shot_dist","career_wt_blk_total","career_wt_corner_3_pct","career_wt_corner_3_rate","career_wt_deep_3_rate","career_wt_fga_total","career_wt_ft_pct","career_wt_games_played","career_wt_games_played_pg","career_wt_has_ws_breakout_timing_eff","career_wt_has_ws_breakout_timing_minutes","career_wt_has_ws_breakout_timing_volume","career_wt_has_ws_last10","career_wt_has_ws_last5","career_wt_has_ws_prev10","career_wt_has_ws_prev5","career_wt_minutes_total","career_wt_poss_total","career_wt_rim_fg_pct","career_wt_rim_purity","career_wt_shot_dist_var","career_wt_stl_total","career_wt_three_fg_pct","career_wt_tov_total","career_wt_trueShootingPct","career_wt_usage","career_wt_ws_breakout_timing_eff","career_wt_ws_breakout_timing_minutes","career_wt_ws_breakout_timing_volume","career_wt_ws_delta_minutes_last10_minus_prev10","career_wt_ws_delta_minutes_last5_minus_prev5","career_wt_ws_delta_pps_last10_minus_prev10","career_wt_ws_delta_pps_last5_minus_prev5","career_wt_ws_fga_last10","career_wt_ws_fga_last5","career_wt_ws_minutes_last10","career_wt_ws_minutes_last5","career_wt_ws_on_net_rating_last10_mean","career_wt_ws_on_net_rating_last5_mean","career_wt_ws_pps_last10","career_wt_ws_pps_last5","career_wt_ws_pts_last10","career_wt_ws_pts_last5","career_wt_xy_coverage","career_years","career_years_traj","college_assisted_made_mid","college_assisted_made_rim","college_assisted_made_three","college_assisted_share_mid","college_assisted_share_rim","college_assisted_share_three","college_ast_total","college_ast_total_per100poss","college_ast_total_per40","college_avg_shot_dist","college_blk_total","college_blk_total_per100poss","college_blk_total_per40","college_contest_proxy","college_corner_3_pct","college_corner_3_rate","college_d_rapm","college_deep_3_rate","college_dev_has_transfer","college_dev_obs_years","college_dev_p10","college_dev_p50","college_dev_p90","college_dev_quality_weight","college_dev_rate_creation_mean","college_dev_rate_creation_sd","college_dev_rate_eff_mean","college_dev_rate_eff_sd","college_dev_rate_impact_mean","college_dev_rate_impact_sd","college_dev_rate_off_mean","college_dev_rate_off_sd","college_dev_rate_phys_mean","college_dev_rate_phys_sd","college_drb_total","college_drb_total_per100poss","college_dunk_freq","college_dunk_rate","college_fga_total","college_ft_att","college_ft_made","college_ft_pct","college_ft_pct_z","college_games_played","college_is_power_conf","college_mid_att","college_mid_fg_pct","college_mid_fg_pct_z","college_mid_made","college_mid_share","college_minutes_total","college_o_rapm","college_off_drtg","college_off_net_rating","college_off_ortg","college_on_drtg","college_on_net_rating","college_on_off_drtg_diff","college_on_off_net_diff","college_on_off_ortg_diff","college_on_ortg","college_orb_total","college_orb_total_per100poss","college_poss_proxy","college_putback_att_proxy","college_putback_rate","college_rapm_standard","college_recruiting_rank","college_recruiting_rating","college_recruiting_stars","college_rim_att","college_rim_fg_pct","college_rim_fg_pct_z","college_rim_made","college_rim_pressure_index","college_rim_purity","college_rim_share","college_shot_dist_var","college_shots_total","college_stl_total","college_stl_total_per100poss","college_stl_total_per40","college_teamId","college_team_pace","college_team_rank","college_team_srs","college_three_att","college_three_fg_pct","college_three_fg_pct_team_resid","college_three_fg_pct_z","college_three_made","college_three_share","college_tov_total","college_tov_total_per100poss","college_tov_total_per40","college_transition_freq","college_trb_total","college_trb_total_per100poss","college_xy_3_shots","college_xy_rim_shots","college_xy_shots","delta_ast_total","delta_avg_shot_dist","delta_blk_total","delta_corner_3_pct","delta_corner_3_rate","delta_deep_3_rate","delta_fga_total","delta_ft_pct","delta_games_played","delta_games_played_pg","delta_has_ws_breakout_timing_eff","delta_has_ws_breakout_timing_minutes","delta_has_ws_breakout_timing_volume","delta_has_ws_last10","delta_has_ws_last5","delta_has_ws_prev10","delta_has_ws_prev5","delta_height","delta_minutes_total","delta_poss_total","delta_rim_fg_pct","delta_rim_purity","delta_shot_dist_var","delta_stl_total","delta_three_fg_pct","delta_tov_total","delta_trueShootingPct","delta_usage","delta_ws_breakout_timing_eff","delta_ws_breakout_timing_minutes","delta_ws_breakout_timing_volume","delta_ws_delta_minutes_last10_minus_prev10","delta_ws_delta_minutes_last5_minus_prev5","delta_ws_delta_pps_last10_minus_prev10","delta_ws_delta_pps_last5_minus_prev5","delta_ws_fga_last10","delta_ws_fga_last5","delta_ws_minutes_last10","delta_ws_minutes_last5","delta_ws_on_net_rating_last10_mean","delta_ws_on_net_rating_last5_mean","delta_ws_pps_last10","delta_ws_pps_last5","delta_ws_pts_last10","delta_ws_pts_last5","delta_xy_coverage","final_ast_total","final_avg_shot_dist","final_blk_total","final_corner_3_pct","final_corner_3_rate","final_deep_3_rate","final_fga_total","final_ft_pct","final_games_played","final_games_played_pg","final_has_ws_breakout_timing_eff","final_has_ws_breakout_timing_minutes","final_has_ws_breakout_timing_volume","final_has_ws_last10","final_has_ws_last5","final_has_ws_prev10","final_has_ws_prev5","final_minutes_total","final_poss_per_game","final_poss_total","final_rim_fg_pct","final_rim_purity","final_season","final_shot_dist_var","final_stl_total","final_three_fg_pct","final_tov_total","final_trueShootingPct","final_trueShootingPct_team_resid","final_trueShootingPct_z","final_usage","final_usage_team_resid","final_usage_z","final_ws_breakout_timing_eff","final_ws_breakout_timing_minutes","final_ws_breakout_timing_volume","final_ws_delta_minutes_last10_minus_prev10","final_ws_delta_minutes_last5_minus_prev5","final_ws_delta_pps_last10_minus_prev10","final_ws_delta_pps_last5_minus_prev5","final_ws_fga_last10","final_ws_fga_last5","final_ws_minutes_last10","final_ws_minutes_last5","final_ws_on_net_rating_last10_mean","final_ws_on_net_rating_last5_mean","final_ws_pps_last10","final_ws_pps_last5","final_ws_pts_last10","final_ws_pts_last5","final_xy_coverage","has_spatial_data","slope_ast_total","slope_avg_shot_dist","slope_blk_total","slope_corner_3_pct","slope_corner_3_rate","slope_deep_3_rate","slope_fga_total","slope_ft_pct","slope_games_played","slope_games_played_pg","slope_has_ws_breakout_timing_eff","slope_has_ws_breakout_timing_minutes","slope_has_ws_breakout_timing_volume","slope_has_ws_last10","slope_has_ws_last5","slope_has_ws_prev10","slope_has_ws_prev5","slope_minutes_total","slope_poss_total","slope_rim_fg_pct","slope_rim_purity","slope_shot_dist_var","slope_stl_total","slope_three_fg_pct","slope_tov_total","slope_trueShootingPct","slope_usage","slope_ws_breakout_timing_eff","slope_ws_breakout_timing_minutes","slope_ws_breakout_timing_volume","slope_ws_delta_minutes_last10_minus_prev10","slope_ws_delta_minutes_last5_minus_prev5","slope_ws_delta_pps_last10_minus_prev10","slope_ws_delta_pps_last5_minus_prev5","slope_ws_fga_last10","slope_ws_fga_last5","slope_ws_minutes_last10","slope_ws_minutes_last5","slope_ws_on_net_rating_last10_mean","slope_ws_on_net_rating_last5_mean","slope_ws_pps_last10","slope_ws_pps_last5","slope_ws_pts_last10","slope_ws_pts_last5","slope_xy_coverage"],"feature_types":["float","float","float","float","float","float","float","float","float","float","float","float","float","float","float","float","float","float","float","float","float","float","float","float","float","float","float","float","float","float","float","float","float","float","float","float","float","float","float","float","float","float","float","float","float","int","int","int","int","int","float","float","float","float","float","float","float","float","float","float","float","float","float","float","float","int","int","float","float","float","float","float","float","float","float","float","float","float","float","float","float","int","float","float","float","int","int","int","float","float","float","int","int","float","float","int","float","float","float","float","float","float","float","float","float","float","float","float","int","float","float","float","float","float","float","float","float","int","float","float","int","float","float","float","float","int","float","float","float","int","float","int","float","int","float","float","float","int","float","float","float","float","float","int","float","int","int","int","float","float","float","float","float","float","float","float","float","float","float","float","float","float","float","float","float","float","float","float","float","float","float","float","float","float","float","float","float","float","float","float","float","float","float","float","float","float","float","float","float","float","float","float","float","float","int","float","int","float","float","float","int","float","float","float","float","float","float","float","float","float","float","int","float","float","float","float","int","float","int","float","int","float","float","float","float","float","float","float","float","float","float","float","float","float","float","float","float","float","float","float","float","float","float","float","float","int","float","float","float","float","float","float","float","float","float","float","float","float","float","float","float","float","float","float","float","float","float","float","float","float","float","float","float","float","float","float","float","float","float","float","float","float","float","float","float","float","float","float","float","float","float"],"gradient_booster":{"model":{"cats":{"enc":[],"feature_segments":[],"sorted_idx":[]},"gbtree_model_param":{"num_parallel_tree":"1","num_trees":"64"},"iteration_indptr":[0,1,2,3,4,5,6,7,8,9,10,11,12,13,14,15,16,17,18,19,20,21,22,23,24,25,26,27,28,29,30,31,32,33,34,35,36,37,38,39,40,41,42,43,44,45,46,47,48,49,50,51,52,53,54,55,56,57,58,59,60,61,62,63,64],"tree_info":[0,0,0,0,0,0,0,0,0,0,0,0,0,0,0,0,0,0,0,0,0,0,0,0,0,0,0,0,0,0,0,0,0,0,0,0,0,0,0,0,0,0,0,0,0,0,0,0,0,0,0,0,0,0,0,0,0,0,0,0,0,0,0,0],"trees":[{"base_weights":[-9.9685965E-3,2.1183194E-1,-8.0772597E-1,5.6426245E-1,-3.1547853E-1,-1.001438E0,2.8992945E-2,1.8062063E-1,1.378893E0,-5.2894986E-1,7.392927E-2,-1.2611016E0,5.6656E-3,-6.6012144E-1,5.3819567E-1,2.5718892E0,7.4517995E-1,4.8188367E-1,-9.4041926E-1,-1.612301E0,-3.8900727E-1,-1.1675034E0,1.992121E-2,1.6716175E0,1.9461055E-1,1.618136E-1,7.8073286E-2,-2.6791188E-1,1.82845E0,-4.849815E-2,1.3888307E0,-1.2483224E0,3.0769208E-2,-2.9184109E-2,-1.8909746E0,-5.1751163E-2,1.8663038E-2,-3.0663727E-2,-8.586984E-2,1.4324005E-2,1.4450543E-1,3.1663265E-2,-4.2949818E-2,-6.304866E-2,3.2188274E-2,1.4214967E-1,1.9798785E-2,1.19069755E-1,1.7138565E-2,-8.2416855E-2,-1.1079617E-2,-1.1113361E-1,-4.251972E-2],"categories":[],"categories_nodes":[],"categories_segments":[],"categories_sizes":[],"default_left":[0,0,0,0,0,0,0,0,0,0,0,0,0,0,0,0,0,0,0,0,0,0,0,0,0,0,0,0,0,0,0,0,0,0,0,0,0,0,0,0,0,0,0,0,0,0,0,0,0,0,0,0,0],"id":0,"left_children":[1,3,5,7,9,11,-1,13,15,17,-1,19,-1,21,23,25,27,29,31,33,35,37,-1,39,41,-1,-1,43,45,-1,47,49,-1,-1,51,-1,-1,-1,-1,-1,-1,-1,-1,-1,-1,-1,-1,-1,-1,-1,-1,-1,-1],"loss_changes":[4.1110283E1,3.3926678E1,1.4214584E1,3.3735992E1,2.8730747E1,1.322591E1,0E0,2.3040825E1,2.4016571E1,2.8043585E1,0E0,1.0349571E1,0E0,1.2838675E1,2.036368E1,2.2470245E0,2.7151031E1,2.7394114E1,2.3573769E1,5.9916E0,6.3009415E0,3.5274906E0,0E0,1.9564262E1,2.0087584E1,0E0,0E0,1.2918742E1,1.5767677E1,0E0,1.2003517E1,1.5882397E1,0E0,0E0,4.5788574E0,0E0,0E0,0E0,0E0,0E0,0E0,0E0,0E0,0E0,0E0,0E0,0E0,0E0,0E0,0E0,0E0,0E0,0E0],"parents":[2147483647,0,0,1,1,2,2,3,3,4,4,5,5,7,7,8,8,9,9,11,11,13,13,14,14,15,15,16,16,17,17,18,18,19,19,20,20,21,21,23,23,24,24,27,27,28,28,30,30,31,31,34,34],"right_children":[2,4,6,8,10,12,-1,14,16,18,-1,20,-1,22,24,26,28,30,32,34,36,38,-1,40,42,-1,-1,44,46,-1,48,50,-1,-1,52,-1,-1,-1,-1,-1,-1,-1,-1,-1,-1,-1,-1,-1,-1,-1,-1,-1,-1],"split_conditions":[6.85249E-2,2.1E1,2.1815437E-1,6.069873E-1,3.3896E2,2.1428572E-1,2.8992945E-2,1.02564104E-1,1.1321095E-1,2.7083334E-1,7.392927E-2,1.6593715E2,5.6656E-3,1.3207143E2,-5.7773918E-2,1.09375E-1,3.2166668E1,3.2166668E1,4.4927537E-1,1.1E1,6.0034937E-1,5.5172414E-1,1.992121E-2,1.5447714E2,1.5693334E1,1.618136E-1,7.8073286E-2,1.2267389E0,1.762182E1,-4.849815E-2,1.5E1,1.1164843E-2,3.0769208E-2,-2.9184109E-2,1.3911657E-1,-5.1751163E-2,1.8663038E-2,-3.0663727E-2,-8.586984E-2,1.4324005E-2,1.4450543E-1,3.1663265E-2,-4.2949818E-2,-6.304866E-2,3.2188274E-2,1.4214967E-1,1.9798785E-2,1.19069755E-1,1.7138565E-2,-8.2416855E-2,-1.1079617E-2,-1.1113361E-1,-4.251972E-2],"split_indices":[174,95,224,25,18,168,0,50,224,134,0,18,0,6,168,83,24,24,93,131,89,52,0,18,264,0,0,68,140,0,126,78,0,0,222,0,0,0,0,0,0,0,0,0,0,0,0,0,0,0,0,0,0],"split_type":[0,0,0,0,0,0,0,0,0,0,0,0,0,0,0,0,0,0,0,0,0,0,0,0,0,0,0,0,0,0,0,0,0,0,0,0,0,0,0,0,0,0,0,0,0,0,0,0,0,0,0,0,0],"sum_hessian":[2.300325E2,1.804665E2,4.9566E1,1.08242E2,7.22245E1,4.38015E1,5.7645E0,7.4501E1,3.3741E1,6.52245E1,7E0,3.54925E1,8.309E0,2.1895E1,5.2606E1,1.05895E1,2.31515E1,1.87495E1,4.6475E1,2.4616E1,1.08765E1,1.4795E1,7.1E0,1.12705E1,4.13355E1,5E0,5.5895E0,1.23045E1,1.0847E1,7.14E0,1.16095E1,3.90155E1,7.4595E0,5.9835E0,1.86325E1,5.7645E0,5.112E0,8.5125E0,6.2825E0,5.891E0,5.3795E0,2.95335E1,1.1802E1,5.7585E0,6.546E0,5.7325E0,5.1145E0,5.253E0,6.3565E0,2.7571E1,1.14445E1,1.31945E1,5.438E0],"tree_param":{"num_deleted":"0","num_feature":"291","num_nodes":"53","size_leaf_vector":"1"}},{"base_weights":[5.407132E-4,-1.08903036E-1,1.3863328E0,-3.27498E-1,7.9743516E-1,1.06530525E-1,-0E0,-1.1484838E-1,-1.268822E0,-4.2751554E-1,1.5269455E0,-3.156423E-1,1.173435E0,-1.8148463E-2,-1.5917338E0,-6.755371E-2,7.836861E-3,-6.613971E-3,1.956844E0,-3.9782706E-1,6.443878E-2,1.2886149E-1,-5.3405892E-2,-8.698582E-1,-1.0894439E-1,2.4827087E0,1.1166125E-2,1.6431555E-2,-3.0935371E-2,-3.243908E-2,2.7546212E-2,-1.1901601E-2,-6.376525E-2,1.5340675E-1,6.170514E-2],"categories":[],"categories_nodes":[],"categories_segments":[],"categories_sizes":[],"default_left":[0,0,0,0,0,0,0,0,0,0,0,0,0,0,0,0,0,0,0,0,0,0,0,0,0,0,0,0,0,0,0,0,0,0,0],"id":1,"left_children":[1,3,5,7,9,-1,-1,11,13,15,17,19,21,-1,23,-1,-1,-1,25,27,-1,-1,29,31,-1,33,-1,-1,-1,-1,-1,-1,-1,-1,-1],"loss_changes":[3.48013E1,4.2180443E1,1.7372955E1,3.4037132E1,3.7725296E1,0E0,0E0,3.6771088E1,8.414391E0,9.055855E0,1.9125439E1,1.6627007E1,3.3395752E1,0E0,7.4545135E0,0E0,0E0,0E0,1.8241035E1,1.9121725E1,0E0,0E0,4.38568E0,2.608406E0,0E0,7.408676E0,0E0,0E0,0E0,0E0,0E0,0E0,0E0,0E0,0E0],"parents":[2147483647,0,0,1,1,2,2,3,3,4,4,7,7,8,8,9,9,10,10,11,11,12,12,14,14,18,18,19,19,22,22,23,23,25,25],"right_children":[2,4,6,8,10,-1,-1,12,14,16,18,20,22,-1,24,-1,-1,-1,26,28,-1,-1,30,32,-1,34,-1,-1,-1,-1,-1,-1,-1,-1,-1],"split_conditions":[8E0,1.0673624E1,3.8E1,8.6E1,2.184678E0,1.06530525E-1,-0E0,8.5714287E-1,-5.958292E-2,-4.244482E-3,1.0663289E-1,3.3896E2,3.3333334E-1,-1.8148463E-2,1.1310452E1,-6.755371E-2,7.836861E-3,-6.613971E-3,8.18567E-1,2.1E1,6.443878E-2,1.2886149E-1,4E0,2.6234567E-2,-1.0894439E-1,1.6067377E-1,1.1166125E-2,1.6431555E-2,-3.0935371E-2,-3.243908E-2,2.7546212E-2,-1.1901601E-2,-6.376525E-2,1.5340675E-1,6.170514E-2],"split_indices":[111,127,220,154,58,0,0,88,269,135,26,18,252,0,140,0,0,0,68,24,0,0,173,269,0,94,0,0,0,0,0,0,0,0,0],"split_type":[0,0,0,0,0,0,0,0,0,0,0,0,0,0,0,0,0,0,0,0,0,0,0,0,0,0,0,0,0,0,0,0,0,0,0],"sum_hessian":[2.26622E2,2.108215E2,1.58005E1,1.704585E2,4.0363E1,9.94E0,5.8605E0,1.40049E2,3.04095E1,1.5169E1,2.5194E1,1.218845E2,1.81645E1,8.631E0,2.17785E1,5.4355E0,9.7335E0,5.279E0,1.9915E1,1.1672E2,5.1645E0,7.996E0,1.01685E1,1.0958E1,1.08205E1,1.4904E1,5.011E0,2.6995E1,8.9725E1,5.1685E0,5E0,5E0,5.958E0,9.1E0,5.804E0],"tree_param":{"num_deleted":"0","num_feature":"291","num_nodes":"35","size_leaf_vector":"1"}},{"base_weights":[4.2777117E-2,-6.081939E-1,2.778545E-1,-1.0233525E0,3.8062018E-1,8.048828E-1,-1.0582109E-1,-1.2814956E0,8.399247E-3,9.0138294E-2,-2.916181E-1,-5.4451235E-2,1.1093664E0,-2.566693E-1,6.006039E-2,-1.493021E0,-1.8745074E-2,-5.4767456E-2,3.4385838E-2,1.6383148E0,1.741137E-1,-6.538933E-1,3.620617E-1,-1.0167714E0,-1.0901339E-1,5.906482E-1,2.242752E0,5.582399E-2,-5.848169E-1,1.4364131E-1,-1.0527422E0,-4.196559E-2,7.8832394E-1,-5.994072E-2,-2.0753613E-2,-2.0372596E-2,6.8932235E-2,4.4696093E-2,1.4799392E-1,2.3766605E-2,-6.358544E-2,-2.7951727E-2,4.9271226E-2,-7.456667E-2,-7.856877E-3,1.8458225E-2,9.424689E-2],"categories":[],"categories_nodes":[],"categories_segments":[],"categories_sizes":[],"default_left":[0,0,0,0,0,0,0,0,0,0,0,0,0,0,0,0,0,0,0,0,0,0,0,0,0,0,0,0,0,0,0,0,0,0,0,0,0,0,0,0,0,0,0,0,0,0,0],"id":2,"left_children":[1,3,5,7,9,11,13,15,-1,-1,17,-1,19,21,-1,23,-1,-1,-1,25,27,29,31,33,-1,35,37,-1,39,41,43,-1,45,-1,-1,-1,-1,-1,-1,-1,-1,-1,-1,-1,-1,-1,-1],"loss_changes":[3.4975204E1,2.5332003E1,3.413865E1,1.3558178E1,1.8437786E1,4.217058E1,1.9542236E1,6.070244E0,0E0,0E0,1.1363523E1,0E0,3.0072845E1,2.208619E1,0E0,6.7579956E0,0E0,0E0,0E0,2.3243507E1,1.7504854E1,1.7585983E1,1.8711924E1,1.3929901E0,0E0,1.3066666E1,2.0636642E1,0E0,1.0593573E1,1.1816365E1,1.3958E1,0E0,1.1306047E1,0E0,0E0,0E0,0E0,0E0,0E0,0E0,0E0,0E0,0E0,0E0,0E0,0E0,0E0],"parents":[2147483647,0,0,1,1,2,2,3,3,4,4,5,5,6,6,7,7,10,10,12,12,13,13,15,15,19,19,20,20,21,21,22,22,23,23,25,25,26,26,28,28,29,29,30,30,32,32],"right_children":[2,4,6,8,10,12,14,16,-1,-1,18,-1,20,22,-1,24,-1,-1,-1,26,28,30,32,34,-1,36,38,-1,40,42,44,-1,46,-1,-1,-1,-1,-1,-1,-1,-1,-1,-1,-1,-1,-1,-1],"split_conditions":[6E-1,4.083892E-2,6.856514E-3,4.6442504E0,-7.1428575E-2,-2.9358072E-2,9.042692E-2,1.3173136E-2,8.399247E-3,9.0138294E-2,1.9847329E-1,-5.4451235E-2,4.1414142E-1,4.0636805E-1,6.006039E-2,4E0,-1.8745074E-2,-5.4767456E-2,3.4385838E-2,1.4824478E1,3.0340195E-2,3.856358E-1,1.4548895E0,1.2797128E-1,-1.0901339E-1,1.9E1,6.707317E-1,5.582399E-2,4.3E1,2.52E2,7E0,-4.196559E-2,8.9285713E-1,-5.994072E-2,-2.0753613E-2,-2.0372596E-2,6.8932235E-2,4.4696093E-2,1.4799392E-1,2.3766605E-2,-6.358544E-2,-2.7951727E-2,4.9271226E-2,-7.456667E-2,-7.856877E-3,1.8458225E-2,9.424689E-2],"split_indices":[19,271,272,58,168,222,77,174,0,0,96,0,93,121,0,47,0,0,0,140,222,223,71,222,0,90,88,0,86,129,270,0,52,0,0,0,0,0,0,0,0,0,0,0,0,0,0],"split_type":[0,0,0,0,0,0,0,0,0,0,0,0,0,0,0,0,0,0,0,0,0,0,0,0,0,0,0,0,0,0,0,0,0,0,0,0,0,0,0,0,0,0,0,0,0,0,0],"sum_hessian":[2.26665E2,5.96025E1,1.670625E2,4.2024498E1,1.7578E1,7.003E1,9.70325E1,3.4547E1,7.4775E0,5.15E0,1.2428E1,9.297E0,6.0733E1,8.77815E1,9.251E0,2.73975E1,7.1495E0,6.817E0,5.611E0,3.82445E1,2.24885E1,5.3524E1,3.42575E1,1.77335E1,9.664E0,1.4776E1,2.34685E1,9.8805E0,1.2608E1,1.79735E1,3.55505E1,8.6565E0,2.5601E1,1.2725E1,5.0085E0,6.676E0,8.1E0,8.9745E0,1.4494E1,5.021E0,7.587E0,9.9145E0,8.059E0,2.33425E1,1.2208E1,1.95545E1,6.0465E0],"tree_param":{"num_deleted":"0","num_feature":"291","num_nodes":"47","size_leaf_vector":"1"}},{"base_weights":[3.841508E-2,-6.463375E-1,2.464462E-1,7.6633506E-2,-8.9308923E-1,4.268699E-1,-8.986799E-1,-4.458361E-1,-1.6694471E0,5.786739E-1,-1.338079E0,-4.413694E-1,-8.9604445E-2,-9.113567E-1,4.013323E-2,-1.0419705E-1,-4.8667323E-2,7.387864E-1,-9.696218E-1,-9.569793E-2,-2.5925219E-2,2.7341389E-3,-7.5674117E-1,2.0096402E-3,-1.542247E0,-3.4406263E-1,9.35834E-1,-1.519164E-2,-8.474179E-2,-2.1849839E-2,-4.6523083E-2,-9.4188645E-2,-4.0492147E-2,-6.986483E-2,1.4045574E-2,6.908601E-2,2.325174E-2],"categories":[],"categories_nodes":[],"categories_segments":[],"categories_sizes":[],"default_left":[0,0,0,0,0,0,0,0,0,0,0,0,0,0,0,0,0,0,0,0,0,0,0,0,0,0,0,0,0,0,0,0,0,0,0,0,0],"id":3,"left_children":[1,3,5,-1,7,9,11,13,15,17,19,21,-1,23,-1,-1,-1,25,27,-1,-1,-1,29,-1,31,33,35,-1,-1,-1,-1,-1,-1,-1,-1,-1,-1],"loss_changes":[3.4113533E1,3.1291191E1,3.832533E1,0E0,1.6673138E1,4.3458336E1,9.311558E0,2.0305086E1,2.8915749E0,3.7309917E1,4.8478947E0,2.9459035E0,0E0,1.5246693E1,0E0,0E0,0E0,2.9077568E1,6.1497145E0,0E0,0E0,0E0,8.245611E-2,0E0,1.9941216E0,1.4563259E1,2.3131477E1,0E0,0E0,0E0,0E0,0E0,0E0,0E0,0E0,0E0,0E0],"parents":[2147483647,0,0,1,1,2,2,4,4,5,5,6,6,7,7,8,8,9,9,10,10,11,11,13,13,17,17,18,18,22,22,24,24,25,25,26,26],"right_children":[2,4,6,-1,8,10,12,14,16,18,20,22,-1,24,-1,-1,-1,26,28,-1,-1,-1,30,-1,32,34,36,-1,-1,-1,-1,-1,-1,-1,-1,-1,-1],"split_conditions":[5.508124E-1,-3.9703988E-2,8.187658E-1,7.6633506E-2,2.6937341E-2,7.624512E-1,5.0700825E-2,1.9145171E-1,4E0,1.3734303E-1,-1.9771333E-1,-2.6353277E-2,-8.9604445E-2,7.5E-1,4.013323E-2,-1.0419705E-1,-4.8667323E-2,5.154639E-1,3.497784E-1,-9.569793E-2,-2.5925219E-2,2.7341389E-3,1.5245298E-1,2.0096402E-3,4.3375436E-3,2E0,3.75E-1,-1.519164E-2,-8.474179E-2,-2.1849839E-2,-4.6523083E-2,-9.4188645E-2,-4.0492147E-2,-6.986483E-2,1.4045574E-2,6.908601E-2,2.325174E-2],"split_indices":[59,175,75,0,253,136,175,26,66,174,68,253,0,7,0,0,0,221,226,0,0,0,26,0,78,47,93,0,0,0,0,0,0,0,0,0,0],"split_type":[0,0,0,0,0,0,0,0,0,0,0,0,0,0,0,0,0,0,0,0,0,0,0,0,0,0,0,0,0,0,0,0,0,0,0,0,0],"sum_hessian":[2.3764E2,5.47705E1,1.828695E2,5E0,4.97705E1,1.58596E2,2.42735E1,3.2659E1,1.71115E1,1.467065E2,1.18895E1,1.71175E1,7.156E0,2.4044E1,8.615E0,9.3855E0,7.726E0,1.334895E2,1.3217E1,6.127E0,5.7625E0,6.851E0,1.02665E1,9.896E0,1.4148E1,2.03585E1,1.13131E2,7.7025E0,5.5145E0,5.0545E0,5.212E0,8.4835E0,5.6644998E0,7.181E0,1.31775E1,5.7E1,5.6131E1],"tree_param":{"num_deleted":"0","num_feature":"291","num_nodes":"37","size_leaf_vector":"1"}},{"base_weights":[-2.094714E-2,-1.818466E-1,1.0323937E0,-7.2535616E-1,-6.3320477E-3,4.5906204E-1,1.1764574E-1,-1.0829613E0,7.3218435E-2,3.8815632E-1,-3.580776E-1,7.438146E-2,8.125147E-3,-1.4464822E0,-3.1331572E-1,5.158223E-2,-4.4740822E-2,5.4244184E-1,-6.832673E-2,6.4393127E-1,-7.49067E-1,-3.295961E-2,3.4101952E-2,-3.0310115E-2,-1.7463222E0,-3.640565E-2,1.1390764E-2,3.537575E-1,9.165927E-2,2.0198775E-2,7.998832E-2,-1.204455E0,-3.767421E-2,-1.1666681E-1,-4.9087137E-2,5.7017915E-3,7.878686E-2,-1.9450068E-2,2.71622E-2,-2.4972824E-2,-9.4633006E-2,2.3461245E-2,-6.9730185E-2],"categories":[],"categories_nodes":[],"categories_segments":[],"categories_sizes":[],"default_left":[0,0,0,0,0,0,0,0,0,0,0,0,0,0,0,0,0,0,0,0,0,0,0,0,0,0,0,0,0,0,0,0,0,0,0,0,0,0,0,0,0,0,0],"id":4,"left_children":[1,3,5,7,9,11,-1,13,15,17,19,-1,21,23,25,-1,-1,27,-1,29,31,-1,-1,-1,33,-1,-1,35,-1,37,-1,39,41,-1,-1,-1,-1,-1,-1,-1,-1,-1,-1],"loss_changes":[4.15267E1,2.0237358E1,2.3210243E1,1.4983303E1,2.2632301E1,1.09352045E1,0E0,9.429825E0,1.6600693E1,2.1440939E1,3.4326347E1,0E0,8.414524E0,4.7666473E0,3.1110985E0,0E0,0E0,1.650449E1,0E0,1.453475E1,2.012778E1,0E0,0E0,0E0,5.056591E0,0E0,0E0,1.8263983E1,0E0,3.656795E0,0E0,1.7292488E1,1.833567E1,0E0,0E0,0E0,0E0,0E0,0E0,0E0,0E0,0E0,0E0],"parents":[2147483647,0,0,1,1,2,2,3,3,4,4,5,5,7,7,8,8,9,9,10,10,12,12,13,13,14,14,17,17,19,19,20,20,24,24,27,27,29,29,31,31,32,32],"right_children":[2,4,6,8,10,12,-1,14,16,18,20,-1,22,24,26,-1,-1,28,-1,30,32,-1,-1,-1,34,-1,-1,36,-1,38,-1,40,42,-1,-1,-1,-1,-1,-1,-1,-1,-1,-1],"split_conditions":[1.225678E1,6.0246915E-1,2.016E3,3.058104E-1,5.5004773E-3,6E0,1.1764574E-1,1.7316017E-2,-5.7773918E-2,1.3E1,3.9098513E-1,7.438146E-2,5.951827E-2,5.077778E1,2.114375E-2,5.158223E-2,-4.4740822E-2,1.4186733E0,-6.832673E-2,1.7252E2,4.9E1,-3.295961E-2,3.4101952E-2,-3.0310115E-2,6E0,-3.640565E-2,1.1390764E-2,7.962963E-1,9.165927E-2,7.069828E0,7.998832E-2,3.383326E-1,2E1,-1.1666681E-1,-4.9087137E-2,5.7017915E-3,7.878686E-2,-1.9450068E-2,2.71622E-2,-2.4972824E-2,-9.4633006E-2,2.3461245E-2,-6.9730185E-2],"split_indices":[127,19,216,138,175,131,0,265,168,47,223,0,225,6,74,0,0,67,0,18,120,0,0,0,57,0,0,7,0,58,0,121,90,0,0,0,0,0,0,0,0,0,0],"split_type":[0,0,0,0,0,0,0,0,0,0,0,0,0,0,0,0,0,0,0,0,0,0,0,0,0,0,0,0,0,0,0,0,0,0,0,0,0,0,0,0,0,0,0],"sum_hessian":[2.434155E2,2.119605E2,3.1455E1,5.0836E1,1.611245E2,2.2925E1,8.53E0,3.4953E1,1.5883E1,7.5765E1,8.53595E1,6.219E0,1.6706E1,2.30545E1,1.18985E1,8E0,7.883E0,7.0329E1,5.436E0,2.37055E1,6.1654E1,8.3305E0,8.3755E0,6.9455E0,1.6109E1,6.6445E0,5.254E0,6.25385E1,7.7905E0,1.5026E1,8.6795E0,3.70825E1,2.45715E1,7.878E0,8.231E0,5.32645E1,9.274E0,8.467E0,6.559E0,1.9242E1,1.78405E1,1.83115E1,6.26E0],"tree_param":{"num_deleted":"0","num_feature":"291","num_nodes":"43","size_leaf_vector":"1"}},{"base_weights":[5.86571E-2,3.1441048E-1,-6.4820194E-1,8.4256634E-2,1.0459366E0,-8.8287824E-1,4.1988693E-2,5.618639E-1,-2.5291383E-1,-1.6774301E-1,1.7860476E0,-4.0501156E-1,-1.4703584E0,9.693754E-1,-6.658612E-1,-1.01466E0,1.8312588E-1,-4.3941256E-2,2.4451302E-2,2.02158E-3,2.320996E0,-7.1095175E-1,3.300655E-2,-1.0379836E-2,-1.7995597E0,5.385629E-1,1.3410132E-1,3.1027694E-3,-5.8099475E-2,-1.6438302E0,9.02165E-2,1.2295947E0,-1.4089234E-1,2.792331E0,6.064568E-2,-1.1701702E0,-2.8731236E-1,-3.9853718E-2,-1.09168135E-1,8.280521E-2,-3.4508535E-3,-2.8597025E-2,-1.03039525E-1,3.9050333E-2,-2.6993841E-2,2.7848748E-2,8.7829754E-2,-5.030631E-2,1.0830263E-2,1.7980559E-1,9.46048E-2,-3.239266E-2,-7.215357E-2,1.2122364E-2,-3.921217E-2],"categories":[],"categories_nodes":[],"categories_segments":[],"categories_sizes":[],"default_left":[0,0,0,0,0,0,0,0,0,0,0,0,0,0,0,0,0,0,0,0,0,0,0,0,0,0,0,0,0,0,0,0,0,0,0,0,0,0,0,0,0,0,0,0,0,0,0,0,0,0,0,0,0,0,0],"id":5,"left_children":[1,3,5,7,9,11,-1,13,15,17,19,21,23,25,27,29,31,-1,-1,-1,33,35,-1,-1,37,39,-1,-1,-1,41,43,45,47,49,-1,51,53,-1,-1,-1,-1,-1,-1,-1,-1,-1,-1,-1,-1,-1,-1,-1,-1,-1,-1],"loss_changes":[4.4492195E1,3.024016E1,2.3569132E1,2.251291E1,3.9158363E1,1.5219532E1,0E0,2.9614368E1,2.7467527E1,8.49303E0,2.478775E1,1.1197968E1,9.857563E0,3.0620617E1,5.5797E0,2.1190298E1,1.8198833E1,0E0,0E0,0E0,6.9334335E0,4.5993176E0,0E0,0E0,5.5459824E0,2.4968422E1,0E0,0E0,0E0,7.163368E0,5.578373E0,3.280878E0,1.3032012E1,2.4661255E0,0E0,5.799694E-1,4.1995773E0,0E0,0E0,0E0,0E0,0E0,0E0,0E0,0E0,0E0,0E0,0E0,0E0,0E0,0E0,0E0,0E0,0E0,0E0],"parents":[2147483647,0,0,1,1,2,2,3,3,4,4,5,5,7,7,8,8,9,9,10,10,11,11,12,12,13,13,14,14,15,15,16,16,20,20,21,21,24,24,25,25,29,29,30,30,31,31,32,32,33,33,35,35,36,36],"right_children":[2,4,6,8,10,12,-1,14,16,18,20,22,24,26,28,30,32,-1,-1,-1,34,36,-1,-1,38,40,-1,-1,-1,42,44,46,48,50,-1,52,54,-1,-1,-1,-1,-1,-1,-1,-1,-1,-1,-1,-1,-1,-1,-1,-1,-1,-1],"split_conditions":[6.397333E1,8.94947E0,3.4E1,-2E0,0E0,8.826E-1,4.1988693E-2,8.456659E-2,2E0,-4.2737758E-1,7.4404764E0,3.962963E-1,3.2E1,5.7659574E-2,3.7752903E-1,2.7E1,1.6949153E-1,-4.3941256E-2,2.4451302E-2,2.02158E-3,6.1E1,-1.7825312E-3,3.300655E-2,-1.0379836E-2,2.1762165E-1,5.5487085E-2,1.3410132E-1,3.1027694E-3,-5.8099475E-2,2.1621622E-1,1.9355142E2,6.3793105E-1,2.1762165E-1,1.32E2,6.064568E-2,3.653846E-1,1.7E1,-3.9853718E-2,-1.09168135E-1,8.280521E-2,-3.4508535E-3,-2.8597025E-2,-1.03039525E-1,3.9050333E-2,-2.6993841E-2,2.7848748E-2,8.7829754E-2,-5.030631E-2,1.0830263E-2,1.7980559E-1,9.46048E-2,-3.239266E-2,-7.215357E-2,1.2122364E-2,-3.921217E-2],"split_indices":[264,58,126,173,173,115,0,168,114,67,54,23,139,265,89,53,123,0,0,0,117,265,0,0,119,67,0,0,0,50,18,118,119,129,0,93,137,0,0,0,0,0,0,0,0,0,0,0,0,0,0,0,0,0,0],"split_type":[0,0,0,0,0,0,0,0,0,0,0,0,0,0,0,0,0,0,0,0,0,0,0,0,0,0,0,0,0,0,0,0,0,0,0,0,0,0,0,0,0,0,0,0,0,0,0,0,0,0,0,0,0,0,0],"sum_hessian":[2.441675E2,1.79807E2,6.43605E1,1.37727E2,4.208E1,5.6002E1,8.3585005E0,5.6841E1,8.0886E1,1.6182E1,2.5898E1,3.19075E1,2.40945E1,4.2895E1,1.3946E1,2.9046E1,5.184E1,7.6805E0,8.5015E0,6.371E0,1.9527E1,2.5119E1,6.7885E0,5.3825E0,1.8712E1,3.53705E1,7.5245E0,5.9255E0,8.0205E0,1.8254E1,1.0792E1,1.16685E1,4.01715E1,1.257E1,6.957E0,1.10945E1,1.40245E1,6.1045E0,1.26075E1,1.19075E1,2.3463E1,5.8435E0,1.2410501E1,5.1095E0,5.6825E0,6.113E0,5.5555E0,1.12965E1,2.8875E1,5E0,7.57E0,5.091E0,6.0035E0,6.9385E0,7.086E0],"tree_param":{"num_deleted":"0","num_feature":"291","num_nodes":"55","size_leaf_vector":"1"}},{"base_weights":[4.277159E-3,-1.7615305E-1,7.9125506E-1,-8.7046236E-2,-9.611709E-2,2.6671487E-1,2.2453449E0,5.4914474E-1,-2.7539608E-1,8.9703375E-1,-5.2453446E-1,1.5791774E-1,4.9680013E-2,2.4374988E-2,1.1232652E-1,-6.6494954E-1,2.1876515E-1,7.431588E-2,2.0984004E-3,4.0956404E-2,-6.387926E-2,-6.7906106E-1,8.214825E-1,-1.027364E0,3.6787996E-1,1.1689633E0,-1.1884379E-1,1.2126332E-2,-6.263878E-2,7.483423E-2,-1.999924E-2,-6.6781364E-2,-1.7957406E-2,-3.468719E-2,3.8192153E-2,8.604294E-2,1.0333752E-3,-1.8769234E-2,5.2961703E-2],"categories":[],"categories_nodes":[],"categories_segments":[],"categories_sizes":[],"default_left":[0,0,0,0,0,0,0,0,0,0,0,0,0,0,0,0,0,0,0,0,0,0,0,0,0,0,0,0,0,0,0,0,0,0,0,0,0,0,0],"id":6,"left_children":[1,3,5,7,-1,9,11,13,15,17,19,-1,-1,21,-1,23,25,-1,-1,-1,-1,27,29,31,33,35,37,-1,-1,-1,-1,-1,-1,-1,-1,-1,-1,-1,-1],"loss_changes":[3.282386E1,2.8823729E1,3.2050606E1,2.1645351E1,0E0,1.690907E1,9.303787E0,3.6452137E1,2.7018255E1,9.229202E0,1.6413723E1,0E0,0E0,1.8827248E1,0E0,2.9749561E1,2.0156826E1,0E0,0E0,0E0,0E0,9.8032675E0,1.3723912E1,1.1357986E1,9.364983E0,1.0210859E1,1.4422146E1,0E0,0E0,0E0,0E0,0E0,0E0,0E0,0E0,0E0,0E0,0E0,0E0],"parents":[2147483647,0,0,1,1,2,2,3,3,5,5,6,6,7,7,8,8,9,9,10,10,13,13,15,15,16,16,21,21,22,22,23,23,24,24,25,25,26,26],"right_children":[2,4,6,8,-1,10,12,14,16,18,20,-1,-1,22,-1,24,26,-1,-1,-1,-1,28,30,32,34,36,38,-1,-1,-1,-1,-1,-1,-1,-1,-1,-1,-1,-1],"split_conditions":[1.9E1,6.5214634E0,9.13381E0,-9.5E0,-9.611709E-2,1.8E1,1.27E2,3E0,9.211E-1,6.77686E-1,6.2105265E0,1.5791774E-1,4.9680013E-2,1.072887E0,1.1232652E-1,2.666796E1,2.2E1,7.431588E-2,2.0984004E-3,4.0956404E-2,-6.387926E-2,6.772279E-1,9.588E-1,8.333333E0,1.2828736E1,-1.5990561E-1,1.4328058E-1,1.2126332E-2,-6.263878E-2,7.483423E-2,-1.999924E-2,-6.6781364E-2,-1.7957406E-2,-3.468719E-2,3.8192153E-2,8.604294E-2,1.0333752E-3,-1.8769234E-2,5.2961703E-2],"split_indices":[57,69,127,270,0,114,85,111,115,88,132,0,0,72,0,54,24,0,0,0,0,7,115,270,140,69,222,0,0,0,0,0,0,0,0,0,0,0,0],"split_type":[0,0,0,0,0,0,0,0,0,0,0,0,0,0,0,0,0,0,0,0,0,0,0,0,0,0,0,0,0,0,0,0,0,0,0,0,0,0,0],"sum_hessian":[2.28748E2,1.866125E2,4.21355E1,1.786055E2,8.007E0,3.18855E1,1.025E1,4.024E1,1.383655E2,1.77435E1,1.4142E1,5E0,5.25E0,3.1557E1,8.683E0,7.7292E1,6.10735E1,9.998E0,7.7455E0,5E0,9.142E0,1.67755E1,1.47815E1,5.7291E1,2.0001E1,1.5443E1,4.56305E1,6.591E0,1.01845E1,9.427E0,5.3545E0,3.8419E1,1.8872E1,5.1605E0,1.48405E1,1.00345E1,5.4085E0,3.81E1,7.5305E0],"tree_param":{"num_deleted":"0","num_feature":"291","num_nodes":"39","size_leaf_vector":"1"}},{"base_weights":[5.035602E-2,-8.406157E-1,2.2105706E-1,3.931891E-2,-1.2278094E0,3.1627008E-1,-1.3753089E0,1.2321341E-2,-1.6235708E0,5.207688E-1,-5.5293155E-1,-9.875741E-2,-2.823188E-2,-3.571808E-2,-1.8579866E0,2.6725343E-1,1.177507E0,2.5687102E-2,-1.6957525E0,-1.0870905E-1,-4.4064317E-2,7.0946974E-1,-2.2773886E-1,1.2428037E-1,7.651676E-1,4.3880176E-2,-5.1586056E-1,-5.0463468E-2,-1.0869739E-1,-6.155333E-2,5.3041607E-2,-2.009181E-2,5.038431E-2,8.032607E-2,1.171559E-2,-4.299611E-2,5.3286073E-3],"categories":[],"categories_nodes":[],"categories_segments":[],"categories_sizes":[],"default_left":[0,0,0,0,0,0,0,0,0,0,0,0,0,0,0,0,0,0,0,0,0,0,0,0,0,0,0,0,0,0,0,0,0,0,0,0,0],"id":7,"left_children":[1,3,5,-1,7,9,11,-1,13,15,17,-1,-1,-1,19,21,23,25,27,-1,-1,29,31,-1,33,-1,35,-1,-1,-1,-1,-1,-1,-1,-1,-1,-1],"loss_changes":[3.701994E1,2.5653456E1,3.1408127E1,0E0,1.9231117E1,3.473948E1,4.2895336E0,0E0,3.83844E0,2.576801E1,2.4882412E1,0E0,0E0,0E0,3.8056107E0,2.5395105E1,2.121965E1,1.234406E1,1.628418E0,0E0,0E0,4.2961105E1,1.2160958E1,0E0,1.4872608E1,0E0,3.650855E0,0E0,0E0,0E0,0E0,0E0,0E0,0E0,0E0,0E0,0E0],"parents":[2147483647,0,0,1,1,2,2,4,4,5,5,6,6,8,8,9,9,10,10,14,14,15,15,16,16,17,17,18,18,21,21,22,22,24,24,26,26],"right_children":[2,4,6,-1,8,10,12,-1,14,16,18,-1,-1,-1,20,22,24,26,28,-1,-1,30,32,-1,34,-1,36,-1,-1,-1,-1,-1,-1,-1,-1,-1,-1],"split_conditions":[9.485866E-1,1.8782226E-2,9.0647787E-1,3.931891E-2,-3.0588908E-2,3.1165108E-1,-1.9771333E-1,1.2321341E-2,1.8245614E-1,1.7E1,1.0132E2,-9.875741E-2,-2.823188E-2,-3.571808E-2,-1.7153493E0,3.7931034E-1,3.412582E-2,1.6436E2,3.8E1,-1.0870905E-1,-4.4064317E-2,-3.2107693E-1,1.0294666E1,1.2428037E-1,4.810776E0,4.3880176E-2,5.453382E0,-5.0463468E-2,-1.0869739E-1,-6.155333E-2,5.3041607E-2,-2.009181E-2,5.038431E-2,8.032607E-2,1.171559E-2,-4.299611E-2,5.3286073E-3],"split_indices":[58,225,136,0,253,75,68,0,96,57,167,0,0,0,75,93,225,18,139,0,0,94,130,0,127,0,71,0,0,0,0,0,0,0,0,0,0],"split_type":[0,0,0,0,0,0,0,0,0,0,0,0,0,0,0,0,0,0,0,0,0,0,0,0,0,0,0,0,0,0,0,0,0,0,0,0,0],"sum_hessian":[2.41594E2,3.81195E1,2.034745E2,7.08E0,3.10395E1,1.928375E2,1.0637E1,6.5955E0,2.4444E1,1.56527E2,3.63105E1,5.217E0,5.42E0,5.9275E0,1.85165E1,1.140575E2,4.24695E1,2.46965E1,1.1614E1,1.29845E1,5.532E0,6.0118E1,5.39395E1,8.9155E0,3.3554E1,9.4285E0,1.5268E1,6.1315002E0,5.4825E0,8.789E0,5.1329E1,4.79395E1,6E0,1.2124E1,2.143E1,9.6905E0,5.5775E0],"tree_param":{"num_deleted":"0","num_feature":"291","num_nodes":"37","size_leaf_vector":"1"}},{"base_weights":[-5.9904102E-2,3.036972E-1,-5.0556535E-1,4.497951E-1,-1.0321163E0,-1.3583117E0,-3.0558333E-1,2.0189482E-1,1.3542194E0,-2.2215808E-2,-8.044459E-2,-2.5658146E-2,-9.0931855E-2,6.836498E-1,-7.0330137E-1,-6.495727E-2,3.6546695E-1,-2.416721E-2,1.9042696E0,1.3922501E0,-3.361681E-1,-8.484708E-1,2.8222892E-2,1.11866176E-1,1.694337E0,4.3954436E-2,2.5370004E0,1.13203764E-1,2.778737E-2,-5.8980417E-2,2.7683103E-2,5.1242054E-2,-1.1150645E0,5.2888583E-2,-1.23162875E-2,1.0962138E-2,1.4561163E-1,1.6698687E-1,6.8032004E-2,-2.026902E-2,3.3851914E-2,-6.553513E-3,-6.570234E-2],"categories":[],"categories_nodes":[],"categories_segments":[],"categories_sizes":[],"default_left":[0,0,0,0,0,0,0,0,0,0,0,0,0,0,0,0,0,0,0,0,0,0,0,0,0,0,0,0,0,0,0,0,0,0,0,0,0,0,0,0,0,0,0],"id":8,"left_children":[1,3,5,7,9,11,13,15,17,-1,-1,-1,-1,19,21,-1,23,-1,25,27,29,31,-1,33,35,-1,37,-1,-1,-1,-1,39,41,-1,-1,-1,-1,-1,-1,-1,-1,-1,-1],"loss_changes":[3.7719254E1,2.5405752E1,1.7256723E1,2.5631464E1,3.4414272E0,6.4142723E0,3.4364098E1,2.3090466E1,2.6072052E1,0E0,0E0,0E0,0E0,1.8733303E1,1.1915407E1,0E0,2.8019775E1,0E0,9.939247E0,9.457003E0,9.008929E0,1.3616783E1,0E0,2.4694418E1,2.306142E1,0E0,5.690445E0,0E0,0E0,0E0,0E0,4.213862E0,8.180374E0,0E0,0E0,0E0,0E0,0E0,0E0,0E0,0E0,0E0,0E0],"parents":[2147483647,0,0,1,1,2,2,3,3,4,4,5,5,6,6,7,7,8,8,13,13,14,14,16,16,18,18,19,19,20,20,21,21,23,23,24,24,26,26,31,31,32,32],"right_children":[2,4,6,8,10,12,14,16,18,-1,-1,-1,-1,20,22,-1,24,-1,26,28,30,32,-1,34,36,-1,38,-1,-1,-1,-1,40,42,-1,-1,-1,-1,-1,-1,-1,-1,-1,-1],"split_conditions":[1.048E1,1.9444445E-1,1.0511425E-1,1.0109763E1,5.703183E-1,3.759778E-2,2.4975275E-1,4.6829972E-1,1.8181819E-1,-2.2215808E-2,-8.044459E-2,-2.5658146E-2,-9.0931855E-2,6.626506E-1,1.3761468E-1,-6.495727E-2,1.6952051E0,-2.416721E-2,6.27984E-3,4.614E1,6E0,3.1034482E-1,2.8222892E-2,2.2428572E1,1.2E1,4.3954436E-2,3.160494E-1,1.13203764E-1,2.778737E-2,-5.8980417E-2,2.7683103E-2,5.5E1,2.904709E-1,5.2888583E-2,-1.23162875E-2,1.0962138E-2,1.4561163E-1,1.6698687E-1,6.8032004E-2,-2.026902E-2,3.3851914E-2,-6.553513E-3,-6.570234E-2],"split_indices":[167,135,60,127,19,175,60,221,123,0,0,0,0,19,83,0,68,0,135,264,57,51,0,24,53,0,23,0,0,0,0,53,121,0,0,0,0,0,0,0,0,0,0],"split_type":[0,0,0,0,0,0,0,0,0,0,0,0,0,0,0,0,0,0,0,0,0,0,0,0,0,0,0,0,0,0,0,0,0,0,0,0,0,0,0,0,0,0,0],"sum_hessian":[2.30701E2,1.27099E2,1.03602E2,1.15234E2,1.1865E1,1.84855E1,8.51165E1,9.14905E1,2.37435E1,6.839E0,5.026E0,7.3405E0,1.11449995E1,2.41295E1,6.0987E1,8.248E0,8.32425E1,5.456E0,1.82875E1,1.40795E1,1.005E1,5.50885E1,5.8985E0,7.0876E1,1.23665E1,7.9515E0,1.0336E1,6E0,8.0795E0,5.05E0,5E0,1.2691E1,4.23975E1,1.90075E1,5.18685E1,6.1635E0,6.203E0,5E0,5.336E0,7.4485E0,5.2425E0,7.495E0,3.49025E1],"tree_param":{"num_deleted":"0","num_feature":"291","num_nodes":"43","size_leaf_vector":"1"}},{"base_weights":[2.0761732E-2,3.7935883E-1,-3.061762E-1,-6.2604535E-1,6.330325E-1,5.7300575E-2,-4.166729E-1,-1.1602511E0,2.5448328E-2,1.6051623E0,8.116889E-2,-7.1358815E-2,-7.953267E-1,-2.663689E-2,-7.8952745E-2,3.175905E-2,-2.7735224E-2,-8.004461E-4,2.2401474E0,5.866473E-1,-6.140219E-1,1.3664417E-1,-6.7641534E-2,-3.0323702E-1,-1.4051431E0,2.824627E0,3.3936128E-2,-2.7152538E-2,1.0428057E0,-1.1097606E0,1.2503773E-2,-8.654947E-2,8.083704E-2,-6.7274344E-1,3.1052664E-2,-1.6793696E0,-1.4968062E-2,9.516679E-2,2.1031676E-1,-0E0,7.291717E-2,-6.881262E-2,-2.3173282E-2,3.43544E-2,-2.1119274E-2,2.1420412E-2,-5.109589E-2,-3.6660083E-2,-1.01244904E-1],"categories":[],"categories_nodes":[],"categories_segments":[],"categories_sizes":[],"default_left":[0,0,0,0,0,0,0,0,0,0,0,0,0,0,0,0,0,0,0,0,0,0,0,0,0,0,0,0,0,0,0,0,0,0,0,0,0,0,0,0,0,0,0,0,0,0,0,0,0],"id":9,"left_children":[1,3,5,7,9,-1,11,13,15,17,19,21,23,-1,-1,-1,-1,-1,25,27,29,31,-1,33,35,37,-1,-1,39,41,-1,43,-1,45,-1,47,-1,-1,-1,-1,-1,-1,-1,-1,-1,-1,-1,-1,-1],"loss_changes":[2.835444E1,2.9837183E1,2.0681671E1,8.384397E0,4.946069E1,0E0,1.531555E1,2.3948116E0,4.4506598E0,3.4710876E1,2.1541334E1,1.7118715E1,1.6254463E1,0E0,0E0,0E0,0E0,0E0,1.9726685E1,1.890966E1,1.14087105E1,1.8497276E1,0E0,1.1503447E1,6.792923E0,1.3243439E1,0E0,0E0,1.1101866E1,2.0444736E0,0E0,1.2936499E1,0E0,9.62311E0,0E0,4.6185493E0,0E0,0E0,0E0,0E0,0E0,0E0,0E0,0E0,0E0,0E0,0E0,0E0,0E0],"parents":[2147483647,0,0,1,1,2,2,3,3,4,4,6,6,7,7,8,8,9,9,10,10,11,11,12,12,18,18,19,19,20,20,21,21,23,23,24,24,25,25,28,28,29,29,31,31,33,33,35,35],"right_children":[2,4,6,8,10,-1,12,14,16,18,20,22,24,-1,-1,-1,-1,-1,26,28,30,32,-1,34,36,38,-1,-1,40,42,-1,44,-1,46,-1,48,-1,-1,-1,-1,-1,-1,-1,-1,-1,-1,-1,-1,-1],"split_conditions":[2.4095415E-1,3E0,2.872E1,1.0339998E-2,1.5E1,5.7300575E-2,3.7288135E-1,8.7833685E-1,7.232776E-1,5.537365E0,1.1319051E0,5.1853586E-2,2.580645E-1,-2.663689E-2,-7.8952745E-2,3.175905E-2,-2.7735224E-2,-8.004461E-4,3.7E1,5.432807E-1,2.45612E0,7.8431375E-2,-6.7641534E-2,1.4E1,2.0499856E0,1.7456E2,3.3936128E-2,-2.7152538E-2,-7.493671E-3,7.3E1,1.2503773E-2,-2.5280898E-2,8.083704E-2,8.7E1,3.1052664E-2,1.1180679E1,-1.4968062E-2,9.516679E-2,2.1031676E-1,-0E0,7.291717E-2,-6.881262E-2,-2.3173282E-2,3.43544E-2,-2.1119274E-2,2.1420412E-2,-5.109589E-2,-3.6660083E-2,-1.01244904E-1],"split_indices":[94,57,110,73,90,0,134,226,7,127,68,73,50,0,0,0,0,0,120,25,68,253,0,173,72,18,0,0,265,133,0,253,0,129,0,140,0,0,0,0,0,0,0,0,0,0,0,0,0],"split_type":[0,0,0,0,0,0,0,0,0,0,0,0,0,0,0,0,0,0,0,0,0,0,0,0,0,0,0,0,0,0,0,0,0,0,0,0,0,0,0,0,0,0,0,0,0,0,0,0,0],"sum_hessian":[2.397985E2,1.144315E2,1.25367E2,2.268E1,9.17515E1,8.138E0,1.17229E2,1.2117E1,1.0563E1,3.2468E1,5.92835E1,6.20735E1,5.51555E1,5.855E0,6.262E0,5.188E0,5.375E0,9.368E0,2.31E1,3.4499E1,2.47845E1,5.41065E1,7.967E0,3.14435E1,2.3712E1,1.6173E1,6.927E0,9.8055E0,2.46935E1,1.5642E1,9.1425E0,4.7776E1,6.3305E0,2.2735E1,8.7085E0,1.8512E1,5.2E0,1.1173E1,5E0,7.336E0,1.73575E1,1.0166E1,5.476E0,1.4055E1,3.3721E1,5.35E0,1.7385E1,5.8645E0,1.26475E1],"tree_param":{"num_deleted":"0","num_feature":"291","num_nodes":"49","size_leaf_vector":"1"}},{"base_weights":[1.3929874E-6,-1.6401953E-1,6.558133E-1,-7.102501E-2,-9.152155E-2,1.2017682E0,-2.6041916E-1,2.1886219E-1,-3.4390604E-1,1.8253322E0,1.0723561E-1,-1.1397234E0,4.4187896E-2,4.1666365E-1,-7.792908E-1,-1.057478E0,-1.4008985E-1,2.6148885E-2,2.3716238E0,-2.7931167E-2,4.546215E-2,-2.4255745E-2,-7.85422E-2,7.814144E-1,-3.4324738E-1,-6.501566E-2,7.497073E-3,-6.66081E-2,-2.4533762E-2,-3.8164976E-1,6.8185407E-1,1.6054338E-1,7.4813195E-2,-1.4505704E-2,6.262697E-2,4.5444172E-2,-3.7892956E-2,-2.6405382E-4,-4.6522256E-2,7.706955E-2,-6.25247E-3],"categories":[],"categories_nodes":[],"categories_segments":[],"categories_sizes":[],"default_left":[0,0,0,0,0,0,0,0,0,0,0,0,0,0,0,0,0,0,0,0,0,0,0,0,0,0,0,0,0,0,0,0,0,0,0,0,0,0,0,0,0],"id":10,"left_children":[1,3,5,7,-1,9,11,13,15,17,19,21,-1,23,25,27,29,-1,31,-1,-1,-1,-1,33,35,-1,-1,-1,-1,37,39,-1,-1,-1,-1,-1,-1,-1,-1,-1,-1],"loss_changes":[2.6533592E1,3.0182417E1,2.5108541E1,1.4921964E1,0E0,2.0898178E1,2.0341015E1,1.8326794E1,1.3863245E1,1.2520966E1,7.1865087E0,2.2321205E0,0E0,2.1651287E1,7.7540693E0,2.4841843E0,1.5486295E1,0E0,4.698456E0,0E0,0E0,0E0,0E0,2.6918953E1,1.3950656E1,0E0,0E0,0E0,0E0,1.2319365E1,1.2622593E1,0E0,0E0,0E0,0E0,0E0,0E0,0E0,0E0,0E0,0E0],"parents":[2147483647,0,0,1,1,2,2,3,3,5,5,6,6,7,7,8,8,9,9,10,10,11,11,13,13,14,14,15,15,16,16,18,18,23,23,24,24,29,29,30,30],"right_children":[2,4,6,8,-1,10,12,14,16,18,20,22,-1,24,26,28,30,-1,32,-1,-1,-1,-1,34,36,-1,-1,-1,-1,38,40,-1,-1,-1,-1,-1,-1,-1,-1,-1,-1],"split_conditions":[1.9E1,6.540038E0,1.8E1,2.014E3,-9.152155E-2,2.9E1,1.49E2,6E0,5.929667E-1,6.156469E0,8.900383E-3,1.07083336E2,4.4187896E-2,7.017544E-1,1.9164031E-2,8.176E1,1.0822511E1,2.6148885E-2,5.6E1,-2.7931167E-2,4.546215E-2,-2.4255745E-2,-7.85422E-2,1E0,2.9E-1,-6.501566E-2,7.497073E-3,-6.66081E-2,-2.4533762E-2,1.0339998E-2,7.5238097E-1,1.6054338E-1,7.4813195E-2,-1.4505704E-2,6.262697E-2,4.5444172E-2,-3.7892956E-2,-2.6405382E-4,-4.6522256E-2,7.706955E-2,-6.25247E-3],"split_indices":[57,69,114,216,0,95,114,47,19,54,175,6,0,214,175,167,127,0,117,0,0,0,0,91,93,0,0,0,0,73,88,0,0,0,0,0,0,0,0,0,0],"split_type":[0,0,0,0,0,0,0,0,0,0,0,0,0,0,0,0,0,0,0,0,0,0,0,0,0,0,0,0,0,0,0,0,0,0,0,0,0,0,0,0,0],"sum_hessian":[2.442135E2,1.958325E2,4.8381E1,1.86526E2,9.3065E0,3.01895E1,1.81915E1,9.0363E1,9.6163E1,1.8749E1,1.14405E1,1.0338E1,7.8535E0,7.59875E1,1.43755E1,2.0325E1,7.5838E1,6.173E0,1.2576E1,6.3485003E0,5.092E0,5.041E0,5.297E0,5.1413E1,2.45745E1,9.024E0,5.3515E0,1.2662E1,7.663E0,5.91205E1,1.67175E1,5E0,7.576E0,1.5754E1,3.5659E1,5.7565002E0,1.8818E1,3.57765E1,2.3344E1,7.714E0,9.0035E0],"tree_param":{"num_deleted":"0","num_feature":"291","num_nodes":"41","size_leaf_vector":"1"}},{"base_weights":[-1.099451E-2,-1.9917293E-1,6.191725E-1,-1.3300239E-1,-8.888936E-2,1.6188494E0,9.236559E-2,-5.9256876E-1,1.1397437E-1,1.4889678E-1,6.837467E-1,6.959071E-1,-7.774993E-1,-8.602945E-1,3.2491842E-1,-3.9716852E-1,3.9219588E-1,1.4028892E-2,5.0974466E-2,1.3638945E0,-1.0143504E-2,-7.2175466E-2,2.2074675E-2,-3.5718754E-1,-1.4027189E0,5.7717826E-2,-4.1437063E-2,-9.9610114E-1,1.9704883E-1,1.1971629E-1,2.048051E-1,3.1149382E-2,9.155738E-2,-3.3516772E-2,1.0390814E-2,-8.850939E-2,-1.6495219E-2,-5.8438852E-3,-6.584158E-2,4.3292686E-2,-2.9256536E-2,-9.389788E-3,4.5524452E-2],"categories":[],"categories_nodes":[],"categories_segments":[],"categories_sizes":[],"default_left":[0,0,0,0,0,0,0,0,0,0,0,0,0,0,0,0,0,0,0,0,0,0,0,0,0,0,0,0,0,0,0,0,0,0,0,0,0,0,0,0,0,0,0],"id":11,"left_children":[1,3,5,7,-1,9,11,13,15,-1,17,19,21,23,25,27,29,-1,-1,31,-1,-1,-1,33,35,-1,-1,37,39,-1,41,-1,-1,-1,-1,-1,-1,-1,-1,-1,-1,-1,-1],"loss_changes":[2.7122173E1,1.8006603E1,2.73578E1,1.9469397E1,0E0,2.0488857E1,1.9194017E1,1.5048559E1,1.6027222E1,0E0,1.2099037E0,1.3349118E1,1.2886603E1,1.2076569E1,1.4552173E1,1.440811E1,2.6600576E1,0E0,0E0,2.966465E0,0E0,0E0,0E0,4.7296457E0,7.8990746E0,0E0,0E0,5.3495045E0,1.1354776E1,0E0,1.9027527E1,0E0,0E0,0E0,0E0,0E0,0E0,0E0,0E0,0E0,0E0,0E0,0E0],"parents":[2147483647,0,0,1,1,2,2,3,3,5,5,6,6,7,7,8,8,10,10,11,11,12,12,13,13,14,14,15,15,16,16,19,19,23,23,24,24,27,27,28,28,30,30],"right_children":[2,4,6,8,-1,10,12,14,16,-1,18,20,22,24,26,28,30,-1,-1,32,-1,-1,-1,34,36,-1,-1,38,40,-1,42,-1,-1,-1,-1,-1,-1,-1,-1,-1,-1,-1,-1],"split_conditions":[1.7E1,6.5666664E1,5.6E1,5.838641E0,-8.888936E-2,2E0,9.8684214E-2,4.5833334E-1,1.793722E-2,1.4889678E-1,5.750168E-1,3.8E1,9.911E-1,4E0,1.2666667E1,5.6093997E-1,1.1111111E-1,1.4028892E-2,5.0974466E-2,1.01E2,-1.0143504E-2,-7.2175466E-2,2.2074675E-2,1.6875612E-2,4.6E1,5.7717826E-2,-4.1437063E-2,1.31E2,8.900383E-3,1.1971629E-1,1.2978572E2,3.1149382E-2,9.155738E-2,-3.3516772E-2,1.0390814E-2,-8.850939E-2,-1.6495219E-2,-5.8438852E-3,-6.584158E-2,4.3292686E-2,-2.9256536E-2,-9.389788E-3,4.5524452E-2],"split_indices":[57,24,117,127,0,46,138,93,83,0,25,220,115,47,132,25,51,0,0,117,0,0,0,271,120,0,0,129,77,0,6,0,0,0,0,0,0,0,0,0,0,0,0],"split_type":[0,0,0,0,0,0,0,0,0,0,0,0,0,0,0,0,0,0,0,0,0,0,0,0,0,0,0,0,0,0,0,0,0,0,0,0,0,0,0,0,0,0,0],"sum_hessian":[2.270315E2,1.754745E2,5.1557E1,1.695165E2,5.958E0,1.7012E1,3.4545E1,5.8908E1,1.106085E2,6E0,1.1012E1,2.05805E1,1.39645E1,4.5734E1,1.3174E1,3.8708E1,7.19005E1,5.973E0,5.039E0,1.1573E1,9.0075E0,8.9645E0,5E0,2.4683E1,2.1051E1,7.714E0,5.46E0,1.90245E1,1.96835E1,5.1E0,6.68005E1,5.461E0,6.112E0,1.5875E1,8.808E0,1.51265E1,5.9245E0,5.533E0,1.34915E1,1.0622E1,9.0615E0,4.3302E1,2.34985E1],"tree_param":{"num_deleted":"0","num_feature":"291","num_nodes":"43","size_leaf_vector":"1"}},{"base_weights":[9.704763E-2,-8.285693E-2,8.7733954E-1,-1.6731635E-2,-8.2016915E-2,1.3481958E0,-4.080268E-1,4.2694554E-1,-2.0499468E-1,7.499234E-1,2.2993925E0,1.8208925E-2,-6.340709E-2,-3.5617713E-2,6.9792926E-1,-4.850517E-1,4.118599E-1,1.1974608E0,-1.8754488E-2,6.928402E-2,1.369902E-1,1.4637227E0,2.9113936E-1,-6.827097E-1,2.3448701E-1,6.9038175E-2,6.072547E-2,1.7040303E-2,7.856836E-2,1.05915464E-1,1.9099561E-2,8.3108716E-2,-5.5811754E-3,-8.224344E-3,-4.7004096E-2,-1.0594159E-2,5.132224E-2,1.811801E-2,-4.1141633E-2],"categories":[],"categories_nodes":[],"categories_segments":[],"categories_sizes":[],"default_left":[0,0,0,0,0,0,0,0,0,0,0,0,0,0,0,0,0,0,0,0,0,0,0,0,0,0,0,0,0,0,0,0,0,0,0,0,0,0,0],"id":12,"left_children":[1,3,5,7,-1,9,11,13,15,17,19,-1,-1,-1,21,23,25,27,-1,-1,-1,29,31,33,35,-1,37,-1,-1,-1,-1,-1,-1,-1,-1,-1,-1,-1,-1],"loss_changes":[3.2982853E1,1.9463724E1,2.7279663E1,1.5448055E1,0E0,1.6465351E1,8.861185E0,1.7485388E1,2.2687973E1,1.1356079E1,6.1987305E-1,0E0,0E0,0E0,1.3426758E1,1.3014826E1,1.3742103E1,4.296652E0,0E0,0E0,0E0,9.766735E0,1.7317211E1,9.207821E0,7.385153E0,0E0,8.583674E0,0E0,0E0,0E0,0E0,0E0,0E0,0E0,0E0,0E0,0E0,0E0,0E0],"parents":[2147483647,0,0,1,1,2,2,3,3,5,5,6,6,7,7,8,8,9,9,10,10,14,14,15,15,16,16,17,17,21,21,22,22,23,23,24,24,26,26],"right_children":[2,4,6,8,-1,10,12,14,16,18,20,-1,-1,-1,22,24,26,28,-1,-1,-1,30,32,34,36,-1,38,-1,-1,-1,-1,-1,-1,-1,-1,-1,-1,-1,-1],"split_conditions":[1.9E1,6.5214634E0,3E1,5E0,-8.2016915E-2,9.893E-1,8.874E-1,2.2950819E-1,3E0,9.134E-1,1.8292683E-1,1.8208925E-2,-6.340709E-2,-3.5617713E-2,2.439088E-2,1.0063254E1,-3E0,5.953494E-1,-1.8754488E-2,6.928402E-2,1.369902E-1,4.2293115E0,2.6004045E0,5.670103E-1,6.2E1,6.9038175E-2,2.8286853E-1,1.7040303E-2,7.856836E-2,1.05915464E-1,1.9099561E-2,8.3108716E-2,-5.5811754E-3,-8.224344E-3,-4.7004096E-2,-1.0594159E-2,5.132224E-2,1.811801E-2,-4.1141633E-2],"split_indices":[57,69,95,48,0,115,115,93,111,115,96,0,0,0,94,127,173,25,0,0,0,71,55,221,92,0,96,0,0,0,0,0,0,0,0,0,0,0,0],"split_type":[0,0,0,0,0,0,0,0,0,0,0,0,0,0,0,0,0,0,0,0,0,0,0,0,0,0,0,0,0,0,0,0,0,0,0,0,0,0,0],"sum_hessian":[2.328735E2,1.89864E2,4.30095E1,1.831625E2,6.7015E0,3.14995E1,1.151E1,5.40305E1,1.29132E2,2.04995E1,1.1E1,6.3075E0,5.2025E0,9.998E0,4.40325E1,8.90695E1,4.00625E1,1.4683E1,5.8165E0,5E0,6E0,1.42890005E1,2.97435E1,7.0024E1,1.90455E1,9.801E0,3.02615E1,5.1235E0,9.5595E0,8.2475E0,6.0415E0,6.1E0,2.36435E1,2.39095E1,4.61145E1,1.2568E1,6.4775E0,2.3084E1,7.1775002E0],"tree_param":{"num_deleted":"0","num_feature":"291","num_nodes":"39","size_leaf_vector":"1"}},{"base_weights":[6.510036E-2,-1.1398011E-1,5.628852E-1,-2.2802365E-1,1.0478811E0,-2.2064885E-1,1.1176803E0,1.5360367E-1,-5.626058E-1,2.2719002E-3,8.4404446E-2,4.8788828E-1,-1.0868006E0,1.6974666E0,2.901902E-1,-1.626527E-1,1.3259939E0,-1.8191701E-1,-1.093639E0,5.434229E-2,-7.874903E-3,-8.505993E-2,-1.5411921E-2,2.9848952E-2,2.206974E0,-1.30165415E-2,6.1656874E-2,-5.7881784E-2,5.446391E-2,-9.5933286E-4,1.3252127E-1,5.263263E-1,-5.554871E-1,-6.281008E-1,-1.0125061E-1,1.318452E-1,6.570801E-2,2.304197E-2,-3.7913676E-2,5.6441646E-2,-4.0773243E-2,-3.6443133E-2,6.896255E-3,-4.1539553E-3,-5.903038E-2],"categories":[],"categories_nodes":[],"categories_segments":[],"categories_sizes":[],"default_left":[0,0,0,0,0,0,0,0,0,0,0,0,0,0,0,0,0,0,0,0,0,0,0,0,0,0,0,0,0,0,0,0,0,0,0,0,0,0,0,0,0,0,0,0,0],"id":13,"left_children":[1,3,5,7,9,11,13,15,17,-1,-1,19,21,23,25,27,29,31,33,-1,-1,-1,-1,-1,35,-1,-1,-1,37,-1,-1,39,41,43,-1,-1,-1,-1,-1,-1,-1,-1,-1,-1,-1],"loss_changes":[2.0661093E1,2.2713764E1,2.6989347E1,2.0036072E1,9.579641E0,1.6655277E1,1.6645527E1,2.7578474E1,1.6540577E1,0E0,0E0,6.0723524E0,5.087556E0,1.0160664E1,8.809754E0,1.2853523E1,2.844187E1,1.3499338E1,1.34342E1,0E0,0E0,0E0,0E0,0E0,1.4756317E0,0E0,0E0,0E0,1.6521582E1,0E0,0E0,1.522443E1,4.1571407E0,7.166134E0,0E0,0E0,0E0,0E0,0E0,0E0,0E0,0E0,0E0,0E0,0E0],"parents":[2147483647,0,0,1,1,2,2,3,3,4,4,5,5,6,6,7,7,8,8,11,11,12,12,13,13,14,14,15,15,16,16,17,17,18,18,24,24,28,28,31,31,32,32,33,33],"right_children":[2,4,6,8,10,12,14,16,18,-1,-1,20,22,24,26,28,30,32,34,-1,-1,-1,-1,-1,36,-1,-1,-1,38,-1,-1,40,42,44,-1,-1,-1,-1,-1,-1,-1,-1,-1,-1,-1],"split_conditions":[6.105684E-1,3.5E1,5.9580555E0,3.856358E-1,9.841678E-3,8.067769E0,1.6E1,5.3E1,4E1,2.2719002E-3,8.4404446E-2,7.4189234E-1,1.48E2,1E0,1.3344444E2,-3.2107693E-1,1.0697674E-2,-2.7943082E-2,3.9958138E-2,5.434229E-2,-7.874903E-3,-8.505993E-2,-1.5411921E-2,2.9848952E-2,4.1414142E-1,-1.30165415E-2,6.1656874E-2,-5.7881784E-2,1.5534734E0,-9.5933286E-4,1.3252127E-1,3.6E1,1.0196E2,2.52E2,-1.0125061E-1,1.318452E-1,6.570801E-2,2.304197E-2,-3.7913676E-2,5.6441646E-2,-4.0773243E-2,-3.6443133E-2,6.896255E-3,-4.1539553E-3,-5.903038E-2],"split_indices":[25,126,127,223,172,54,90,24,131,0,0,19,6,111,6,94,155,73,175,0,0,0,0,0,93,0,0,0,226,0,0,139,264,129,0,0,0,0,0,0,0,0,0,0,0],"split_type":[0,0,0,0,0,0,0,0,0,0,0,0,0,0,0,0,0,0,0,0,0,0,0,0,0,0,0,0,0,0,0,0,0,0,0,0,0,0,0,0,0,0,0,0,0],"sum_hessian":[2.2955E2,1.692365E2,6.03135E1,1.5492E2,1.43165E1,2.51775E1,3.5136E1,7.2485E1,8.2435E1,6.058E0,8.2585E0,1.40255E1,1.1152E1,1.9971E1,1.5165E1,5.7697E1,1.4788E1,4.8906E1,3.3529E1,7E0,7.0255E0,5.499E0,5.653E0,7.0695E0,1.29015E1,9.965E0,5.2E0,9.6414995E0,4.80555E1,7.788E0,7E0,1.66545E1,3.22515E1,2.3543E1,9.986E0,7.314E0,5.5875E0,3.24075E1,1.5648E1,1.16545E1,5E0,2.5875E1,6.3765E0,1.2522E1,1.1021E1],"tree_param":{"num_deleted":"0","num_feature":"291","num_nodes":"45","size_leaf_vector":"1"}},{"base_weights":[-1.7992618E-2,3.800665E-1,-3.8513765E-1,-6.422363E-1,5.6698096E-1,-5.910452E-1,5.279292E-1,1.2070111E-2,-5.824394E-2,-5.843777E-3,8.289904E-1,-2.2235408E-1,-1.1912035E0,1.3183882E0,-2.8707549E-2,4.2693414E-2,-3.378604E-1,6.2217798E-2,1.254408E0,-6.445246E-2,-2.3004258E-2,-4.1837052E-1,-1.6356195E0,1.1794569E-1,2.7929312E-3,-6.232982E-1,2.4883945E-2,6.4031266E-2,-4.3335068E-1,2.8081596E-1,2.0992842E0,-1.8174188E-1,4.5548916E-2,-4.825085E-2,1.9755239E-2,-5.4359026E-2,-9.8238E-2,-1.6311316E-2,-4.9328223E-2,-2.392098E-3,-5.3882923E-2,-9.669893E-3,6.5704726E-2,1.8273806E-2,1.3290212E-1,-2.3247736E-2,2.563051E-2],"categories":[],"categories_nodes":[],"categories_segments":[],"categories_sizes":[],"default_left":[0,0,0,0,0,0,0,0,0,0,0,0,0,0,0,0,0,0,0,0,0,0,0,0,0,0,0,0,0,0,0,0,0,0,0,0,0,0,0,0,0,0,0,0,0,0,0],"id":14,"left_children":[1,3,5,7,9,11,13,-1,-1,15,17,19,21,23,-1,-1,25,27,29,-1,31,33,35,-1,-1,37,-1,-1,39,41,43,45,-1,-1,-1,-1,-1,-1,-1,-1,-1,-1,-1,-1,-1,-1,-1],"loss_changes":[3.2115467E1,2.0482727E1,2.1829859E1,8.070826E0,1.3543753E1,2.0376842E1,1.9555422E1,0E0,0E0,8.518177E0,1.9899456E1,1.2494738E1,1.1272202E1,1.6537289E1,0E0,0E0,5.50525E0,1.4608097E1,3.1674477E1,0E0,7.6895366E0,6.8212576E0,1.540165E0,0E0,0E0,1.352315E0,0E0,0E0,4.0917425E0,9.954191E0,1.9017761E1,9.028229E0,0E0,0E0,0E0,0E0,0E0,0E0,0E0,0E0,0E0,0E0,0E0,0E0,0E0,0E0,0E0],"parents":[2147483647,0,0,1,1,2,2,3,3,4,4,5,5,6,6,9,9,10,10,11,11,12,12,13,13,16,16,17,17,18,18,20,20,21,21,22,22,25,25,28,28,29,29,30,30,31,31],"right_children":[2,4,6,8,10,12,14,-1,-1,16,18,20,22,24,-1,-1,26,28,30,-1,32,34,36,-1,-1,38,-1,-1,40,42,44,46,-1,-1,-1,-1,-1,-1,-1,-1,-1,-1,-1,-1,-1,-1,-1],"split_conditions":[5.1941155E-3,5.18559E-1,1.2677644E-1,1.31E2,6.168831E-1,3.30658E-2,1.2E1,1.2070111E-2,-5.824394E-2,1.693989E-1,-3.9215688E-2,1.0511425E-1,3.383326E-1,1.7891047E1,-2.8707549E-2,4.2693414E-2,6.0661495E-1,1.8120806E-1,1.4824478E1,-6.445246E-2,7.7746814E-1,7.6656885E-2,1.8430313E-1,1.1794569E-1,2.7929312E-3,3.7139863E-1,2.4883945E-2,6.4031266E-2,7.733333E-1,8.593034E0,6.571429E-1,1.807564E1,4.5548916E-2,-4.825085E-2,1.9755239E-2,-5.4359026E-2,-9.8238E-2,-1.6311316E-2,-4.9328223E-2,-2.392098E-3,-5.3882923E-2,-9.669893E-3,6.5704726E-2,1.8273806E-2,1.3290212E-1,-2.3247736E-2,2.563051E-2],"split_indices":[175,221,225,129,118,73,173,0,0,96,135,60,121,54,0,0,25,96,140,0,60,73,224,0,0,121,0,0,88,58,88,54,0,0,0,0,0,0,0,0,0,0,0,0,0,0,0],"split_type":[0,0,0,0,0,0,0,0,0,0,0,0,0,0,0,0,0,0,0,0,0,0,0,0,0,0,0,0,0,0,0,0,0,0,0,0,0,0,0,0,0,0,0,0,0,0,0],"sum_hessian":[2.17745E2,1.043265E2,1.134185E2,1.5667E1,8.86595E1,9.2925E1,2.04935E1,5.9515E0,9.7155E0,2.80125E1,6.0647E1,5.8515E1,3.441E1,1.18725E1,8.621E0,7.2825E0,2.073E1,2.2134E1,3.8513E1,8.274E0,5.0241E1,1.3354E1,2.1056E1,5.989E0,5.8835E0,1.573E1,5E0,6E0,1.6134E1,1.85675E1,1.99455E1,4.37225E1,6.5185E0,7.949E0,5.405E0,9.625E0,1.1431E1,9.849E0,5.881E0,1.08635E1,5.2705E0,1.32175E1,5.35E0,5.308E0,1.46375E1,3.13925E1,1.233E1],"tree_param":{"num_deleted":"0","num_feature":"291","num_nodes":"47","size_leaf_vector":"1"}},{"base_weights":[6.798585E-2,-8.5296154E-2,5.8515906E-1,-1.0076858E0,3.712809E-2,9.064784E-1,-6.503865E-1,-1.79625E0,1.5611916E-2,2.2753713E-1,-4.9591506E-1,1.3012017E0,2.1689732E-1,-7.010733E-2,7.61605E-3,-5.4642003E-2,-1.0801574E-1,-1.6286589E-1,6.23603E-1,2.3179035E-1,-8.314103E-1,9.46542E-2,6.8741995E-1,-1.7605203E-1,4.796896E-2,3.98569E-2,-3.563436E-1,1.1647458E0,5.6907084E-2,-2.157999E-2,3.8437575E-2,-3.4824005E-1,-7.507091E-2,-2.1369688E-3,6.0442753E-2,-2.2939427E-2,4.281129E-3,-2.7040133E-2,2.6448801E-2,1.0181482E-1,3.3257958E-2,-1.9179834E-2,5.1186915E-2,1.6793616E-2,-4.4913147E-2],"categories":[],"categories_nodes":[],"categories_segments":[],"categories_sizes":[],"default_left":[0,0,0,0,0,0,0,0,0,0,0,0,0,0,0,0,0,0,0,0,0,0,0,0,0,0,0,0,0,0,0,0,0,0,0,0,0,0,0,0,0,0,0,0,0],"id":15,"left_children":[1,3,5,7,9,11,13,15,-1,17,19,21,23,-1,-1,-1,-1,25,27,29,31,-1,33,35,-1,-1,37,39,41,-1,-1,43,-1,-1,-1,-1,-1,-1,-1,-1,-1,-1,-1,-1,-1],"loss_changes":[1.8554218E1,2.0493895E1,2.1854322E1,2.2834503E1,1.6329254E1,1.1253693E1,7.3140626E0,7.716179E-1,0E0,1.8507923E1,1.0579259E1,8.254971E0,5.184796E0,0E0,0E0,0E0,0E0,1.1470427E1,1.7989637E1,5.364982E0,8.765266E0,0E0,5.8470654E0,9.5136034E-1,0E0,0E0,8.632071E0,1.1516438E1,1.3274598E1,0E0,0E0,7.277871E0,0E0,0E0,0E0,0E0,0E0,0E0,0E0,0E0,0E0,0E0,0E0,0E0,0E0],"parents":[2147483647,0,0,1,1,2,2,3,3,4,4,5,5,6,6,7,7,9,9,10,10,11,11,12,12,17,17,18,18,19,19,20,20,22,22,23,23,26,26,27,27,28,28,31,31],"right_children":[2,4,6,8,10,12,14,16,-1,18,20,22,24,-1,-1,-1,-1,26,28,30,32,-1,34,36,-1,-1,38,40,42,-1,-1,44,-1,-1,-1,-1,-1,-1,-1,-1,-1,-1,-1,-1,-1],"split_conditions":[1.7E1,5.963409E-1,1.5E1,3.8666666E-1,2.857143E-1,-2.2472482E-2,8.75E-1,1.0663289E-1,1.5611916E-2,1.6949153E-2,4.0126804E-1,6.1E1,4.347826E-1,-7.010733E-2,7.61605E-3,-5.4642003E-2,-1.0801574E-1,5.17094E-1,2.2617573E-2,5.358398E-1,5E0,9.46542E-2,1.9E1,6.7164177E-1,4.796896E-2,3.98569E-2,9.6E1,3.1659248E-1,8.5E1,-2.157999E-2,3.8437575E-2,3.4874442E-1,-7.507091E-2,-2.1369688E-3,6.0442753E-2,-2.2939427E-2,4.281129E-3,-2.7040133E-2,2.6448801E-2,1.0181482E-1,3.3257958E-2,-1.9179834E-2,5.1186915E-2,1.6793616E-2,-4.4913147E-2],"split_indices":[57,7,47,84,84,73,52,26,0,83,223,117,50,0,0,0,0,19,77,221,47,0,90,7,0,0,53,121,252,0,0,121,0,0,0,0,0,0,0,0,0,0,0,0,0],"split_type":[0,0,0,0,0,0,0,0,0,0,0,0,0,0,0,0,0,0,0,0,0,0,0,0,0,0,0,0,0,0,0,0,0,0,0,0,0,0,0,0,0,0,0,0,0],"sum_hessian":[2.317935E2,1.79295E2,5.24985E1,2.0257E1,1.59038E2,4.1939E1,1.05595E1,1.25025E1,7.7545E0,1.177405E2,4.12975E1,2.60155E1,1.59235E1,5.1315002E0,5.428E0,5.7225E0,6.7799997E0,5.94635E1,5.8277E1,1.3035E1,2.82625E1,1.21E1,1.39155E1,1.08235E1,5.1E0,9.364E0,5.00995E1,2.91805E1,2.90965E1,5.8355002E0,7.1995E0,1.73905E1,1.0872E1,6.1E0,7.8155003E0,5.024E0,5.7995E0,4.18765E1,8.223E0,9.4385E0,1.9742E1,2.03325E1,8.764E0,7.843E0,9.5475E0],"tree_param":{"num_deleted":"0","num_feature":"291","num_nodes":"45","size_leaf_vector":"1"}},{"base_weights":[-8.049613E-3,9.001902E-1,-9.7787485E-2,-1.5798023E-2,1.5426254E0,-8.3149105E-1,4.6115983E-2,1.8815065E-2,1.20803E-1,-5.560825E-1,-7.914691E-2,4.8746148E-1,-2.6730055E-1,-8.078608E-1,-2.2262851E-4,9.58413E-1,-1.8951224E-1,-5.9410155E-1,4.1455913E-1,-1.1064953E-2,-5.7288308E-2,1.550865E0,4.0260074E-1,1.5298001E-1,-6.821697E-2,1.7324533E-1,-8.476674E-1,-3.0278852E-2,6.9207376E-1,3.4045584E-2,1.09588385E-1,-3.6333182E-3,6.1635215E-2,6.4670645E-2,-1.124666E-2,-2.542301E-2,6.2443417E-2,-4.484399E-3,-6.0742617E-2,-2.510649E-3,5.2578628E-2],"categories":[],"categories_nodes":[],"categories_segments":[],"categories_sizes":[],"default_left":[0,0,0,0,0,0,0,0,0,0,0,0,0,0,0,0,0,0,0,0,0,0,0,0,0,0,0,0,0,0,0,0,0,0,0,0,0,0,0,0,0],"id":16,"left_children":[1,3,5,-1,7,9,11,-1,-1,13,-1,15,17,19,-1,21,23,25,27,-1,-1,29,31,33,-1,35,37,-1,39,-1,-1,-1,-1,-1,-1,-1,-1,-1,-1,-1,-1],"loss_changes":[1.80871E1,1.6192284E1,2.15373E1,0E0,1.2333927E1,5.824978E0,2.3729181E1,0E0,0E0,3.5408554E0,0E0,2.29792E1,2.2587818E1,3.136548E0,0E0,1.3102581E1,1.2394893E1,1.3490593E1,9.755423E0,0E0,0E0,9.386772E0,9.378982E0,1.07629595E1,0E0,1.3672678E1,1.4108887E1,0E0,7.2099533E0,0E0,0E0,0E0,0E0,0E0,0E0,0E0,0E0,0E0,0E0,0E0,0E0],"parents":[2147483647,0,0,1,1,2,2,4,4,5,5,6,6,9,9,11,11,12,12,13,13,15,15,16,16,17,17,18,18,21,21,22,22,23,23,25,25,26,26,28,28],"right_children":[2,4,6,-1,8,10,12,-1,-1,14,-1,16,18,20,-1,22,24,26,28,-1,-1,30,32,34,-1,36,38,-1,40,-1,-1,-1,-1,-1,-1,-1,-1,-1,-1,-1,-1],"split_conditions":[-1.7290312E-1,-1.285002E-1,1.0511425E-1,-1.5798023E-2,1.646865E-1,3.9958138E-2,3.7254903E-1,1.8815065E-2,1.20803E-1,1.7905349E-1,-7.914691E-2,3.859649E-1,1.0894377E1,3.6842105E-1,-2.2262851E-4,1.3676936E1,7.1E1,8E0,3.250067E-1,-1.1064953E-2,-5.7288308E-2,3.8272086E-1,2E0,1.993007E-1,-6.821697E-2,6.8558483E0,1.3143483E1,-3.0278852E-2,-1E0,3.4045584E-2,1.09588385E-1,-3.6333182E-3,6.1635215E-2,6.4670645E-2,-1.124666E-2,-2.542301E-2,6.2443417E-2,-4.484399E-3,-6.0742617E-2,-2.510649E-3,5.2578628E-2],"split_indices":[119,265,60,0,26,77,51,0,0,26,0,93,58,134,0,54,87,131,226,0,0,89,111,96,0,127,140,0,173,0,0,0,0,0,0,0,0,0,0,0,0],"split_type":[0,0,0,0,0,0,0,0,0,0,0,0,0,0,0,0,0,0,0,0,0,0,0,0,0,0,0,0,0,0,0,0,0,0,0,0,0,0,0,0,0],"sum_hessian":[2.208225E2,1.8944E1,2.018785E2,6.67E0,1.2274E1,3.2433E1,1.694455E2,5.9175E0,6.3565E0,2.5105E1,7.328E0,7.02645E1,9.9181E1,1.6794E1,8.311E0,4.12795E1,2.8985E1,6.7233E1,3.1948E1,6.8515E0,9.9425E0,1.90275E1,2.2252E1,2.305E1,5.935E0,1.66795E1,5.05535E1,6.5025E0,2.54455E1,9.0125E0,1.0015E1,1.4654E1,7.598E0,5.2E0,1.785E1,1.0475E1,6.2045E0,1.69925E1,3.3561E1,8.4925E0,1.6953E1],"tree_param":{"num_deleted":"0","num_feature":"291","num_nodes":"41","size_leaf_vector":"1"}},{"base_weights":[-2.0490509E-2,-1.5490656E-1,5.6604356E-1,-2.4836119E-1,8.139156E-1,1.0687782E0,7.349702E-4,-1.0162467E0,-1.3797817E-1,1.7186847E-3,6.904929E-2,9.119829E-2,3.7102914E-1,-3.656181E-2,6.265353E-1,-5.9705466E-1,-8.33371E-2,1.7444137E-1,-4.6764353E-1,4.0386032E-2,-8.0800885E-3,3.5130978E-3,5.611766E-2,-3.1544466E-3,-5.5333354E-2,7.4784976E-1,-3.146484E-1,3.7056798E-1,-6.955311E-1,5.252835E-2,-3.7937112E-2,1.9598272E-2,-5.122869E-2,-2.6882244E-2,4.4224955E-2,-2.6641015E-2,-9.068181E-2],"categories":[],"categories_nodes":[],"categories_segments":[],"categories_sizes":[],"default_left":[0,0,0,0,0,0,0,0,0,0,0,0,0,0,0,0,0,0,0,0,0,0,0,0,0,0,0,0,0,0,0,0,0,0,0,0,0],"id":17,"left_children":[1,3,5,7,9,11,13,15,17,-1,-1,-1,19,-1,21,23,-1,25,27,-1,-1,-1,-1,-1,-1,29,31,33,35,-1,-1,-1,-1,-1,-1,-1,-1],"loss_changes":[1.743141E1,1.6471972E1,1.15980425E1,1.3756878E1,6.885421E0,1.054159E1,9.829819E0,4.370247E0,1.512849E1,0E0,0E0,0E0,3.1273546E0,0E0,3.0161738E0,3.6560225E0,0E0,2.1434517E1,1.392405E1,0E0,0E0,0E0,0E0,0E0,0E0,1.684124E1,2.1193256E1,7.8922563E0,9.088661E0,0E0,0E0,0E0,0E0,0E0,0E0,0E0,0E0],"parents":[2147483647,0,0,1,1,2,2,3,3,4,4,5,5,6,6,7,7,8,8,12,12,14,14,15,15,17,17,18,18,25,25,26,26,27,27,28,28],"right_children":[2,4,6,8,10,12,14,16,18,-1,-1,-1,20,-1,22,24,-1,26,28,-1,-1,-1,-1,-1,-1,30,32,34,36,-1,-1,-1,-1,-1,-1,-1,-1],"split_conditions":[1.0695789E1,3.4E1,-1.6749896E-2,6.133779E-1,9.841678E-3,2.202166E-1,7.8327876E-1,1.0878575E0,1.8506666E1,1.7186847E-3,6.904929E-2,9.119829E-2,6.057692E-1,-3.656181E-2,6E0,2.646154E-1,-8.33371E-2,2.248062E-1,1.3E1,4.0386032E-2,-8.0800885E-3,3.5130978E-3,5.611766E-2,-3.1544466E-3,-5.5333354E-2,2.2410358E1,5.4543895E-1,2.2760303E0,1.8584628E0,5.252835E-2,-3.7937112E-2,1.9598272E-2,-5.122869E-2,-2.6882244E-2,4.4224955E-2,-2.6641015E-2,-9.068181E-2],"split_indices":[58,126,73,7,172,96,60,226,264,0,0,0,88,0,126,96,0,96,137,0,0,0,0,0,0,140,221,71,67,0,0,0,0,0,0,0,0],"split_type":[0,0,0,0,0,0,0,0,0,0,0,0,0,0,0,0,0,0,0,0,0,0,0,0,0,0,0,0,0,0,0,0,0,0,0,0,0],"sum_hessian":[2.19509E2,1.793205E2,4.01885E1,1.64317E2,1.50035E1,2.07065E1,1.9482E1,1.95065E1,1.448105E2,6.839E0,8.1645E0,9.1E0,1.16065E1,8.828E0,1.0654E1,1.3122E1,6.3845E0,7.4436E1,7.03745E1,6.197E0,5.4095E0,5.654E0,5E0,7.0525002E0,6.0695E0,3.4115E1,4.0321E1,1.48155E1,5.5559E1,2.87145E1,5.4005E0,2.03615E1,1.99595E1,5.267E0,9.5485E0,4.9868E1,5.691E0],"tree_param":{"num_deleted":"0","num_feature":"291","num_nodes":"37","size_leaf_vector":"1"}},{"base_weights":[-7.589458E-3,-1.4951949E-1,4.8146728E-1,-2.3131551E-1,7.667978E-1,1.0004637E0,-2.3993143E-1,-4.5688618E-2,-6.9669926E-1,6.3100754E-4,6.9269285E-2,1.339428E0,7.7241226E-3,2.661034E-1,-6.40287E-2,-2.6824042E-1,5.549462E-1,-1.1615118E0,-1.6417712E-1,8.760555E-2,2.8417705E-2,3.3852354E-2,-2.0462466E-2,-3.809053E-1,6.647731E-2,1.5886399E0,-0E0,-9.156239E-1,-8.977653E-2,-5.0926566E-1,3.0202309E-2,-2.7095417E-2,2.8885547E-2,3.725038E-2,1.13408364E-1,2.8560115E-2,-3.049452E-2,-3.4722682E-2,-6.1117936E-2,-4.313485E-2,3.5469874E-3],"categories":[],"categories_nodes":[],"categories_segments":[],"categories_sizes":[],"default_left":[0,0,0,0,0,0,0,0,0,0,0,0,0,0,0,0,0,0,0,0,0,0,0,0,0,0,0,0,0,0,0,0,0,0,0,0,0,0,0,0,0],"id":18,"left_children":[1,3,5,7,9,11,13,15,17,-1,-1,19,-1,21,-1,23,25,27,29,-1,-1,-1,-1,31,-1,33,35,37,-1,39,-1,-1,-1,-1,-1,-1,-1,-1,-1,-1,-1],"loss_changes":[1.6730188E1,1.4162241E1,2.0596775E1,1.482346E1,7.06499E0,8.7561245E0,1.2759681E1,1.679802E1,1.1818607E1,0E0,0E0,5.923088E0,0E0,4.8834147E0,0E0,1.6942472E1,1.9416676E1,2.1268082E0,6.6941996E0,0E0,0E0,0E0,0E0,1.3678121E1,0E0,4.7932606E0,8.394861E0,3.729782E-1,0E0,3.6839614E0,0E0,0E0,0E0,0E0,0E0,0E0,0E0,0E0,0E0,0E0,0E0],"parents":[2147483647,0,0,1,1,2,2,3,3,4,4,5,5,6,6,7,7,8,8,11,11,13,13,15,15,16,16,17,17,18,18,23,23,25,25,26,26,27,27,29,29],"right_children":[2,4,6,8,10,12,14,16,18,-1,-1,20,-1,22,-1,24,26,28,30,-1,-1,-1,-1,32,-1,34,36,38,-1,40,-1,-1,-1,-1,-1,-1,-1,-1,-1,-1,-1],"split_conditions":[1.7E1,3.5E1,1.8E1,4.928E1,9.841678E-3,1.0918936E-1,6E0,4.570948E0,5.8343595E-1,6.3100754E-4,6.9269285E-2,1E1,7.7241226E-3,-2.1012118E-2,-6.40287E-2,8.8372093E-1,-1.55E1,2.3457897E0,6.133696E-1,8.760555E-2,2.8417705E-2,3.3852354E-2,-2.0462466E-2,-1.7153493E0,6.647731E-2,-2.1935483E-2,1.6804186E0,4.4699553E-2,-8.977653E-2,2.6666668E-1,3.0202309E-2,-2.7095417E-2,2.8885547E-2,3.725038E-2,1.13408364E-1,2.8560115E-2,-3.049452E-2,-3.4722682E-2,-6.1117936E-2,-4.313485E-2,3.5469874E-3],"split_indices":[57,126,114,264,172,225,111,71,89,0,0,47,0,135,0,88,270,68,136,0,0,0,0,75,0,172,68,271,0,50,0,0,0,0,0,0,0,0,0,0,0],"split_type":[0,0,0,0,0,0,0,0,0,0,0,0,0,0,0,0,0,0,0,0,0,0,0,0,0,0,0,0,0,0,0,0,0,0,0,0,0,0,0,0,0],"sum_hessian":[2.39469E2,1.86301E2,5.3168E1,1.7182E2,1.4481E1,3.07775E1,2.23905E1,1.237665E2,4.80535E1,7.058E0,7.423E0,2.14725E1,9.305E0,1.5501E1,6.8895E0,9.0831E1,3.29355E1,2.4927E1,2.31265E1,1.30735E1,8.399E0,9.7275E0,5.7735E0,8.5618004E1,5.213E0,1.08345E1,2.2101E1,1.9836E1,5.091E0,1.62805E1,6.846E0,7.37675E1,1.18505E1,5.8345E0,5E0,1.1472E1,1.0629E1,1.36115E1,6.2245E0,9.922E0,6.3585E0],"tree_param":{"num_deleted":"0","num_feature":"291","num_nodes":"41","size_leaf_vector":"1"}},{"base_weights":[-8.934485E-2,-6.303851E-1,8.220529E-2,-7.805418E-1,2.4585033E-2,3.4173384E-1,-2.853355E-1,8.31909E-3,-9.1614616E-1,9.2192984E-1,1.0491445E-2,4.3262467E-1,-6.393396E-1,-1.1057876E0,-3.153954E-1,3.884611E-1,1.8437343E0,-8.29753E-1,2.6352757E-1,8.7930954E-1,-1.8870519E-1,-8.771622E-1,-8.495171E-2,-1.5043588E0,-7.2036177E-1,-3.503208E-2,8.600617E-3,-2.8507397E-2,6.631805E-1,4.293732E-2,1.4098205E-1,-6.819168E-2,-3.5096053E-4,-3.4009106E-2,1.1017895E0,7.16063E-2,1.5201445E-2,2.1491246E-3,-2.033315E-2,1.000097E-3,-1.1141095E0,-3.2116443E-2,1.8016433E-2,-9.375341E-2,-5.020962E-2,-1.1680822E-2,-5.334128E-2,1.2553952E-2,6.811188E-2,-1.2197984E-2,5.682726E-2,9.176641E-2,1.9633232E-2,-2.0808782E-2,-7.301459E-2],"categories":[],"categories_nodes":[],"categories_segments":[],"categories_sizes":[],"default_left":[0,0,0,0,0,0,0,0,0,0,0,0,0,0,0,0,0,0,0,0,0,0,0,0,0,0,0,0,0,0,0,0,0,0,0,0,0,0,0,0,0,0,0,0,0,0,0,0,0,0,0,0,0,0,0],"id":19,"left_children":[1,3,5,7,-1,9,11,-1,13,15,17,19,21,23,25,27,29,31,33,35,37,39,41,43,45,-1,-1,-1,47,-1,-1,-1,-1,49,51,-1,-1,-1,-1,-1,53,-1,-1,-1,-1,-1,-1,-1,-1,-1,-1,-1,-1,-1,-1],"loss_changes":[2.156457E1,9.833298E0,1.6917694E1,6.6193104E0,0E0,1.9871788E1,1.8937931E1,0E0,4.497883E0,1.7575832E1,1.4467226E1,7.0967174E0,6.371273E0,3.7259674E0,2.432654E0,7.0198445E0,1.0155563E1,6.7616844E0,1.3253679E1,4.0511494E0,6.1286193E-1,7.4634933E0,4.2626915E0,6.210518E-1,2.7742052E0,0E0,0E0,0E0,5.292425E0,0E0,0E0,0E0,0E0,9.938236E0,6.280138E0,0E0,0E0,0E0,0E0,0E0,5.822258E0,0E0,0E0,0E0,0E0,0E0,0E0,0E0,0E0,0E0,0E0,0E0,0E0,0E0,0E0],"parents":[2147483647,0,0,1,1,2,2,3,3,5,5,6,6,8,8,9,9,10,10,11,11,12,12,13,13,14,14,15,15,16,16,17,17,18,18,19,19,20,20,21,21,22,22,23,23,24,24,28,28,33,33,34,34,40,40],"right_children":[2,4,6,8,-1,10,12,-1,14,16,18,20,22,24,26,28,30,32,34,36,38,40,42,44,46,-1,-1,-1,48,-1,-1,-1,-1,50,52,-1,-1,-1,-1,-1,54,-1,-1,-1,-1,-1,-1,-1,-1,-1,-1,-1,-1,-1,-1],"split_conditions":[5.9905994E-1,1.3073148E-1,2.857143E-1,-4.7391858E-2,2.4585033E-2,-2.7943082E-2,2.2777779E1,8.31909E-3,2.4780355E1,5.4378575E-1,6.0606062E-2,2.5866666E-1,1.1109054E1,3.5E1,2.04E2,1.4492754E-2,3.4098035E-1,4E0,2.2419977E1,8E0,7.700889E1,3.7142858E-1,3.4042552E-1,1.8484288E0,2.1409318E0,-3.503208E-2,8.600617E-3,-2.8507397E-2,3.3519363E-1,4.293732E-2,1.4098205E-1,-6.819168E-2,-3.5096053E-4,4.7126436E-1,2.2192287E-1,7.16063E-2,1.5201445E-2,2.1491246E-3,-2.033315E-2,1.000097E-3,1.4036182E1,-3.2116443E-2,1.8016433E-2,-9.375341E-2,-5.020962E-2,-1.1680822E-2,-5.334128E-2,1.2553952E-2,6.811188E-2,-1.2197984E-2,5.682726E-2,9.176641E-2,1.9633232E-2,-2.0808782E-2,-7.301459E-2],"split_indices":[19,225,84,253,0,73,24,0,140,89,84,96,58,53,129,83,121,45,140,126,18,51,50,128,70,0,0,0,89,0,0,0,0,93,60,0,0,0,0,0,140,0,0,0,0,0,0,0,0,0,0,0,0,0,0],"split_type":[0,0,0,0,0,0,0,0,0,0,0,0,0,0,0,0,0,0,0,0,0,0,0,0,0,0,0,0,0,0,0,0,0,0,0,0,0,0,0,0,0,0,0,0,0,0,0,0,0,0,0,0,0,0,0],"sum_hessian":[2.30189E2,5.49125E1,1.752765E2,4.87785E1,6.134E0,1.029345E2,7.2342E1,5.9895E0,4.2789E1,3.66515E1,6.6283E1,2.37235E1,4.86185E1,3.1757E1,1.1032E1,2.4185E1,1.24665E1,1.4722E1,5.1561E1,1.36535E1,1.007E1,3.3489502E1,1.5129E1,1.40575E1,1.76995E1,6.032E0,5E0,5.0665E0,1.91185E1,7.191E0,5.2755E0,8.4545E0,6.2675E0,3.8674E1,1.2887E1,6.1145E0,7.539E0,5.048E0,5.022E0,7.1E0,2.63895E1,6.622E0,8.507E0,6.38E0,7.6775E0,8.176E0,9.5234995E0,1.2973E1,6.1455E0,3.3536E1,5.138E0,5.4845E0,7.4025E0,9.5755005E0,1.6814E1],"tree_param":{"num_deleted":"0","num_feature":"291","num_nodes":"55","size_leaf_vector":"1"}},{"base_weights":[3.2379366E-2,-4.1136503E-1,2.171631E-1,3.5863902E-2,-5.632399E-1,2.8897459E-2,8.6192966E-1,-8.8803954E-2,-4.2009905E-1,2.0051578E-1,-7.410462E-1,1.1655682E0,-6.8353995E-4,-4.845572E-2,-7.787825E-1,6.472412E-1,-1.4843391E-1,-1.3327427E0,1.5480012E-2,5.583829E-1,1.9062275E0,-4.241134E-2,3.5283035E-1,-1.1219767E0,-1.7086062E-1,9.026589E-2,3.6928824E-1,9.8802485E-2,-8.602962E-1,-3.0866161E-2,-8.077481E-2,6.441197E-2,6.2218945E-2,6.1333235E-2,1.1977432E-1,-5.112243E-3,6.326493E-2,-3.3417024E-2,-7.147052E-2,-2.9356623E-2,1.5393387E-2,-2.1361297E-2,3.5830256E-2,3.0585414E-2,-1.2291354E-2,-7.3341705E-2,-1.642651E-2,3.3706263E-2,-2.669922E-2],"categories":[],"categories_nodes":[],"categories_segments":[],"categories_sizes":[],"default_left":[0,0,0,0,0,0,0,0,0,0,0,0,0,0,0,0,0,0,0,0,0,0,0,0,0,0,0,0,0,0,0,0,0,0,0,0,0,0,0,0,0,0,0,0,0,0,0,0,0],"id":20,"left_children":[1,3,5,-1,7,9,11,-1,13,15,17,19,-1,21,23,25,27,29,-1,31,33,-1,35,37,39,-1,41,43,45,-1,-1,47,-1,-1,-1,-1,-1,-1,-1,-1,-1,-1,-1,-1,-1,-1,-1,-1,-1],"loss_changes":[1.9592928E1,1.2419182E1,2.0389555E1,0E0,9.884508E0,1.7522144E1,1.0239084E1,0E0,7.5157614E0,1.7097555E1,1.5525936E1,1.142783E1,0E0,9.764308E0,5.718485E0,1.4567579E1,1.1027546E1,1.9546375E0,0E0,5.567923E0,7.7954865E-1,0E0,8.616324E0,1.3755608E0,2.5462532E0,0E0,1.1411452E1,8.427364E0,4.5388155E0,0E0,0E0,4.4070406E0,0E0,0E0,0E0,0E0,0E0,0E0,0E0,0E0,0E0,0E0,0E0,0E0,0E0,0E0,0E0,0E0,0E0],"parents":[2147483647,0,0,1,1,2,2,4,4,5,5,6,6,8,8,9,9,10,10,11,11,13,13,14,14,15,15,16,16,17,17,19,19,20,20,22,22,23,23,24,24,26,26,27,27,28,28,31,31],"right_children":[2,4,6,-1,8,10,12,-1,14,16,18,20,-1,22,24,26,28,30,-1,32,34,-1,36,38,40,-1,42,44,46,-1,-1,48,-1,-1,-1,-1,-1,-1,-1,-1,-1,-1,-1,-1,-1,-1,-1,-1,-1],"split_conditions":[1.793722E-2,6E0,9.890445E0,3.5863902E-2,1.553398E-1,8.593034E0,3.6893138E-1,-8.8803954E-2,1.8479927E-1,2.7083334E-1,2.1544716E-1,7.446808E-1,-6.8353995E-4,1.3538979E-1,7.2E1,-9E0,1.8384083E-1,5.901639E-2,1.5480012E-2,1.761111E1,5.963399E-2,-4.241134E-2,3.5E1,1.8214285E-1,1.1331017E0,9.026589E-2,3.1417632E-3,2.4206349E-1,1.0021885E-1,-3.0866161E-2,-8.077481E-2,7.470588E0,6.2218945E-2,6.1333235E-2,1.1977432E-1,-5.112243E-3,6.326493E-2,-3.3417024E-2,-7.147052E-2,-2.9356623E-2,1.5393387E-2,-2.1361297E-2,3.5830256E-2,3.0585414E-2,-1.2291354E-2,-7.3341705E-2,-1.642651E-2,3.3706263E-2,-2.669922E-2],"split_indices":[83,53,127,0,96,127,23,0,224,84,138,52,0,26,53,173,224,138,0,132,222,0,131,123,58,0,222,96,225,0,0,132,0,0,0,0,0,0,0,0,0,0,0,0,0,0,0,0,0],"split_type":[0,0,0,0,0,0,0,0,0,0,0,0,0,0,0,0,0,0,0,0,0,0,0,0,0,0,0,0,0,0,0,0,0,0,0,0,0,0,0,0,0,0,0,0,0,0,0,0,0],"sum_hessian":[2.37095E2,6.9185E1,1.6791E2,7.686E0,6.1499E1,1.30891E2,3.7019E1,5.2139997E0,5.6285E1,1.077445E2,2.31465E1,2.7326E1,9.693E0,2.83375E1,2.79475E1,4.7003E1,6.07415E1,1.46965E1,8.45E0,1.6054E1,1.1272E1,9.179E0,1.91585E1,1.72175E1,1.073E1,7.9645E0,3.90385E1,4.56185E1,1.5123E1,5.165E0,9.5315E0,1.0054E1,6E0,6.272E0,5E0,1.33025E1,5.856E0,8.3685E0,8.849E0,5.73E0,5E0,1.16965E1,2.7342001E1,1.81385E1,2.748E1,6.1555E0,8.9675E0,5E0,5.054E0],"tree_param":{"num_deleted":"0","num_feature":"291","num_nodes":"49","size_leaf_vector":"1"}},{"base_weights":[1.4971327E-2,-9.7107984E-2,5.1281494E-1,3.9778745E-1,-2.3535483E-1,9.9987215E-1,-1.438387E-1,-1.2583816E-1,7.8148896E-1,-4.1153282E-1,3.9718688E-1,2.5691174E-3,1.3569196E0,-4.3452784E-2,3.4266356E-2,2.7035406E-2,-5.5336505E-1,1.1843599E0,-1.0577067E-3,-4.9567863E-1,4.749657E-2,-1.5513334E-2,8.503206E-2,7.3744667E-1,1.0992272E-1,-4.0908203E-2,-1.1156812E-2,1.4838824E-2,9.569214E-2,-8.36178E-1,-2.8135756E-1,2.7333787E-1,-5.005744E-2,6.1158E-2,1.0062798E-2,-6.815731E-2,-2.2535847E-2,-3.1969238E-2,2.148538E-3,2.7872836E-2,-2.1775974E-2],"categories":[],"categories_nodes":[],"categories_segments":[],"categories_sizes":[],"default_left":[0,0,0,0,0,0,0,0,0,0,0,0,0,0,0,0,0,0,0,0,0,0,0,0,0,0,0,0,0,0,0,0,0,0,0,0,0,0,0,0,0],"id":21,"left_children":[1,3,5,7,9,11,13,15,17,19,21,-1,23,-1,-1,-1,25,27,-1,29,-1,31,-1,33,-1,-1,-1,-1,-1,35,37,39,-1,-1,-1,-1,-1,-1,-1,-1,-1],"loss_changes":[1.3138692E1,1.31820755E1,1.4075414E1,8.609709E0,1.6936932E1,8.279211E0,1.2173234E1,5.580333E0,8.066482E0,1.3981611E1,1.8039303E1,0E0,7.5192795E0,0E0,0E0,0E0,7.515774E-1,9.841555E0,0E0,7.838684E0,0E0,7.784984E0,0E0,2.7358289E0,0E0,0E0,0E0,0E0,0E0,7.8660126E0,8.276596E0,4.46685E0,0E0,0E0,0E0,0E0,0E0,0E0,0E0,0E0,0E0],"parents":[2147483647,0,0,1,1,2,2,3,3,4,4,5,5,6,6,7,7,8,8,9,9,10,10,12,12,16,16,17,17,19,19,21,21,23,23,29,29,30,30,31,31],"right_children":[2,4,6,8,10,12,14,16,18,20,22,-1,24,-1,-1,-1,26,28,-1,30,-1,32,-1,34,-1,-1,-1,-1,-1,36,38,40,-1,-1,-1,-1,-1,-1,-1,-1,-1],"split_conditions":[1.9E1,0E0,1.8E1,5.7077627E-3,7.8198195E-2,-1.25E-1,1.31E2,2.4714285E1,2.16E2,8E-1,4.9333332E1,2.5691174E-3,1.3479535E-1,-4.3452784E-2,3.4266356E-2,2.7035406E-2,-3.647059E-2,3.7752903E-1,-1.0577067E-3,4E0,4.749657E-2,1.3333333E1,8.503206E-2,1.8292683E-1,1.0992272E-1,-4.0908203E-2,-1.1156812E-2,1.4838824E-2,9.569214E-2,1.05625E1,1.69E2,8.4615386E-1,-5.005744E-2,6.1158E-2,1.0062798E-2,-6.815731E-2,-2.2535847E-2,-3.1969238E-2,2.148538E-3,2.7872836E-2,-2.1775974E-2],"split_indices":[57,175,114,135,155,172,114,24,125,51,24,0,222,0,0,0,269,89,0,57,0,270,0,96,0,0,0,0,0,132,129,88,0,0,0,0,0,0,0,0,0],"split_type":[0,0,0,0,0,0,0,0,0,0,0,0,0,0,0,0,0,0,0,0,0,0,0,0,0,0,0,0,0,0,0,0,0,0,0,0,0,0,0,0,0],"sum_hessian":[2.328315E2,1.905395E2,4.2292E1,4.10365E1,1.49503E2,2.4069E1,1.8223E1,1.7528E1,2.35085E1,1.17331E2,3.2172E1,6.972E0,1.7097E1,9.7595005E0,8.4635E0,6.6545E0,1.08735E1,1.54185E1,8.09E0,1.111695E2,6.1615E0,2.51275E1,7.0445E0,1.0997E1,6.1E0,5.0465E0,5.827E0,7.652E0,7.7665E0,4.16425E1,6.9527E1,1.9913E1,5.2145E0,5E0,5.9969997E0,1.6411E1,2.52315E1,3.27315E1,3.67955E1,1.44685E1,5.4445E0],"tree_param":{"num_deleted":"0","num_feature":"291","num_nodes":"41","size_leaf_vector":"1"}},{"base_weights":[8.672001E-3,-5.200562E-2,1.1126295E0,2.250314E-1,-3.247777E-1,8.294952E-2,1.7914258E-2,-3.0958763E-1,6.2202334E-1,-4.692728E-1,3.2010219E-1,-5.9255654E-1,3.7886415E-2,4.631859E-1,9.982986E-2,-5.6736195E-1,3.656771E-2,8.5754824E-1,-4.4173323E-2,-9.5332867E-1,-6.1828844E-2,3.7149984E-2,1.1317428E0,-4.6386078E-1,-8.2552195E-2,7.1600154E-3,7.415544E-2,-3.901815E-3,-5.9492655E-2,1.9063137E-2,-2.2745723E-2,-2.2879263E-2,1.9841824E-2,2.4360863E-2,1.0279932E-1,-9.483607E-3,-3.7505765E-2],"categories":[],"categories_nodes":[],"categories_segments":[],"categories_sizes":[],"default_left":[0,0,0,0,0,0,0,0,0,0,0,0,0,0,0,0,0,0,0,0,0,0,0,0,0,0,0,0,0,0,0,0,0,0,0,0,0],"id":22,"left_children":[1,3,5,7,9,-1,-1,11,13,15,17,19,-1,21,-1,23,-1,25,-1,27,29,31,33,35,-1,-1,-1,-1,-1,-1,-1,-1,-1,-1,-1,-1,-1],"loss_changes":[1.5877822E1,1.6952398E1,4.2948923E0,2.3816353E1,1.07015915E1,0E0,0E0,1.4908014E1,1.2852917E1,1.1340178E1,1.4446318E1,7.215129E0,0E0,1.6630184E1,0E0,8.728174E0,0E0,6.4160376E0,0E0,4.490347E0,3.1016874E0,6.782335E0,1.23360195E1,6.0790253E0,0E0,0E0,0E0,0E0,0E0,0E0,0E0,0E0,0E0,0E0,0E0,0E0,0E0],"parents":[2147483647,0,0,1,1,2,2,3,3,4,4,7,7,8,8,9,9,10,10,11,11,13,13,15,15,17,17,19,19,20,20,21,21,22,22,23,23],"right_children":[2,4,6,8,10,-1,-1,12,14,16,18,20,-1,22,-1,24,-1,26,-1,28,30,32,34,36,-1,-1,-1,-1,-1,-1,-1,-1,-1,-1,-1,-1,-1],"split_conditions":[2.2009321E1,3.7254903E-1,5.3333336E-1,4E0,4.2161724E-1,8.294952E-2,1.7914258E-2,4.041383E-1,7.380952E-1,4.1666666E-1,1.9444445E-1,4.3375436E-3,3.7886415E-2,7.615079E-1,9.982986E-2,1.2768567E1,3.656771E-2,9.230769E-1,-4.4173323E-2,-2E1,-2.6353277E-2,3.326392E-1,9.649E-1,7.941176E-1,-8.2552195E-2,7.1600154E-3,7.415544E-2,-3.901815E-3,-5.9492655E-2,1.9063137E-2,-2.2745723E-2,-2.2879263E-2,1.9841824E-2,2.4360863E-2,1.0279932E-1,-9.483607E-3,-3.7505765E-2],"split_indices":[58,51,84,57,23,0,0,121,118,96,135,78,0,7,0,71,0,52,0,173,253,119,115,52,0,0,0,0,0,0,0,0,0,0,0,0,0],"split_type":[0,0,0,0,0,0,0,0,0,0,0,0,0,0,0,0,0,0,0,0,0,0,0,0,0,0,0,0,0,0,0,0,0,0,0,0,0],"sum_hessian":[2.335865E2,2.22234E2,1.13525E1,1.1016E2,1.12074E2,5.8115E0,5.541E0,4.69295E1,6.32305E1,9.1908E1,2.0166E1,3.75205E1,9.409E0,5.79445E1,5.286E0,8.5531E1,6.377E0,1.4197E1,5.969E0,2.17505E1,1.577E1,3.61275E1,2.1817E1,7.9462E1,6.0690002E0,7.2765E0,6.9205E0,5E0,1.67505E1,7.308E0,8.462E0,1.4977E1,2.11505E1,1.3817E1,8E0,4.1614E1,3.7848E1],"tree_param":{"num_deleted":"0","num_feature":"291","num_nodes":"37","size_leaf_vector":"1"}},{"base_weights":[4.9021907E-2,2.968138E-1,-2.6350543E-1,1.82807E-1,8.386644E-2,-4.5516402E-1,2.6977807E-1,-2.434096E-1,5.0535405E-1,3.2740466E-2,-6.109995E-1,-3.3440284E-2,7.3466206E-1,-6.949885E-1,4.4563589E-1,1.0092406E0,1.0440259E-1,-7.9307675E-1,-2.2036365E-1,-6.4295973E-3,1.1834699E0,1.4393269E-2,-1.0782031E0,5.699076E-2,-1.3254897E-1,1.3127415E0,-8.690602E-3,-6.021824E-1,3.7885574E-1,-1.0396506E0,-4.639006E-1,6.053201E-2,-4.5880374E-2,2.0437649E-2,9.0360306E-2,-3.4265827E-2,-8.868531E-2,2.2401895E-2,-3.3088244E-2,1.8885911E-3,8.1071965E-2,-4.0788767E-3,-5.1380258E-2,3.4898903E-2,-9.193371E-3,-5.964343E-2,-1.5679054E-2,-1.0104822E-2,-4.0497344E-2,3.328439E-2,-1.0844886E-2],"categories":[],"categories_nodes":[],"categories_segments":[],"categories_sizes":[],"default_left":[0,0,0,0,0,0,0,0,0,0,0,0,0,0,0,0,0,0,0,0,0,0,0,0,0,0,0,0,0,0,0,0,0,0,0,0,0,0,0,0,0,0,0,0,0,0,0,0,0,0,0],"id":23,"left_children":[1,3,5,7,-1,9,11,13,15,-1,17,-1,19,21,23,25,27,29,31,-1,33,-1,35,-1,37,39,-1,41,43,45,47,49,-1,-1,-1,-1,-1,-1,-1,-1,-1,-1,-1,-1,-1,-1,-1,-1,-1,-1,-1],"loss_changes":[1.8900856E1,2.0942516E1,1.11613865E1,1.7607555E1,0E0,1.4203209E1,1.3149394E1,1.7525059E1,1.4480539E1,0E0,4.744917E0,0E0,7.9825497E0,1.3139751E1,9.239952E0,1.1835316E1,8.299633E0,3.2301369E0,4.8422074E0,0E0,5.4628906E0,0E0,5.2715206E0,0E0,4.322948E0,9.871513E0,0E0,2.4542308E0,5.7065125E0,2.393299E0,1.7609339E0,3.202103E0,0E0,0E0,0E0,0E0,0E0,0E0,0E0,0E0,0E0,0E0,0E0,0E0,0E0,0E0,0E0,0E0,0E0,0E0,0E0],"parents":[2147483647,0,0,1,1,2,2,3,3,5,5,6,6,7,7,8,8,10,10,12,12,13,13,14,14,15,15,16,16,17,17,18,18,20,20,22,22,24,24,25,25,27,27,28,28,29,29,30,30,31,31],"right_children":[2,4,6,8,-1,10,12,14,16,-1,18,-1,20,22,24,26,28,30,32,-1,34,-1,36,-1,38,40,-1,42,44,46,48,50,-1,-1,-1,-1,-1,-1,-1,-1,-1,-1,-1,-1,-1,-1,-1,-1,-1,-1,-1],"split_conditions":[3.393523E-1,9.039548E-2,1.3307096E-1,5.4614645E-1,8.386644E-2,4E0,7.782101E-3,8.763372E-2,4.5682155E-3,3.2740466E-2,4.9E1,-3.3440284E-2,1.84375E-1,2.3E1,1.8996145E-1,1.1304348E-1,2.468E1,2.5E1,5.416667E-1,-6.4295973E-3,1.923077E-1,1.4393269E-2,4.0906705E-3,5.699076E-2,1.5E1,1.4425851E1,-8.690602E-3,1.8931564E-2,2.6276E2,7.874016E0,1.59768715E1,1.05E2,-4.5880374E-2,2.0437649E-2,9.0360306E-2,-3.4265827E-2,-8.868531E-2,2.2401895E-2,-3.3088244E-2,1.8885911E-3,8.1071965E-2,-4.0788767E-3,-5.1380258E-2,3.4898903E-2,-9.193371E-3,-5.964343E-2,-1.5679054E-2,-1.0104822E-2,-4.0497344E-2,3.328439E-2,-1.0844886E-2],"split_indices":[136,269,222,25,0,95,83,225,175,0,120,0,96,85,224,83,264,114,51,0,50,0,73,0,114,140,0,253,213,127,140,129,0,0,0,0,0,0,0,0,0,0,0,0,0,0,0,0,0,0,0],"split_type":[0,0,0,0,0,0,0,0,0,0,0,0,0,0,0,0,0,0,0,0,0,0,0,0,0,0,0,0,0,0,0,0,0,0,0,0,0,0,0,0,0,0,0,0,0,0,0,0,0,0,0],"sum_hessian":[2.420125E2,1.35193E2,1.06819496E2,1.25993004E2,9.2E0,7.88245E1,2.7995E1,5.4246502E1,7.17465E1,9.231E0,6.95935E1,9.0565E0,1.89385E1,3.28525E1,2.1394E1,3.10095E1,4.0737E1,4.6591E1,2.30025E1,6.646E0,1.22925E1,9.2125E0,2.364E1,9.359E0,1.2035E1,2.46585E1,6.351E0,1.09605E1,2.97765E1,2.523E1,2.1361E1,1.69455E1,6.057E0,6.2925E0,6E0,1.6467001E1,7.173E0,5.722E0,6.313E0,5.0885E0,1.957E1,5.5705E0,5.39E0,1.8961E1,1.08155E1,2.0189E1,5.041E0,1.3227E1,8.134E0,5E0,1.19455E1],"tree_param":{"num_deleted":"0","num_feature":"291","num_nodes":"51","size_leaf_vector":"1"}},{"base_weights":[-6.023929E-3,5.147459E-2,-1.0931113E0,5.054184E-3,5.716244E-2,-7.650424E-2,-2.1563374E-2,-6.174367E-2,6.816182E-1,-1.1284107E-1,4.8097942E-2,1.123604E0,-2.2540359E-2,-2.0769921E-1,4.8086622E-1,2.6002428E-2,8.364921E-2,-1.5613884E-2,1.5512827E-2,4.682414E-2,-1.0009593E-2],"categories":[],"categories_nodes":[],"categories_segments":[],"categories_sizes":[],"default_left":[0,0,0,0,0,0,0,0,0,0,0,0,0,0,0,0,0,0,0,0,0],"id":24,"left_children":[1,3,5,7,-1,-1,-1,9,11,13,-1,15,-1,17,19,-1,-1,-1,-1,-1,-1],"loss_changes":[1.5250452E1,1.1543912E1,2.68968E0,1.01307335E1,0E0,0E0,0E0,1.06270485E1,1.0661208E1,1.1001623E1,0E0,3.8333187E0,0E0,9.206329E0,8.605265E0,0E0,0E0,0E0,0E0,0E0,0E0],"parents":[2147483647,0,0,1,1,2,2,3,3,7,7,8,8,9,9,11,11,13,13,14,14],"right_children":[2,4,6,8,-1,-1,-1,10,12,14,-1,16,-1,18,20,-1,-1,-1,-1,-1,-1],"split_conditions":[6.540038E0,2.2009321E1,6.828757E-1,8E0,5.716244E-2,-7.650424E-2,-2.1563374E-2,7.1117806E-1,3.5789475E-1,4.902712E0,4.8097942E-2,1.3888889E-2,-2.2540359E-2,1.0622711E-1,1.4078096E0,2.6002428E-2,8.364921E-2,-1.5613884E-2,1.5512827E-2,4.682414E-2,-1.0009593E-2],"split_indices":[69,58,19,111,0,0,0,221,134,128,0,155,0,155,68,0,0,0,0,0,0],"split_type":[0,0,0,0,0,0,0,0,0,0,0,0,0,0,0,0,0,0,0,0,0],"sum_hessian":[2.404175E2,2.291575E2,1.126E1,2.20863E2,8.2945E0,5.901E0,5.359E0,2.01709E2,1.9154E1,1.9306E2,8.649E0,1.3846E1,5.308E0,1.671695E2,2.58905E1,7.612E0,6.234E0,1.39578E2,2.75915E1,1.5376E1,1.05145E1],"tree_param":{"num_deleted":"0","num_feature":"291","num_nodes":"21","size_leaf_vector":"1"}},{"base_weights":[3.959527E-2,-8.2924E-2,4.6008223E-1,-1.7441055E-1,5.877415E-1,-5.7587646E-2,9.3387216E-1,-1.077433E-1,-6.889568E-2,1.0854979E0,-1.2710913E-2,-4.678161E-2,4.3039116E-1,1.527985E0,3.6888602E-1,-2.3056838E-1,6.905984E-1,2.2925457E-2,9.457574E-2,-6.892438E-2,6.1187413E-2,1.0554495E-1,3.95472E-2,-1.1856166E-2,4.4838704E-2,-6.7765313E-1,-4.5217644E-2,-2.9900897E-1,9.222776E-2,1.2879103E-2,-1.7661322E-2,-4.803862E-2,7.872946E-3,1.1862924E-2,-1.9304398E-2,1.0634207E-2,-3.871159E-2],"categories":[],"categories_nodes":[],"categories_segments":[],"categories_sizes":[],"default_left":[0,0,0,0,0,0,0,0,0,0,0,0,0,0,0,0,0,0,0,0,0,0,0,0,0,0,0,0,0,0,0,0,0,0,0,0,0],"id":25,"left_children":[1,3,5,7,9,11,13,15,-1,17,-1,-1,19,21,23,25,27,-1,-1,29,-1,-1,-1,-1,-1,31,33,35,-1,-1,-1,-1,-1,-1,-1,-1,-1],"loss_changes":[1.26236105E1,1.1674159E1,1.3702696E1,1.3138397E1,9.921475E0,1.2134726E1,8.990528E0,1.5785285E1,0E0,6.2780514E0,0E0,0E0,7.384141E0,3.9454956E0,5.4877853E0,1.1446684E1,2.5204075E1,0E0,0E0,1.2144667E0,0E0,0E0,0E0,0E0,0E0,9.835068E0,9.711859E0,3.2269893E0,0E0,0E0,0E0,0E0,0E0,0E0,0E0,0E0,0E0],"parents":[2147483647,0,0,1,1,2,2,3,3,4,4,5,5,6,6,7,7,9,9,12,12,13,13,14,14,15,15,16,16,19,19,25,25,26,26,27,27],"right_children":[2,4,6,8,10,12,14,16,-1,18,-1,-1,20,22,24,26,28,-1,-1,30,-1,-1,-1,-1,-1,32,34,36,-1,-1,-1,-1,-1,-1,-1,-1,-1],"split_conditions":[1.0063254E1,8.5714287E-1,2.9790277E0,6.5E1,4.0445316E-1,2.7E1,2.9E1,1.6952038E0,-6.889568E-2,6.3993174E-1,-1.2710913E-2,-4.678161E-2,3.944011E-2,1.4333029E0,5.8E1,4.630949E0,2.5E-2,2.2925457E-2,9.457574E-2,1.9876445E2,6.1187413E-2,1.0554495E-1,3.95472E-2,-1.1856166E-2,4.4838704E-2,9.537131E0,3.9130434E-1,0E0,9.222776E-2,1.2879103E-2,-1.7661322E-2,-4.803862E-2,7.872946E-3,1.1862924E-2,-1.9304398E-2,1.0634207E-2,-3.871159E-2],"split_indices":[127,88,58,139,119,139,139,67,0,221,0,0,271,69,53,127,168,0,0,18,0,0,0,0,0,58,93,172,0,0,0,0,0,0,0,0,0],"split_type":[0,0,0,0,0,0,0,0,0,0,0,0,0,0,0,0,0,0,0,0,0,0,0,0,0,0,0,0,0,0,0,0,0,0,0,0,0],"sum_hessian":[2.425615E2,1.882695E2,5.4292E1,1.664525E2,2.1817E1,2.62635E1,2.80285E1,1.58827E2,7.6255E0,1.3604E1,8.213E0,9.1275E0,1.7136E1,1.2745E1,1.52835E1,1.383745E2,2.04525E1,8.604E0,5E0,1.1E1,6.136E0,6E0,6.745E0,7.2835E0,8E0,3.96175E1,9.8757E1,1.13625E1,9.09E0,5E0,6E0,2.9564E1,1.00535E1,5.401E1,4.4747E1,5.636E0,5.7265E0],"tree_param":{"num_deleted":"0","num_feature":"291","num_nodes":"37","size_leaf_vector":"1"}},{"base_weights":[-2.2633836E-2,-4.9072912E-1,8.410697E-2,4.8326004E-2,-7.5520706E-1,1.7181803E-2,1.0469986E0,-3.0901693E-2,-1.1054393E0,-1.3237324E-1,4.6731785E-1,6.936224E-2,2.9397655E-2,3.049755E-2,-4.2541098E-2,-1.4024291E0,-5.978246E-1,-9.469085E-3,-7.46271E-1,-7.477793E-4,1.1608872E0,-4.3003574E-2,-8.05563E-2,-3.7166215E-2,-1.6754514E-2,-1.085548E-1,8.479379E-1,-6.821009E-2,-2.6964313E-1,-4.684585E-1,6.44822E-2,8.546549E-2,-9.373334E-3,-1.2837357E-2,3.2960474E-2,1.554112E-2,6.2040318E-2,4.1780663E-3,-2.9029174E-2,-3.5095405E-2,5.582342E-3],"categories":[],"categories_nodes":[],"categories_segments":[],"categories_sizes":[],"default_left":[0,0,0,0,0,0,0,0,0,0,0,0,0,0,0,0,0,0,0,0,0,0,0,0,0,0,0,0,0,0,0,0,0,0,0,0,0,0,0,0,0],"id":26,"left_children":[1,3,5,-1,7,9,11,13,15,17,19,-1,-1,-1,-1,21,23,25,27,29,31,-1,-1,-1,-1,33,35,-1,37,39,-1,-1,-1,-1,-1,-1,-1,-1,-1,-1,-1],"loss_changes":[1.1590868E1,1.7316889E1,1.2006642E1,0E0,9.26152E0,1.2019666E1,8.7984943E-1,7.485004E0,2.7124634E0,9.995106E0,1.4582987E1,0E0,0E0,0E0,0E0,4.572296E-2,6.5532684E-2,9.570311E0,5.9870043E0,1.7130568E1,1.3814098E1,0E0,0E0,0E0,0E0,1.17091465E1,1.9188719E0,0E0,1.6173232E0,2.9797678E0,0E0,0E0,0E0,0E0,0E0,0E0,0E0,0E0,0E0,0E0,0E0],"parents":[2147483647,0,0,1,1,2,2,4,4,5,5,6,6,7,7,8,8,9,9,10,10,15,15,16,16,17,17,18,18,19,19,20,20,25,25,26,26,28,28,29,29],"right_children":[2,4,6,-1,8,10,12,14,16,18,20,-1,-1,-1,-1,22,24,26,28,30,32,-1,-1,-1,-1,34,36,-1,38,40,-1,-1,-1,-1,-1,-1,-1,-1,-1,-1,-1],"split_conditions":[1.0511425E-1,-3.9703988E-2,1.3683357E1,4.8326004E-2,1.25E2,7.827948E-1,5.53845E-1,2.2739018E-1,1.7E1,4.3089432E-1,6.640106E0,6.936224E-2,2.9397655E-2,3.049755E-2,-4.2541098E-2,3E0,2E0,2.8E1,1.5444036E-3,6.464625E-1,7.4712646E-1,-4.3003574E-2,-8.05563E-2,-3.7166215E-2,-1.6754514E-2,7.8327876E-1,1.332014E1,-6.821009E-2,8.112279E-2,2.9535865E-2,6.44822E-2,8.546549E-2,-9.373334E-3,-1.2837357E-2,3.2960474E-2,1.554112E-2,6.2040318E-2,4.1780663E-3,-2.9029174E-2,-3.5095405E-2,5.582342E-3],"split_indices":[60,175,127,0,129,7,68,123,90,134,127,0,0,0,0,48,111,49,174,136,118,0,0,0,0,60,140,0,174,155,0,0,0,0,0,0,0,0,0,0,0],"split_type":[0,0,0,0,0,0,0,0,0,0,0,0,0,0,0,0,0,0,0,0,0,0,0,0,0,0,0,0,0,0,0,0,0,0,0,0,0,0,0,0,0],"sum_hessian":[2.293405E2,4.2092E1,1.872485E2,6E0,3.6092E1,1.761285E2,1.112E1,1.22115E1,2.38805E1,1.325675E2,4.3561E1,5.1E0,6.02E0,6.9295E0,5.282E0,1.38295E1,1.0051E1,1.11436E2,2.11315E1,2.6519E1,1.7042E1,5.399E0,8.4305E0,5.0465E0,5.0045E0,1.007795E2,1.06565E1,8.2995E0,1.2832E1,1.99885E1,6.5305E0,1.1977E1,5.065E0,8.51415E1,1.56380005E1,5.366E0,5.2905E0,6.1995E0,6.6325E0,1.4226E1,5.7625E0],"tree_param":{"num_deleted":"0","num_feature":"291","num_nodes":"41","size_leaf_vector":"1"}},{"base_weights":[3.610026E-2,6.956564E-2,-6.2628076E-3,-8.34664E-2,7.613948E-1,1.437854E-1,-3.2636717E-1,6.475586E-2,2.058963E-1,-1.4208601E-1,1.0144831E0,-5.924542E-1,5.0285593E-2,3.183755E-2,-1.4269106E-2,5.193341E-1,-3.47716E-1,2.6486057E-1,1.9090246E0,-1.0923638E0,-3.7233704E-1,6.758021E-1,-2.4465804E-1,4.310614E-2,-1.6494771E-2,-4.1062545E-2,-8.668033E-4,2.6636822E-2,-1.0586981E-2,5.1945742E-2,1.2968554E-1,-7.7105194E-2,-2.1432767E-2,-2.3694722E-2,1.583443E-2,9.212439E-3,5.4743927E-2,-3.62305E-2,1.0355554E-2],"categories":[],"categories_nodes":[],"categories_segments":[],"categories_sizes":[],"default_left":[0,0,0,0,0,0,0,0,0,0,0,0,0,0,0,0,0,0,0,0,0,0,0,0,0,0,0,0,0,0,0,0,0,0,0,0,0,0,0],"id":27,"left_children":[1,-1,3,5,7,9,11,-1,13,15,17,19,21,-1,-1,23,25,27,29,31,33,35,37,-1,-1,-1,-1,-1,-1,-1,-1,-1,-1,-1,-1,-1,-1,-1,-1],"loss_changes":[1.3770782E1,0E0,1.3687965E1,1.1708887E1,5.8366385E0,2.7477058E1,1.0354501E1,0E0,2.6756082E0,1.14787245E1,1.7560034E1,6.0806484E0,8.176763E0,0E0,0E0,6.1645613E0,9.942554E0,2.1947653E0,4.2156334E0,4.447365E0,3.2106118E0,2.5984182E0,6.7015524E0,0E0,0E0,0E0,0E0,0E0,0E0,0E0,0E0,0E0,0E0,0E0,0E0,0E0,0E0,0E0,0E0],"parents":[2147483647,0,0,2,2,3,3,4,4,5,5,6,6,8,8,9,9,10,10,11,11,12,12,15,15,16,16,17,17,18,18,19,19,20,20,21,21,22,22],"right_children":[2,-1,4,6,8,10,12,-1,14,16,18,20,22,-1,-1,24,26,28,30,32,34,36,38,-1,-1,-1,-1,-1,-1,-1,-1,-1,-1,-1,-1,-1,-1,-1,-1],"split_conditions":[1E-1,6.956564E-2,8E0,2.07E2,6.828757E-1,1.6230667E2,1.0647967E-1,6.475586E-2,3.1E1,8E0,4.2869744E-1,-8.333334E-3,2.9218107E-1,3.183755E-2,-1.4269106E-2,1.9083334E1,9E0,7.040453E-2,1.8584235E-1,2.1905142E2,9.6E1,8.1E1,2E0,4.310614E-2,-1.6494771E-2,-4.1062545E-2,-8.668033E-4,2.6636822E-2,-1.0586981E-2,5.1945742E-2,1.2968554E-1,-7.7105194E-2,-2.1432767E-2,-2.3694722E-2,1.583443E-2,9.212439E-3,5.4743927E-2,-3.62305E-2,1.0355554E-2],"split_indices":[96,0,111,125,19,18,225,0,95,139,89,135,23,0,0,24,53,225,68,18,53,154,111,0,0,0,0,0,0,0,0,0,0,0,0,0,0,0,0],"split_type":[0,0,0,0,0,0,0,0,0,0,0,0,0,0,0,0,0,0,0,0,0,0,0,0,0,0,0,0,0,0,0,0,0,0,0,0,0,0,0],"sum_hessian":[2.36299E2,6.269E0,2.3003E2,2.09938E2,2.0092E1,1.08461E2,1.01477E2,9.476E0,1.0616E1,8.2196E1,2.6265E1,5.92865E1,4.21905E1,5.6065E0,5.0095E0,1.90165E1,6.31795E1,1.5056E1,1.1209E1,1.6774E1,4.25125E1,1.3214E1,2.89765E1,1.3621E1,5.3955E0,2.52295E1,3.795E1,9.6975E0,5.3585E0,6.109E0,5.1E0,9.12E0,7.654E0,3.745E1,5.0625E0,6.8535E0,6.3605E0,1.38645E1,1.51119995E1],"tree_param":{"num_deleted":"0","num_feature":"291","num_nodes":"39","size_leaf_vector":"1"}},{"base_weights":[2.6306191E-2,-8.984326E-2,4.382461E-1,2.2380698E-2,-6.6611135E-1,9.773011E-1,1.8766409E-2,7.601729E-1,-6.2133305E-2,1.8034343E-2,-1.036705E0,4.678678E-1,9.949194E-2,-3.1489875E-2,2.651188E-1,-1.2025742E-3,7.683348E-2,-2.2342406E-1,4.3682417E-1,-1.0086538E-2,-1.2753421E0,-2.5127495E-2,9.907392E-1,5.9063643E-1,-1.2368581E-2,-3.871029E-1,2.877492E-1,8.7254345E-1,-3.7045117E-2,-4.181506E-2,-8.460769E-2,6.25261E-2,2.7458334E-2,4.813088E-2,2.2887841E-3,-9.743659E-3,-3.8131066E-2,-5.667457E-3,4.6070453E-2,6.298696E-2,2.3197918E-3],"categories":[],"categories_nodes":[],"categories_segments":[],"categories_sizes":[],"default_left":[0,0,0,0,0,0,0,0,0,0,0,0,0,0,0,0,0,0,0,0,0,0,0,0,0,0,0,0,0,0,0,0,0,0,0,0,0,0,0,0,0],"id":28,"left_children":[1,3,5,7,9,11,13,15,17,-1,19,21,-1,-1,23,-1,-1,25,27,-1,29,-1,31,33,-1,35,37,39,-1,-1,-1,-1,-1,-1,-1,-1,-1,-1,-1,-1,-1],"loss_changes":[1.1215365E1,1.1867397E1,1.154399E1,9.681419E0,1.1815037E1,1.0401354E1,4.944133E0,9.908242E0,1.1216479E1,0E0,4.036827E0,8.82044E0,0E0,0E0,3.958929E0,0E0,0E0,8.941965E0,1.810855E1,0E0,1.4532089E0,0E0,3.9512825E-1,2.746499E0,0E0,5.561468E0,6.7921333E0,7.9171963E0,0E0,0E0,0E0,0E0,0E0,0E0,0E0,0E0,0E0,0E0,0E0,0E0,0E0],"parents":[2147483647,0,0,1,1,2,2,3,3,4,4,5,5,6,6,7,7,8,8,10,10,11,11,14,14,17,17,18,18,20,20,22,22,23,23,25,25,26,26,27,27],"right_children":[2,4,6,8,10,12,14,16,18,-1,20,22,-1,-1,24,-1,-1,26,28,-1,30,-1,32,34,-1,36,38,40,-1,-1,-1,-1,-1,-1,-1,-1,-1,-1,-1,-1,-1],"split_conditions":[1.0063254E1,8.810573E0,3.059626E-1,1.1111111E-1,2.6083334E1,9.852E-1,5.967742E-1,5.755727E0,5E0,1.8034343E-2,2.0175439E-1,1.764E2,9.949194E-2,-3.1489875E-2,4.892186E-1,-1.2025742E-3,7.683348E-2,1.3307096E-1,7.39899E-1,-1.0086538E-2,2.0970222E2,-2.5127495E-2,5.451633E-1,5.435524E-2,-1.2368581E-2,5.6E1,8.021164E-1,3.8E1,-3.7045117E-2,-4.181506E-2,-8.460769E-2,6.25261E-2,2.7458334E-2,4.813088E-2,2.2887841E-3,-9.743659E-3,-3.8131066E-2,-5.667457E-3,4.6070453E-2,6.298696E-2,2.3197918E-3],"split_indices":[127,127,23,51,24,115,118,127,111,0,123,110,0,0,89,0,0,222,19,0,18,0,25,222,0,131,7,139,0,0,0,0,0,0,0,0,0,0,0,0,0],"split_type":[0,0,0,0,0,0,0,0,0,0,0,0,0,0,0,0,0,0,0,0,0,0,0,0,0,0,0,0,0,0,0,0,0,0,0,0,0,0,0,0,0],"sum_hessian":[2.318515E2,1.81278E2,5.05735E1,1.52389E2,2.8889E1,2.1446E1,2.91275E1,1.4962E1,1.37427E2,7.597E0,2.1292E1,1.5306E1,6.14E0,7.478E0,2.16495E1,7.862E0,7.1E0,1.04424E2,3.3003E1,5.236E0,1.6056E1,5.306E0,1E1,1.3266E1,8.3835E0,7.9429E1,2.4995E1,2.43415E1,8.6615E0,9.4005E0,6.6555E0,5E0,5E0,7.319E0,5.947E0,5.37165E1,2.57125E1,1.57125E1,9.2825E0,1.6134E1,8.2074995E0],"tree_param":{"num_deleted":"0","num_feature":"291","num_nodes":"41","size_leaf_vector":"1"}},{"base_weights":[3.1045971E-2,-1.158968E-2,4.9116243E-2,7.1374476E-2,-4.228533E-1,-2.4061371E-1,2.4862826E-1,3.556617E-1,-7.7033114E-1,-4.6273294E-1,2.715226E-1,3.430354E-1,-6.1454535E-2,-8.707268E-3,4.6455324E-2,-4.6036354E-1,-6.364514E-2,-8.380801E-1,-2.4014956E-1,5.568854E-2,-1.0958666E-1,8.222296E-2,2.2679815E-1,-1.0314211E-3,-6.7101634E-1,-5.8681246E-2,-2.3089383E-2,-2.7674539E-2,2.8839686E-3,-3.9066378E-2,1.7423877E-2,1.6124269E-2,-2.4859708E-2,-1.6179709E-2,-4.624295E-2],"categories":[],"categories_nodes":[],"categories_segments":[],"categories_sizes":[],"default_left":[0,0,0,0,0,0,0,0,0,0,0,0,0,0,0,0,0,0,0,0,0,0,0,0,0,0,0,0,0,0,0,0,0,0,0],"id":29,"left_children":[1,3,-1,5,7,9,11,13,15,17,19,21,-1,-1,-1,23,-1,25,27,-1,29,-1,31,-1,33,-1,-1,-1,-1,-1,-1,-1,-1,-1,-1],"loss_changes":[9.950277E0,8.019979E0,0E0,1.0825203E1,1.0996122E1,8.201769E0,1.7747217E1,4.1199007E0,3.5562744E0,3.860486E0,7.258542E0,1.7316866E1,0E0,0E0,0E0,1.6607342E0,0E0,1.5684271E0,3.1516154E0,0E0,5.2141514E0,0E0,7.743709E0,0E0,6.8196154E-1,0E0,0E0,0E0,0E0,0E0,0E0,0E0,0E0,0E0,0E0],"parents":[2147483647,0,0,1,1,3,3,4,4,5,5,6,6,7,7,8,8,9,9,10,10,11,11,15,15,17,17,18,18,20,20,22,22,24,24],"right_children":[2,4,-1,6,8,10,12,14,16,18,20,22,-1,-1,-1,24,-1,26,28,-1,30,-1,32,-1,34,-1,-1,-1,-1,-1,-1,-1,-1,-1,-1],"split_conditions":[2.2009321E1,2.3E1,4.9116243E-2,6.2E-1,2.1428572E-1,3.822229E-2,2.090612E-1,2.9E1,8.593034E0,1.1750268E-1,4.523107E-2,6.3137007E-1,-6.1454535E-2,-8.707268E-3,4.6455324E-2,1.1176471E1,-6.364514E-2,4.5E1,1.1E1,5.568854E-2,2.2569445E-1,8.222296E-2,2.948886E1,-1.0314211E-3,6.205484E-3,-5.8681246E-2,-2.3089383E-2,-2.7674539E-2,2.8839686E-3,-3.9066378E-2,1.7423877E-2,1.6124269E-2,-2.4859708E-2,-1.6179709E-2,-4.624295E-2],"split_indices":[58,48,0,19,23,271,26,53,127,60,73,19,0,0,0,132,0,92,114,0,96,0,140,0,73,0,0,0,0,0,0,0,0,0,0],"split_type":[0,0,0,0,0,0,0,0,0,0,0,0,0,0,0,0,0,0,0,0,0,0,0,0,0,0,0,0,0,0,0,0,0,0,0],"sum_hessian":[2.41658E2,2.321365E2,9.5215E0,1.93654E2,3.84825E1,6.98275E1,1.238265E2,1.17795E1,2.6703E1,4.89075E1,2.092E1,1.17176E2,6.6505E0,6.394E0,5.3855E0,1.78245E1,8.8785E0,1.70095E1,3.1898E1,6E0,1.492E1,8.459E0,1.08717E2,6.2825E0,1.1542E1,7.731E0,9.2785E0,1.52895E1,1.66085E1,5.8515E0,9.0685E0,9.66375E1,1.20795E1,5.9995003E0,5.5425E0],"tree_param":{"num_deleted":"0","num_feature":"291","num_nodes":"35","size_leaf_vector":"1"}},{"base_weights":[1.4858904E-3,-1.101412E-1,3.590635E-1,2.9566184E-1,-3.032814E-1,1.15512E0,7.488839E-2,-5.628174E-1,5.2464926E-1,-4.9998495E-1,1.748043E-1,8.513976E-2,2.4971224E-2,-2.5827873E-1,8.173933E-1,-1.0208078E-2,-4.3337915E-2,2.512901E-1,6.8926E-2,-1.1737903E0,-3.8397366E-1,-3.407855E-1,5.17807E-1,-7.06142E-1,2.2912921E-1,5.913502E-2,8.522696E-3,8.42233E-1,-1.1352583E-1,-8.046939E-2,-2.453563E-2,-2.7631056E-1,-6.6986054E-2,-3.0752895E-2,6.7577767E-3,-5.001751E-2,5.8466274E-2,-7.6822713E-3,-6.213359E-2,-8.961892E-3,4.4872086E-2,5.9511006E-2,9.544773E-3,3.5043716E-2,-2.6116569E-2,1.4057107E-2,-2.1516118E-2,-2.6944106E-2,1.903682E-2],"categories":[],"categories_nodes":[],"categories_segments":[],"categories_sizes":[],"default_left":[0,0,0,0,0,0,0,0,0,0,0,0,0,0,0,0,0,0,0,0,0,0,0,0,0,0,0,0,0,0,0,0,0,0,0,0,0,0,0,0,0,0,0,0,0,0,0,0,0],"id":30,"left_children":[1,3,5,7,9,11,13,15,17,19,21,-1,-1,23,25,-1,-1,27,-1,29,31,33,35,37,39,-1,-1,41,43,-1,-1,45,-1,-1,-1,47,-1,-1,-1,-1,-1,-1,-1,-1,-1,-1,-1,-1,-1],"loss_changes":[9.483384E0,1.4228484E1,1.2591686E1,1.1793023E1,1.1675461E1,4.2170467E0,1.08704E1,1.1015234E0,1.0413773E1,6.230612E0,6.633578E0,0E0,0E0,6.8137093E0,2.879324E0,0E0,0E0,8.093513E0,0E0,2.6405811E0,7.312292E0,2.0934882E0,8.449486E0,4.4474583E0,4.363408E0,0E0,0E0,2.8656769E0,8.173951E0,0E0,0E0,6.1342807E0,0E0,0E0,0E0,2.9236798E0,0E0,0E0,0E0,0E0,0E0,0E0,0E0,0E0,0E0,0E0,0E0,0E0,0E0],"parents":[2147483647,0,0,1,1,2,2,3,3,4,4,5,5,6,6,7,7,8,8,9,9,10,10,13,13,14,14,17,17,19,19,20,20,21,21,22,22,23,23,24,24,27,27,28,28,31,31,35,35],"right_children":[2,4,6,8,10,12,14,16,18,20,22,-1,-1,24,26,-1,-1,28,-1,30,32,34,36,38,40,-1,-1,42,44,-1,-1,46,-1,-1,-1,48,-1,-1,-1,-1,-1,-1,-1,-1,-1,-1,-1,-1,-1],"split_conditions":[1.7E1,5E0,1.8136E2,2.2950819E-1,1.8E1,3.846154E-1,8.4E1,1.91E2,2.89E2,8.330503E-2,2.1052632E-2,8.513976E-2,2.4971224E-2,3.3122948E-1,4.102162E-3,-1.0208078E-2,-4.3337915E-2,9E0,6.8926E-2,1.6E1,7.619048E-1,8.302475E-1,8.2222223E-1,1.4166217E1,9.911E-1,5.913502E-2,8.522696E-3,6.856514E-3,3.125E-1,-8.046939E-2,-2.453563E-2,-1.577927E-3,-6.6986054E-2,-3.0752895E-2,6.7577767E-3,6.528312E0,5.8466274E-2,-7.6822713E-3,-6.213359E-2,-8.961892E-3,4.4872086E-2,5.9511006E-2,9.544773E-3,3.5043716E-2,-2.6116569E-2,1.4057107E-2,-2.1516118E-2,-2.6944106E-2,1.903682E-2],"split_indices":[57,48,110,93,90,84,131,129,129,60,83,0,0,23,74,0,0,139,0,90,19,7,52,140,115,0,0,272,93,0,0,271,0,0,0,127,0,0,0,0,0,0,0,0,0,0,0,0,0],"split_type":[0,0,0,0,0,0,0,0,0,0,0,0,0,0,0,0,0,0,0,0,0,0,0,0,0,0,0,0,0,0,0,0,0,0,0,0,0,0,0,0,0,0,0,0,0,0,0,0,0],"sum_hessian":[2.34973E2,1.793855E2,5.55875E1,5.7508E1,1.218775E2,1.37245E1,4.1863E1,1.17105E1,4.57975E1,8.64655E1,3.5412E1,6.525E0,7.1995E0,2.9254E1,1.2609E1,6.2895E0,5.421E0,3.57605E1,1.0037E1,1.12345E1,7.5231E1,1.4033E1,2.1379E1,1.51185E1,1.41355E1,7.4305E0,5.1785E0,1.3255E1,2.25055E1,5.9425E0,5.292E0,6.8867E1,6.364E0,8.8505E0,5.1825E0,1.18345E1,9.5445E0,8.174E0,6.9445E0,9.1355E0,5E0,8E0,5.255E0,7.201E0,1.53045E1,1.45885E1,5.42785E1,5.5345E0,6.3E0],"tree_param":{"num_deleted":"0","num_feature":"291","num_nodes":"49","size_leaf_vector":"1"}},{"base_weights":[6.91918E-2,3.292525E-2,5.757111E-2,8.2778804E-2,-8.8160074E-1,-5.682857E-1,1.4063032E-1,-6.677293E-2,-1.2630478E-2,-4.8935764E-2,-5.9285257E-3,5.566024E-1,-2.0527102E-2,9.953717E-2,1.0886745E0,8.261118E-1,-1.0021564E-1,-1.9353686E-2,2.1984963E-2,-1.1260366E-2,7.118049E-2,6.936418E-2,2.5704678E-3,-3.6306694E-2,3.8852208E-4],"categories":[],"categories_nodes":[],"categories_segments":[],"categories_sizes":[],"default_left":[0,0,0,0,0,0,0,0,0,0,0,0,0,0,0,0,0,0,0,0,0,0,0,0,0],"id":31,"left_children":[1,3,-1,5,7,9,11,-1,-1,-1,-1,13,15,17,19,21,23,-1,-1,-1,-1,-1,-1,-1,-1],"loss_changes":[9.235512E0,1.0600184E1,0E0,8.385294E0,2.9320831E0,3.123272E0,1.3773897E1,0E0,0E0,0E0,0E0,1.3710739E1,1.0007825E1,5.4774404E0,1.2006023E1,5.326893E0,9.299284E0,0E0,0E0,0E0,0E0,0E0,0E0,0E0,0E0],"parents":[2147483647,0,0,1,1,3,3,4,4,5,5,6,6,11,11,12,12,13,13,14,14,15,15,16,16],"right_children":[2,4,-1,6,8,10,12,-1,-1,-1,-1,14,16,18,20,22,24,-1,-1,-1,-1,-1,-1,-1,-1],"split_conditions":[2.2361359E1,6.540038E0,5.757111E-2,-3.2107693E-1,6.466529E-1,7.834758E-3,5.5020005E-1,-6.677293E-2,-1.2630478E-2,-4.8935764E-2,-5.9285257E-3,7.5238097E-1,1.1764706E-1,-1.1656999E-2,-4.7348484E-2,1.6039629E-2,8.523696E-1,-1.9353686E-2,2.1984963E-2,-1.1260366E-2,7.118049E-2,6.936418E-2,2.5704678E-3,-3.6306694E-2,3.8852208E-4],"split_indices":[58,69,0,94,19,222,221,0,0,0,0,88,51,222,269,77,58,0,0,0,0,0,0,0,0],"split_type":[0,0,0,0,0,0,0,0,0,0,0,0,0,0,0,0,0,0,0,0,0,0,0,0,0],"sum_hessian":[2.382905E2,2.316505E2,6.64E0,2.206415E2,1.1009E1,1.71445E1,2.03497E2,5.65E0,5.359E0,8.2325E0,8.912E0,5.63125E1,1.471845E2,3.1031E1,2.52815E1,1.1748E1,1.354365E2,1.25895E1,1.84415E1,5.1415E0,2.014E1,6.2795E0,5.4685E0,1.9222E1,1.162145E2],"tree_param":{"num_deleted":"0","num_feature":"291","num_nodes":"25","size_leaf_vector":"1"}},{"base_weights":[1.16731025E-1,1.7684713E-1,-4.0263724E-1,7.717742E-2,7.0471203E-1,-5.7327557E-2,1.5151566E-1,4.3735978E-1,-6.870678E-2,1.2091889E0,2.555248E-1,3.4938898E-2,-3.3465203E-2,-1.7467876E-1,9.0300345E-1,1.4067692E-1,-3.2021242E-1,7.9704344E-2,2.0713966E-2,3.558043E-2,-9.578086E-2,3.3516653E-2,-6.6208506E-1,-1.5502632E-2,1.169109E0,3.4498012E-1,-4.2789894E-1,-5.5533606E-1,3.0583018E-1,1.7955536E-2,-2.6179573E-2,-1.7442638E-2,-4.9575146E-2,3.4337293E-2,1.1209627E-1,3.0638326E-2,-5.912648E-3,-4.95367E-2,8.779286E-3,-1.141961E-2,-6.071908E-2,-2.4609683E-2,4.2729523E-2],"categories":[],"categories_nodes":[],"categories_segments":[],"categories_sizes":[],"default_left":[0,0,0,0,0,0,0,0,0,0,0,0,0,0,0,0,0,0,0,0,0,0,0,0,0,0,0,0,0,0,0,0,0,0,0,0,0,0,0,0,0,0,0],"id":32,"left_children":[1,3,5,7,9,-1,11,13,15,17,19,-1,-1,21,23,25,27,-1,-1,-1,29,-1,31,-1,33,35,37,39,41,-1,-1,-1,-1,-1,-1,-1,-1,-1,-1,-1,-1,-1,-1],"loss_changes":[7.466646E0,1.1116241E1,1.0488582E1,9.5844E0,7.175686E0,0E0,7.2120657E0,1.5206325E1,6.8869677E0,3.8777676E0,3.2039747E0,0E0,0E0,1.0101205E1,1.0164055E1,8.408947E0,8.937139E0,0E0,0E0,0E0,2.4611433E0,0E0,1.114274E0,0E0,1.1084236E1,6.7032533E0,6.755083E0,8.983128E0,7.789678E0,0E0,0E0,0E0,0E0,0E0,0E0,0E0,0E0,0E0,0E0,0E0,0E0,0E0,0E0],"parents":[2147483647,0,0,1,1,2,2,3,3,4,4,6,6,7,7,8,8,9,9,10,10,13,13,14,14,15,15,16,16,20,20,22,22,24,24,25,25,26,26,27,27,28,28],"right_children":[2,4,6,8,10,-1,12,14,16,18,20,-1,-1,22,24,26,28,-1,-1,-1,30,-1,32,-1,34,36,38,40,42,-1,-1,-1,-1,-1,-1,-1,-1,-1,-1,-1,-1,-1,-1],"split_conditions":[1.3E1,1.9E1,8.3E1,-8.333333E0,7.1E1,-5.7327557E-2,1.1E1,4E0,3.6206895E-1,-4.4417796E0,2.1144843E0,3.4938898E-2,-3.3465203E-2,4.225E1,1.41633E0,3.888889E-1,7.888626E-1,7.9704344E-2,2.0713966E-2,3.558043E-2,6.0606062E-2,3.3516653E-2,2.173913E-1,-1.5502632E-2,1.861144E-1,2.7E1,8.176E1,8.695652E-1,1.2E1,1.7955536E-2,-2.6179573E-2,-1.7442638E-2,-4.9575146E-2,3.4337293E-2,1.1209627E-1,3.0638326E-2,-5.912648E-3,-4.95367E-2,8.779286E-3,-1.141961E-2,-6.071908E-2,-2.4609683E-2,4.2729523E-2],"split_indices":[47,57,86,270,86,0,49,137,51,67,128,0,0,6,69,23,7,0,0,0,83,0,23,0,26,95,167,52,114,0,0,0,0,0,0,0,0,0,0,0,0,0,0],"split_type":[0,