{"learner":{"attributes":{"best_iteration":"36","best_score":"1.7910697370613449","scikit_learn":"{\"_estimator_type\": \"regressor\"}"},"feature_names":["career_wt_ast_total","career_wt_avg_shot_dist","career_wt_blk_total","career_wt_corner_3_pct","career_wt_corner_3_rate","career_wt_deep_3_rate","career_wt_fga_total","career_wt_ft_pct","career_wt_games_played","career_wt_games_played_pg","career_wt_has_ws_breakout_timing_eff","career_wt_has_ws_breakout_timing_minutes","career_wt_has_ws_breakout_timing_volume","career_wt_has_ws_last10","career_wt_has_ws_last5","career_wt_has_ws_prev10","career_wt_has_ws_prev5","career_wt_minutes_total","career_wt_poss_total","career_wt_rim_fg_pct","career_wt_rim_purity","career_wt_shot_dist_var","career_wt_stl_total","career_wt_three_fg_pct","career_wt_tov_total","career_wt_trueShootingPct","career_wt_usage","career_wt_ws_breakout_timing_eff","career_wt_ws_breakout_timing_minutes","career_wt_ws_breakout_timing_volume","career_wt_ws_delta_minutes_last10_minus_prev10","career_wt_ws_delta_minutes_last5_minus_prev5","career_wt_ws_delta_pps_last10_minus_prev10","career_wt_ws_delta_pps_last5_minus_prev5","career_wt_ws_fga_last10","career_wt_ws_fga_last5","career_wt_ws_minutes_last10","career_wt_ws_minutes_last5","career_wt_ws_on_net_rating_last10_mean","career_wt_ws_on_net_rating_last5_mean","career_wt_ws_pps_last10","career_wt_ws_pps_last5","career_wt_ws_pts_last10","career_wt_ws_pts_last5","career_wt_xy_coverage","career_years","career_years_traj","college_assisted_made_mid","college_assisted_made_rim","college_assisted_made_three","college_assisted_share_mid","college_assisted_share_rim","college_assisted_share_three","college_ast_total","college_ast_total_per100poss","college_ast_total_per40","college_avg_shot_dist","college_blk_total","college_blk_total_per100poss","college_blk_total_per40","college_corner_3_pct","college_corner_3_rate","college_deep_3_rate","college_dev_has_transfer","college_dev_obs_years","college_dev_p10","college_dev_p50","college_dev_p90","college_dev_quality_weight","college_dev_rate_creation_mean","college_dev_rate_creation_sd","college_dev_rate_eff_mean","college_dev_rate_eff_sd","college_dev_rate_impact_mean","college_dev_rate_impact_sd","college_dev_rate_off_mean","college_dev_rate_off_sd","college_dev_rate_phys_mean","college_dev_rate_phys_sd","college_drb_total","college_fga_total","college_ft_att","college_ft_made","college_ft_pct","college_ft_pct_z","college_games_played","college_is_power_conf","college_mid_att","college_mid_fg_pct","college_mid_fg_pct_z","college_mid_made","college_mid_share","college_minutes_total","college_orb_total","college_poss_proxy","college_recruiting_rank","college_recruiting_rating","college_recruiting_stars","college_rim_att","college_rim_fg_pct","college_rim_fg_pct_z","college_rim_made","college_rim_purity","college_rim_share","college_shot_dist_var","college_shots_total","college_stl_total","college_stl_total_per100poss","college_stl_total_per40","college_teamId","college_team_pace","college_three_att","college_three_fg_pct","college_three_fg_pct_team_resid","college_three_fg_pct_z","college_three_made","college_three_share","college_tov_total","college_tov_total_per100poss","college_tov_total_per40","college_trb_total","college_xy_3_shots","college_xy_rim_shots","college_xy_shots","delta_ast_total","delta_avg_shot_dist","delta_blk_total","delta_corner_3_pct","delta_corner_3_rate","delta_deep_3_rate","delta_fga_total","delta_ft_pct","delta_games_played","delta_games_played_pg","delta_has_ws_breakout_timing_eff","delta_has_ws_breakout_timing_minutes","delta_has_ws_breakout_timing_volume","delta_has_ws_last10","delta_has_ws_last5","delta_has_ws_prev10","delta_has_ws_prev5","delta_height","delta_minutes_total","delta_poss_total","delta_rim_fg_pct","delta_rim_purity","delta_shot_dist_var","delta_stl_total","delta_three_fg_pct","delta_tov_total","delta_trueShootingPct","delta_usage","delta_ws_breakout_timing_eff","delta_ws_breakout_timing_minutes","delta_ws_breakout_timing_volume","delta_ws_delta_minutes_last10_minus_prev10","delta_ws_delta_minutes_last5_minus_prev5","delta_ws_delta_pps_last10_minus_prev10","delta_ws_delta_pps_last5_minus_prev5","delta_ws_fga_last10","delta_ws_fga_last5","delta_ws_minutes_last10","delta_ws_minutes_last5","delta_ws_on_net_rating_last10_mean","delta_ws_on_net_rating_last5_mean","delta_ws_pps_last10","delta_ws_pps_last5","delta_ws_pts_last10","delta_ws_pts_last5","delta_xy_coverage","final_ast_total","final_avg_shot_dist","final_blk_total","final_corner_3_pct","final_corner_3_rate","final_deep_3_rate","final_fga_total","final_ft_pct","final_games_played","final_games_played_pg","final_has_ws_breakout_timing_eff","final_has_ws_breakout_timing_minutes","final_has_ws_breakout_timing_volume","final_has_ws_last10","final_has_ws_last5","final_has_ws_prev10","final_has_ws_prev5","final_minutes_total","final_poss_per_game","final_poss_total","final_rim_fg_pct","final_rim_purity","final_season","final_shot_dist_var","final_stl_total","final_three_fg_pct","final_tov_total","final_trueShootingPct","final_trueShootingPct_team_resid","final_trueShootingPct_z","final_usage","final_usage_team_resid","final_usage_z","final_ws_breakout_timing_eff","final_ws_breakout_timing_minutes","final_ws_breakout_timing_volume","final_ws_delta_minutes_last10_minus_prev10","final_ws_delta_minutes_last5_minus_prev5","final_ws_delta_pps_last10_minus_prev10","final_ws_delta_pps_last5_minus_prev5","final_ws_fga_last10","final_ws_fga_last5","final_ws_minutes_last10","final_ws_minutes_last5","final_ws_on_net_rating_last10_mean","final_ws_on_net_rating_last5_mean","final_ws_pps_last10","final_ws_pps_last5","final_ws_pts_last10","final_ws_pts_last5","final_xy_coverage","has_spatial_data","slope_ast_total","slope_avg_shot_dist","slope_blk_total","slope_corner_3_pct","slope_corner_3_rate","slope_deep_3_rate","slope_fga_total","slope_ft_pct","slope_games_played","slope_games_played_pg","slope_has_ws_breakout_timing_eff","slope_has_ws_breakout_timing_minutes","slope_has_ws_breakout_timing_volume","slope_has_ws_last10","slope_has_ws_last5","slope_has_ws_prev10","slope_has_ws_prev5","slope_minutes_total","slope_poss_total","slope_rim_fg_pct","slope_rim_purity","slope_shot_dist_var","slope_stl_total","slope_three_fg_pct","slope_tov_total","slope_trueShootingPct","slope_usage","slope_ws_breakout_timing_eff","slope_ws_breakout_timing_minutes","slope_ws_breakout_timing_volume","slope_ws_delta_minutes_last10_minus_prev10","slope_ws_delta_minutes_last5_minus_prev5","slope_ws_delta_pps_last10_minus_prev10","slope_ws_delta_pps_last5_minus_prev5","slope_ws_fga_last10","slope_ws_fga_last5","slope_ws_minutes_last10","slope_ws_minutes_last5","slope_ws_on_net_rating_last10_mean","slope_ws_on_net_rating_last5_mean","slope_ws_pps_last10","slope_ws_pps_last5","slope_ws_pts_last10","slope_ws_pts_last5","slope_xy_coverage"],"feature_types":["float","float","float","float","float","float","float","float","float","float","float","float","float","float","float","float","float","float","float","float","float","float","float","float","float","float","float","float","float","float","float","float","float","float","float","float","float","float","float","float","float","float","float","float","float","int","int","int","int","int","float","float","float","float","float","float","float","float","float","float","float","float","float","float","float","float","float","float","float","float","float","float","float","float","float","float","float","float","float","int","int","int","int","float","float","float","int","int","float","float","int","float","int","int","float","float","float","float","int","float","float","int","float","float","float","int","float","float","float","int","float","int","float","float","float","int","float","float","float","float","int","int","int","int","float","float","float","float","float","float","float","float","float","float","float","float","float","float","float","float","float","float","float","float","float","float","float","float","float","float","float","float","float","float","float","float","float","float","float","float","float","float","float","float","float","float","float","float","float","float","int","float","int","float","float","float","int","float","float","float","float","float","float","float","float","float","float","int","float","float","float","float","int","float","int","float","int","float","float","float","float","float","float","float","float","float","float","float","float","float","float","float","float","float","float","float","float","float","float","float","float","int","float","float","float","float","float","float","float","float","float","float","float","float","float","float","float","float","float","float","float","float","float","float","float","float","float","float","float","float","float","float","float","float","float","float","float","float","float","float","float","float","float","float","float","float","float"],"gradient_booster":{"model":{"cats":{"enc":[],"feature_segments":[],"sorted_idx":[]},"gbtree_model_param":{"num_parallel_tree":"1","num_trees":"87"},"iteration_indptr":[0,1,2,3,4,5,6,7,8,9,10,11,12,13,14,15,16,17,18,19,20,21,22,23,24,25,26,27,28,29,30,31,32,33,34,35,36,37,38,39,40,41,42,43,44,45,46,47,48,49,50,51,52,53,54,55,56,57,58,59,60,61,62,63,64,65,66,67,68,69,70,71,72,73,74,75,76,77,78,79,80,81,82,83,84,85,86,87],"tree_info":[0,0,0,0,0,0,0,0,0,0,0,0,0,0,0,0,0,0,0,0,0,0,0,0,0,0,0,0,0,0,0,0,0,0,0,0,0,0,0,0,0,0,0,0,0,0,0,0,0,0,0,0,0,0,0,0,0,0,0,0,0,0,0,0,0,0,0,0,0,0,0,0,0,0,0,0,0,0,0,0,0,0,0,0,0,0,0],"trees":[{"base_weights":[-9.9685965E-3,3.717316E-1,-4.14638E-1,9.280096E-1,-1.371693E-1,-5.6982154E-1,8.9532346E-2,-3.7645698E-2,1.6442837E0,-4.9281228E-1,1.4428365E0,5.1738423E-1,-8.4012157E-1,-5.4989554E-2,6.3087523E-1,2.306793E0,5.692549E-1,2.3419315E-1,-1.0241201E0,1.4429649E-3,1.3624913E-1,-5.063776E-1,8.47254E-2,-5.1837814E-1,-1.7486418E0,5.4243144E-2,-3.90797E-4,1.3964444E-2,3.0146415E0,-2.0364925E-2,6.0832854E-2,-3.5559785E-2,7.5757504E-1,-1.5097396E0,-1.2649722E-1,-4.4803496E-2,1.0205861E-3,-7.7737236E-1,5.092424E-1,-1.2674717E0,-1.2770404E-1,9.205374E-2,1.7696784E-1,6.570934E-2,9.811668E-3,-4.5133557E-2,-1.2610309E-1,2.5915427E-2,-3.7283063E-2,-5.0718624E-2,1.4939575E-2,6.109295E-2,-6.9236443E-3,-2.9171655E-2,-7.868211E-2],"categories":[],"categories_nodes":[],"categories_segments":[],"categories_sizes":[],"default_left":[0,0,0,0,0,0,0,0,0,0,0,0,0,0,0,0,0,0,0,0,0,0,0,0,0,0,0,0,0,0,0,0,0,0,0,0,0,0,0,0,0,0,0,0,0,0,0,0,0,0,0,0,0,0,0],"id":0,"left_children":[1,3,5,7,9,11,-1,13,15,17,19,21,23,-1,25,27,29,31,33,-1,-1,35,-1,37,39,-1,-1,-1,41,-1,-1,-1,43,45,47,-1,-1,49,51,53,-1,-1,-1,-1,-1,-1,-1,-1,-1,-1,-1,-1,-1,-1,-1],"loss_changes":[3.584426E1,3.397637E1,3.9481277E1,3.9796684E1,3.6059303E1,3.1655842E1,0E0,1.869404E1,2.1853249E1,2.0514053E1,2.1023987E1,2.7100307E1,2.384578E1,0E0,4.7830544E0,2.75169E1,9.390611E0,1.1830043E1,1.2928677E1,0E0,0E0,2.634669E0,0E0,1.7617962E1,4.846916E0,0E0,0E0,0E0,1.9842682E0,0E0,0E0,0E0,4.35108E0,9.432854E0,5.145009E0,0E0,0E0,1.3656679E1,6.5235333E0,2.1623287E0,0E0,0E0,0E0,0E0,0E0,0E0,0E0,0E0,0E0,0E0,0E0,0E0,0E0,0E0,0E0],"parents":[2147483647,0,0,1,1,2,2,3,3,4,4,5,5,7,7,8,8,9,9,10,10,11,11,12,12,14,14,15,15,16,16,17,17,18,18,21,21,23,23,24,24,28,28,32,32,33,33,34,34,37,37,38,38,39,39],"right_children":[2,4,6,8,10,12,-1,14,16,18,20,22,24,-1,26,28,30,32,34,-1,-1,36,-1,38,40,-1,-1,-1,42,-1,-1,-1,44,46,48,-1,-1,50,52,54,-1,-1,-1,-1,-1,-1,-1,-1,-1,-1,-1,-1,-1,-1,-1],"split_conditions":[2.6344163E-2,2.248062E-1,2.810364E-1,4.1859865E0,1.4874142E-2,5.4406595E-1,8.9532346E-2,6.2E-1,5.6E1,-7.972919E-2,3.5E1,8.810573E0,9.777E-1,-5.4989554E-2,5.6E1,1E0,1.38E2,1.1225317E-1,3E1,1.4429649E-3,1.3624913E-1,2.0512821E-2,8.47254E-2,1.0894377E1,4E1,5.4243144E-2,-3.90797E-4,1.3964444E-2,2.2E1,-2.0364925E-2,6.0832854E-2,-3.5559785E-2,7.117748E-2,2.6E1,1.8041525E-3,-4.4803496E-2,1.0205861E-3,8.7E1,1.7688679E1,3.846154E-1,-1.2770404E-1,9.205374E-2,1.7696784E-1,6.570934E-2,9.811668E-3,-4.5133557E-2,-1.2610309E-1,2.5915427E-2,-3.7283063E-2,-5.0718624E-2,1.4939575E-2,6.109295E-2,-6.9236443E-3,-2.9171655E-2,-7.868211E-2],"split_indices":[67,91,200,58,241,197,0,99,98,113,101,107,96,0,82,95,80,200,90,0,0,241,0,58,101,0,0,0,117,0,0,0,201,90,75,0,0,98,58,88,0,0,0,0,0,0,0,0,0,0,0,0,0,0,0],"split_type":[0,0,0,0,0,0,0,0,0,0,0,0,0,0,0,0,0,0,0,0,0,0,0,0,0,0,0,0,0,0,0,0,0,0,0,0,0,0,0,0,0,0,0,0,0,0,0,0,0,0,0,0,0,0,0],"sum_hessian":[2.300325E2,1.182905E2,1.11742E2,5.6215E1,6.20755E1,1.05131E2,6.611E0,2.4284E1,3.1931E1,5.12835E1,1.0792E1,2.06775E1,8.44535E1,9.189E0,1.5095E1,1.89895E1,1.29415E1,2.18105E1,2.9473E1,5.6555E0,5.1365E0,1.13185E1,9.359E0,6.3608E1,2.08455E1,8.5065E0,6.5885E0,5.3115E0,1.36779995E1,5.2455E0,7.696E0,7.576E0,1.42345E1,1.8611E1,1.08619995E1,6.212E0,5.1065E0,5.1076E1,1.2532E1,1.47385E1,6.107E0,5.678E0,8E0,6.3845E0,7.85E0,1.28785E1,5.7325E0,5.3215E0,5.5405E0,4.1981E1,9.095E0,5.6184998E0,6.9135E0,5.5565E0,9.182E0],"tree_param":{"num_deleted":"0","num_feature":"267","num_nodes":"55","size_leaf_vector":"1"}},{"base_weights":[-0E0,-1.7276737E-1,7.804832E-1,-1.1915618E0,-1.7742453E-2,1.5943178E0,-9.266534E-3,-1.9453098E0,-3.109826E-1,7.0989174E-1,-2.730894E-1,2.1466384E0,2.3052778E-2,4.582876E-2,-4.3895137E-1,-3.900137E-2,-1.3179643E-1,3.4936935E-2,-6.773632E-2,3.469153E-1,1.4272311E-1,7.6340026E-1,-5.33338E-1,5.5866707E-2,1.3355266E-1,-4.773379E-2,1.28900185E-2,9.518417E-1,-7.7534676E-1,2.9689562E-1,1.0640756E-1,-7.23636E-1,8.8494956E-1,-7.802531E-3,9.363809E-2,-6.5111674E-2,3.570084E-3,-3.7461277E-2,5.5949714E-2,3.3004325E-2,-4.539944E-2,7.6837115E-2,-3.0142933E-4],"categories":[],"categories_nodes":[],"categories_segments":[],"categories_sizes":[],"default_left":[0,0,0,0,0,0,0,0,0,0,0,0,0,0,0,0,0,0,0,0,0,0,0,0,0,0,0,0,0,0,0,0,0,0,0,0,0,0,0,0,0,0,0],"id":1,"left_children":[1,3,5,7,9,11,13,15,17,19,21,23,-1,-1,25,-1,-1,-1,-1,27,-1,29,31,-1,-1,-1,-1,33,35,37,-1,39,41,-1,-1,-1,-1,-1,-1,-1,-1,-1,-1],"loss_changes":[3.0787003E1,2.9433022E1,2.6759628E1,1.5517536E1,3.0551851E1,1.15434E1,9.0767765E0,8.079952E0,1.4302808E1,3.1913712E1,3.3278336E1,3.8749084E0,0E0,0E0,5.966297E0,0E0,0E0,0E0,0E0,2.6336761E1,0E0,1.4919983E1,2.7111294E1,0E0,0E0,0E0,0E0,2.5961235E1,6.323951E0,1.7821947E1,0E0,2.2852955E1,7.1296806E0,0E0,0E0,0E0,0E0,0E0,0E0,0E0,0E0,0E0,0E0],"parents":[2147483647,0,0,1,1,2,2,3,3,4,4,5,5,6,6,7,7,8,8,9,9,10,10,11,11,14,14,19,19,21,21,22,22,27,27,28,28,29,29,31,31,32,32],"right_children":[2,4,6,8,10,12,14,16,18,20,22,24,-1,-1,26,-1,-1,-1,-1,28,-1,30,32,-1,-1,-1,-1,34,36,38,-1,40,42,-1,-1,-1,-1,-1,-1,-1,-1,-1,-1],"split_conditions":[1.0695789E1,6.1882716E-1,1.7899761E1,1E1,2.439088E-2,3E0,1.2829001E1,6.1702126E-1,3.8E1,6.486286E-1,5E0,-5.952381E-3,2.3052778E-2,4.582876E-2,5.879953E-1,-3.900137E-2,-1.3179643E-1,3.4936935E-2,-6.773632E-2,7.8E-1,1.4272311E-1,4E0,3.4E1,5.5866707E-2,1.3355266E-1,-4.773379E-2,1.28900185E-2,2.1794872E-1,3.320222E-2,2.013E3,1.0640756E-1,-2.0004056E-2,3.690523E-1,-7.802531E-3,9.363809E-2,-6.5111674E-2,3.570084E-3,-3.7461277E-2,5.5949714E-2,3.3004325E-2,-4.539944E-2,7.6837115E-2,-3.0142933E-4],"split_indices":[58,7,118,106,89,46,58,190,82,197,115,148,0,0,100,0,0,0,0,177,0,115,106,0,0,0,0,116,75,192,0,100,23,0,0,0,0,0,0,0,0,0,0],"split_type":[0,0,0,0,0,0,0,0,0,0,0,0,0,0,0,0,0,0,0,0,0,0,0,0,0,0,0,0,0,0,0,0,0,0,0,0,0,0,0,0,0,0,0],"sum_hessian":[2.26622E2,1.86257E2,4.0365E1,2.36305E1,1.626265E2,1.944E1,2.0925E1,1.20195E1,1.1611E1,4.1681E1,1.209455E2,1.24095E1,7.0305E0,6.2E0,1.4725E1,5.319E0,6.7005E0,6.021E0,5.59E0,3.6681E1,5E0,2.3808E1,9.71375E1,5.3095E0,7.1E0,8.3315E0,6.3935E0,2.39905E1,1.26905E1,1.8705E1,5.103E0,8.614E1,1.09975E1,1.12175E1,1.2773E1,7.564E0,5.1265E0,8.2165E0,1.04885E1,9.76E0,7.638E1,5.9975E0,5E0],"tree_param":{"num_deleted":"0","num_feature":"267","num_nodes":"43","size_leaf_vector":"1"}},{"base_weights":[4.5604568E-2,-1.2816678E-1,7.157766E-1,-3.6060184E-1,8.037805E-1,1.7312611E0,2.0206496E-1,-2.0956172E-1,-1.7096969E0,1.1295229E-1,4.1089633E-1,1.16029695E-1,3.2588724E-2,8.030712E-1,-5.470509E-1,-3.1289443E-1,6.775733E-2,-1.20745145E-1,-2.0319177E-2,-3.0395007E-2,9.2994845E-1,6.2442245E-3,7.768899E-2,3.2963452E-3,-6.032632E-2,-4.5881468E-1,8.6647683E-1,-4.404696E-3,1.2929488E0,-3.0836774E-2,3.974613E-2,-1.1059815E-3,8.8994086E-2,2.3782339E-2,8.616047E-2],"categories":[],"categories_nodes":[],"categories_segments":[],"categories_sizes":[],"default_left":[0,0,0,0,0,0,0,0,0,0,0,0,0,0,0,0,0,0,0,0,0,0,0,0,0,0,0,0,0,0,0,0,0,0,0],"id":2,"left_children":[1,3,5,7,9,11,13,15,17,-1,19,-1,-1,21,23,25,-1,-1,-1,-1,27,-1,-1,-1,-1,29,31,-1,33,-1,-1,-1,-1,-1,-1],"loss_changes":[2.6663616E1,3.9565342E1,2.40521E1,2.9211866E1,1.9649946E1,8.140701E0,1.5100108E1,2.1752747E1,1.2063049E1,0E0,1.6453579E1,0E0,0E0,9.064712E0,6.253622E0,2.1906418E1,0E0,0E0,0E0,0E0,7.745302E0,0E0,0E0,0E0,0E0,2.2679531E1,1.16252985E1,0E0,4.2769413E0,0E0,0E0,0E0,0E0,0E0,0E0],"parents":[2147483647,0,0,1,1,2,2,3,3,4,4,5,5,6,6,7,7,8,8,10,10,13,13,14,14,15,15,20,20,25,25,26,26,28,28],"right_children":[2,4,6,8,10,12,14,16,18,-1,20,-1,-1,22,24,26,-1,-1,-1,-1,28,-1,-1,-1,-1,30,32,-1,34,-1,-1,-1,-1,-1,-1],"split_conditions":[3.5891302E0,8.275862E-2,2E0,5.1282052E-2,1.924913E-1,4.1414142E-1,9.08E-1,2.8316442E-2,7.919732E-2,1.1295229E-1,-1.5686275E-2,1.16029695E-1,3.2588724E-2,5.7E1,5E0,3.5E1,6.775733E-2,-1.20745145E-1,-2.0319177E-2,-3.0395007E-2,5.549785E-1,6.2442245E-3,7.768899E-2,3.2963452E-3,-6.032632E-2,6.5608656E-1,7E0,-4.404696E-3,1E1,-3.0836774E-2,3.974613E-2,-1.1059815E-3,8.8994086E-2,2.3782339E-2,8.616047E-2],"split_indices":[59,131,45,131,199,88,96,76,198,0,241,0,0,82,106,106,0,0,0,0,25,0,0,0,0,25,57,0,115,0,0,0,0,0,0],"split_type":[0,0,0,0,0,0,0,0,0,0,0,0,0,0,0,0,0,0,0,0,0,0,0,0,0,0,0,0,0,0,0,0,0,0,0],"sum_hessian":[2.26665E2,1.805175E2,4.61475E1,1.45059E2,3.54585E1,1.4641E1,3.15065E1,1.315595E2,1.34995E1,6.474E0,2.89845E1,8.667E0,5.974E0,1.75155E1,1.3991E1,1.2422E2,7.3395E0,8.1565E0,5.343E0,9.66E0,1.93245E1,9.885E0,7.6305E0,7.639E0,6.352E0,1.11162E2,1.3058E1,5.206E0,1.41185E1,9.92485E1,1.19135E1,7.058E0,6E0,5.6755E0,8.443E0],"tree_param":{"num_deleted":"0","num_feature":"267","num_nodes":"35","size_leaf_vector":"1"}},{"base_weights":[4.3848615E-2,-6.4593154E-1,2.5337514E-1,6.630226E-2,-9.108966E-1,3.935751E-1,-1.1601374E0,-3.99179E-1,-1.8412949E0,5.235872E-1,-1.0812249E0,-2.6809398E-2,-8.6805716E-2,-7.7116346E-1,5.18455E-2,-5.9169453E-2,-1.1259271E-1,-6.766498E-2,6.568846E-1,-9.063303E-2,2.9483283E-4,9.052359E-3,-1.258223E0,1.088865E0,2.815371E-1,-7.857473E-3,-8.335888E-2,-4.3050688E-2,7.0027955E-2,1.3828882E-3,7.063698E-2],"categories":[],"categories_nodes":[],"categories_segments":[],"categories_sizes":[],"default_left":[0,0,0,0,0,0,0,0,0,0,0,0,0,0,0,0,0,0,0,0,0,0,0,0,0,0,0,0,0,0,0],"id":3,"left_children":[1,3,5,-1,7,9,11,13,15,17,19,-1,-1,21,-1,-1,-1,-1,23,-1,-1,-1,25,27,29,-1,-1,-1,-1,-1,-1],"loss_changes":[3.4614388E1,3.030674E1,3.6818176E1,0E0,2.2751736E1,3.274006E1,4.872469E0,1.8656292E1,1.6714363E0,3.964977E1,1.1229374E1,0E0,0E0,1.2958771E1,0E0,0E0,0E0,0E0,2.3170631E1,0E0,0E0,0E0,7.751957E0,4.2125107E1,2.2619686E1,0E0,0E0,0E0,0E0,0E0,0E0],"parents":[2147483647,0,0,1,1,2,2,4,4,5,5,6,6,7,7,8,8,9,9,10,10,13,13,18,18,22,22,23,23,24,24],"right_children":[2,4,6,-1,8,10,12,14,16,18,20,-1,-1,22,-1,-1,-1,-1,24,-1,-1,-1,26,28,30,-1,-1,-1,-1,-1,-1],"split_conditions":[1.3770311E0,-4.541722E-2,1.3900419E-1,6.630226E-2,2.1978023E-2,7.624512E-1,2.1621622E-1,2.140356E-1,-2.5177985E-2,4.9916804E-1,1.7E1,-2.6809398E-2,-8.6805716E-2,5.4862505E-1,5.18455E-2,-5.9169453E-2,-1.1259271E-1,-6.766498E-2,1.7213257E-2,-9.063303E-2,2.9483283E-4,9.052359E-3,1.24E2,5.925926E-1,1.3717538E-1,-7.857473E-3,-8.335888E-2,-4.3050688E-2,7.0027955E-2,1.3828882E-3,7.063698E-2],"split_indices":[58,151,150,0,229,114,50,26,150,25,106,0,0,197,0,0,0,0,248,0,0,0,109,190,201,0,0,0,0,0,0],"split_type":[0,0,0,0,0,0,0,0,0,0,0,0,0,0,0,0,0,0,0,0,0,0,0,0,0,0,0,0,0,0,0],"sum_hessian":[2.3764E2,5.47705E1,1.828695E2,5.9685E0,4.8802E1,1.67089E2,1.57805E1,3.24765E1,1.63255E1,1.542075E2,1.28815E1,8.585E0,7.1955E0,2.6218E1,6.2585E0,7.8585E0,8.467E0,9.569E0,1.446385E2,7.3565E0,5.525E0,9.0155E0,1.72025E1,6.62385E1,7.84E1,5.1E0,1.21025E1,8.842E0,5.73965E1,6.49385E1,1.34615E1],"tree_param":{"num_deleted":"0","num_feature":"267","num_nodes":"31","size_leaf_vector":"1"}},{"base_weights":[-1.7142091E-2,-1.8044272E-1,1.0518373E0,-7.2364315E-2,-1.2964269E0,4.937184E-1,1.1660635E-1,3.0013315E-2,-1.2767503E0,-1.7925396E0,-4.0276564E-4,7.770827E-2,1.2523507E-1,-2.3911697E-1,6.864102E-1,-9.6132495E-2,-1.4817934E-2,-5.9271265E-2,-1.1482495E-1,-2.2979569E-2,5.823179E-1,-4.840868E-1,4.9247664E-1,1.5624331E0,2.5457355E-1,4.5485325E-2,7.60891E-3,-7.7673853E-3,-4.8690427E-2,2.7511453E-3,1.11121014E-1,-1.7965205E-2,1.1980629E-1,-3.7071582E-2,2.8448043E-2],"categories":[],"categories_nodes":[],"categories_segments":[],"categories_sizes":[],"default_left":[0,0,0,0,0,0,0,0,0,0,0,0,0,0,0,0,0,0,0,0,0,0,0,0,0,0,0,0,0,0,0,0,0,0,0],"id":4,"left_children":[1,3,5,7,9,11,-1,13,15,17,-1,-1,19,21,23,-1,-1,-1,-1,-1,25,27,29,31,33,-1,-1,-1,-1,-1,-1,-1,-1,-1,-1],"loss_changes":[4.2769047E1,2.545528E1,2.1756851E1,2.4243664E1,1.1734148E1,8.986284E0,0E0,3.2165627E1,8.960115E0,1.0334854E0,0E0,0E0,5.3356123E0,2.3344007E1,1.9458654E1,0E0,0E0,0E0,0E0,0E0,1.3259709E0,1.5383131E1,2.4422846E1,2.8651043E1,1.1912333E1,0E0,0E0,0E0,0E0,0E0,0E0,0E0,0E0,0E0,0E0],"parents":[2147483647,0,0,1,1,2,2,3,3,4,4,5,5,7,7,8,8,9,9,12,12,13,13,14,14,20,20,21,21,22,22,23,23,24,24],"right_children":[2,4,6,8,10,12,-1,14,16,18,-1,-1,20,22,24,-1,-1,-1,-1,-1,26,28,30,32,34,-1,-1,-1,-1,-1,-1,-1,-1,-1,-1],"split_conditions":[1.225678E1,1.3900419E-1,2.016E3,7.56593E-1,1.7264493E-1,3.0555555E-1,1.1660635E-1,6.0598564E-1,3.592189E-2,8.214286E-2,-4.0276564E-4,7.770827E-2,-2.572614E-2,4.431818E-2,3.75E-1,-9.6132495E-2,-1.4817934E-2,-5.9271265E-2,-1.1482495E-1,-2.2979569E-2,-5.5786196E-2,5.6356835E-1,7.1428575E-2,-6.949501E-2,3.8051668E-1,4.5485325E-2,7.60891E-3,-7.7673853E-3,-4.8690427E-2,2.7511453E-3,1.11121014E-1,-1.7965205E-2,1.1980629E-1,-3.7071582E-2,2.8448043E-2],"split_indices":[107,150,192,114,245,88,0,25,248,241,0,0,65,241,88,0,0,0,0,0,131,25,245,150,89,0,0,0,0,0,0,0,0,0,0],"split_type":[0,0,0,0,0,0,0,0,0,0,0,0,0,0,0,0,0,0,0,0,0,0,0,0,0,0,0,0,0,0,0,0,0,0,0],"sum_hessian":[2.434155E2,2.119605E2,3.1455E1,1.94298E2,1.76625E1,2.2925E1,8.53E0,1.79898E2,1.44E1,1.24135E1,5.249E0,5.012E0,1.7913E1,1.27929E2,5.1969E1,8.04E0,6.36E0,7.241E0,5.1725E0,7.76E0,1.0153E1,9.6194E1,3.1735E1,1.62185E1,3.57505E1,5E0,5.153E0,5.84675E1,3.77265E1,2.61995E1,5.5355E0,5.043E0,1.11755E1,8.175E0,2.75755E1],"tree_param":{"num_deleted":"0","num_feature":"267","num_nodes":"35","size_leaf_vector":"1"}},{"base_weights":[6.3927665E-2,-1.1350704E-1,8.745863E-1,-2.246495E-1,1.0088342E0,1.517462E0,-3.8925886E-1,-8.4480554E-2,-1.0469296E0,-1.3461663E-2,1.6993645E0,2.1859004E0,3.5014877E-1,-4.4165883E-2,1.887258E-2,-1.8264686E-1,7.473308E-2,-1.4437203E0,1.3371909E-2,4.6159595E-2,1.05743304E-1,2.8310804E0,5.1903702E-2,-3.1662192E-2,7.120814E-2,1.8782194E-1,-5.8200425E-1,-3.0448982E-2,-1.8201435E0,1.7386E-1,8.709164E-2,-6.485831E-2,2.6879434E-2,1.754609E-2,-4.600233E-2,-1.1454671E-1,-6.338688E-2],"categories":[],"categories_nodes":[],"categories_segments":[],"categories_sizes":[],"default_left":[0,0,0,0,0,0,0,0,0,0,0,0,0,0,0,0,0,0,0,0,0,0,0,0,0,0,0,0,0,0,0,0,0,0,0,0,0],"id":5,"left_children":[1,3,5,7,9,11,13,15,17,-1,19,21,23,-1,-1,25,-1,27,-1,-1,-1,29,-1,-1,-1,31,33,-1,35,-1,-1,-1,-1,-1,-1,-1,-1],"loss_changes":[3.5440025E1,2.533642E1,3.664952E1,2.1078579E1,1.6747128E1,2.206276E1,6.3160048E0,2.477936E1,1.4427256E1,0E0,1.634903E0,1.0422623E1,1.3672493E1,0E0,0E0,2.2427258E1,0E0,5.1596756E0,0E0,0E0,0E0,1.3389664E0,0E0,0E0,0E0,4.152019E1,2.3351063E1,0E0,3.0171585E-1,0E0,0E0,0E0,0E0,0E0,0E0,0E0,0E0],"parents":[2147483647,0,0,1,1,2,2,3,3,4,4,5,5,6,6,7,7,8,8,10,10,11,11,12,12,15,15,17,17,21,21,25,25,26,26,28,28],"right_children":[2,4,6,8,10,12,14,16,18,-1,20,22,24,-1,-1,26,-1,28,-1,-1,-1,30,-1,-1,-1,32,34,-1,36,-1,-1,-1,-1,-1,-1,-1,-1],"split_conditions":[1.9E1,1.3938166E1,2.9E1,9.316E1,5.787728E-1,1.8E1,8.0128206E-4,1.1612579E-1,1.0063254E1,-1.3461663E-2,2.2221457E-2,3.3783785E-1,1.32E2,-4.4165883E-2,1.887258E-2,2.5153676E-2,7.473308E-2,-1E-1,1.3371909E-2,4.6159595E-2,1.05743304E-1,1.6E1,5.1903702E-2,-3.1662192E-2,7.120814E-2,2E0,5E0,-3.0448982E-2,3.125E-2,1.7386E-1,8.709164E-2,-6.485831E-2,2.6879434E-2,1.754609E-2,-4.600233E-2,-1.1454671E-1,-6.338688E-2],"split_indices":[57,107,90,143,19,95,144,151,107,0,67,103,95,0,0,67,0,148,0,0,0,85,0,0,0,57,48,0,148,0,0,0,0,0,0,0,0],"split_type":[0,0,0,0,0,0,0,0,0,0,0,0,0,0,0,0,0,0,0,0,0,0,0,0,0,0,0,0,0,0,0,0,0,0,0,0,0],"sum_hessian":[2.441675E2,2.00926E2,4.32415E1,1.836305E2,1.72955E1,2.85815E1,1.466E1,1.57933E2,2.56975E1,6.23E0,1.10655E1,1.7565E1,1.10165E1,8.902E0,5.758E0,1.49582E2,8.351E0,1.97215E1,5.976E0,5.0655E0,6E0,1.025E1,7.315E0,5.9165E0,5.1E0,7.77425E1,7.18395E1,7.0255E0,1.2696E1,5E0,5.25E0,1.42495E1,6.3493E1,1.90185E1,5.2821E1,5.0575E0,7.6384997E0],"tree_param":{"num_deleted":"0","num_feature":"267","num_nodes":"37","size_leaf_vector":"1"}},{"base_weights":[6.777944E-3,-1.7431107E-1,6.942086E-1,-1.3516161E0,-8.118692E-2,2.0677793E0,2.463055E-1,-3.4101497E-2,-8.811715E-2,5.8465284E-1,-3.1101173E-1,4.516411E-2,1.4480703E-1,9.446866E-1,-4.5999354E-1,1.0995114E0,-3.7713844E-1,-4.762749E-1,8.896719E-1,4.8275143E-3,1.2859302E0,2.2434577E-2,-1.0520909E0,3.76498E-1,2.1900249E0,3.860414E-2,-5.060586E-2,-1.0615463E-1,-9.3412244E-1,2.592352E-3,9.406431E-2,3.7270833E-2,7.9908155E-2,-7.407773E-2,-2.039775E-2,-1.4024125E-2,5.385988E-2,5.392861E-2,1.4759152E-1,-3.905359E-2,1.6164053E-2,-2.4632918E-2,-9.4812825E-2],"categories":[],"categories_nodes":[],"categories_segments":[],"categories_sizes":[],"default_left":[0,0,0,0,0,0,0,0,0,0,0,0,0,0,0,0,0,0,0,0,0,0,0,0,0,0,0,0,0,0,0,0,0,0,0,0,0,0,0,0,0,0,0],"id":6,"left_children":[1,3,5,7,9,11,13,-1,-1,15,17,-1,-1,19,21,23,25,27,29,-1,31,-1,33,35,37,-1,-1,39,41,-1,-1,-1,-1,-1,-1,-1,-1,-1,-1,-1,-1,-1,-1],"loss_changes":[2.877344E1,1.975865E1,2.8924898E1,2.1939945E0,2.621366E1,8.258289E0,1.9006138E1,0E0,0E0,2.2241436E1,2.5654278E1,0E0,0E0,5.3177776E0,1.090105E1,2.1734741E1,1.2477124E1,1.889065E1,1.2739817E1,0E0,8.6678123E-1,0E0,2.5356436E0,8.973474E0,5.9590187E0,0E0,0E0,1.8718943E1,2.011504E1,0E0,0E0,0E0,0E0,0E0,0E0,0E0,0E0,0E0,0E0,0E0,0E0,0E0,0E0],"parents":[2147483647,0,0,1,1,2,2,3,3,4,4,5,5,6,6,9,9,10,10,13,13,14,14,15,15,16,16,17,17,18,18,20,20,22,22,23,23,24,24,27,27,28,28],"right_children":[2,4,6,8,10,12,14,-1,-1,16,18,-1,-1,20,22,24,26,28,30,-1,32,-1,34,36,38,-1,-1,40,42,-1,-1,-1,-1,-1,-1,-1,-1,-1,-1,-1,-1,-1,-1],"split_conditions":[1.8E1,2.0689656E-1,4.32E0,-7.5E0,5.4428387E-1,1.0501814E-1,6.981132E-1,-3.4101497E-2,-8.811715E-2,1.9601295E-2,2.0150034E0,4.516411E-2,1.4480703E-1,5.964912E-1,1.6E1,3.375E-1,1.6747986E-1,2.0958466E-2,5.695524E0,4.8275143E-3,3.9285713E-1,2.2434577E-2,2.12E2,1.4818935E-1,-8.527132E-2,3.860414E-2,-5.060586E-2,8.311E-1,2.5487257E1,2.592352E-3,9.406431E-2,3.7270833E-2,7.9908155E-2,-7.407773E-2,-2.039775E-2,-1.4024125E-2,5.385988E-2,5.392861E-2,1.4759152E-1,-3.905359E-2,1.6164053E-2,-2.4632918E-2,-9.4812825E-2],"split_indices":[57,88,110,228,197,26,177,0,0,113,202,0,0,83,85,51,200,151,107,0,50,0,80,199,148,0,0,96,54,0,0,0,0,0,0,0,0,0,0,0,0,0,0],"split_type":[0,0,0,0,0,0,0,0,0,0,0,0,0,0,0,0,0,0,0,0,0,0,0,0,0,0,0,0,0,0,0,0,0,0,0,0,0,0,0,0,0,0,0],"sum_hessian":[2.28748E2,1.81529E2,4.7219E1,1.2237E1,1.69292E2,1.0667E1,3.6552E1,5.7565002E0,6.4805E0,4.2932E1,1.2636E2,5.353E0,5.314E0,1.82805E1,1.82715E1,2.79375E1,1.49945E1,1.116755E2,1.46845E1,5.697E0,1.25835E1,7.2375E0,1.1034E1,1.76635E1,1.0274E1,5.2035E0,9.791E0,6.2556E1,4.91195E1,8.5845E0,6.1E0,5.965E0,6.6184998E0,5.747E0,5.287E0,9.352E0,8.3115E0,5.214E0,5.06E0,2.40975E1,3.84585E1,3.4778E1,1.43415E1],"tree_param":{"num_deleted":"0","num_feature":"267","num_nodes":"43","size_leaf_vector":"1"}},{"base_weights":[5.6595895E-2,-8.252617E-1,2.2552274E-1,-1.2560014E0,2.5643975E-2,3.2225385E-1,-1.3965136E0,-3.333281E-3,-1.5014791E0,4.8347548E-1,-6.3606423E-1,-8.474744E-2,-4.4044E-2,-9.23245E-2,-3.5607766E-2,-5.766488E-2,5.8321357E-1,-1.1777638E0,4.2293172E-2,9.9058247E-1,9.954491E-2,-6.719506E-3,-1.544779E0,7.8551605E-2,1.9399088E-2,6.463414E-2,-1.4198177E-2,-1.0405957E-1,-5.269134E-2],"categories":[],"categories_nodes":[],"categories_segments":[],"categories_sizes":[],"default_left":[0,0,0,0,0,0,0,0,0,0,0,0,0,0,0,0,0,0,0,0,0,0,0,0,0,0,0,0,0],"id":7,"left_children":[1,3,5,7,-1,9,11,-1,13,15,17,-1,-1,-1,-1,-1,19,21,-1,23,25,-1,27,-1,-1,-1,-1,-1,-1],"loss_changes":[3.6265232E1,2.3266594E1,3.242493E1,8.4842415E0,0E0,3.0240467E1,4.0109634E-2,0E0,5.1559906E0,2.7809738E1,2.3712593E1,0E0,0E0,0E0,0E0,0E0,3.0871155E1,7.7273636E0,0E0,2.9064682E1,3.4025837E1,0E0,1.5719604E0,0E0,0E0,0E0,0E0,0E0,0E0],"parents":[2147483647,0,0,1,1,2,2,3,3,5,5,6,6,8,8,9,9,10,10,16,16,17,17,19,19,20,20,22,22],"right_children":[2,4,6,8,-1,10,12,-1,14,16,18,-1,-1,-1,-1,-1,20,22,-1,24,26,-1,28,-1,-1,-1,-1,-1,-1],"split_conditions":[9.485866E-1,9.7619045E-1,9.0647787E-1,-1.904762E-2,2.5643975E-2,1.0808E2,9.585E-1,-3.333281E-3,8.997916E0,7.239404E-2,5.7E1,-8.474744E-2,-4.4044E-2,-9.23245E-2,-3.5607766E-2,-5.766488E-2,2.4264347E-2,1.6091955E-1,4.2293172E-2,2.248062E-1,5E0,-6.719506E-3,6E1,7.8551605E-2,1.9399088E-2,6.463414E-2,-1.4198177E-2,-1.0405957E-1,-5.269134E-2],"split_indices":[58,52,114,229,0,143,96,0,107,200,101,0,0,0,0,0,67,103,0,91,48,0,98,0,0,0,0,0,0],"split_type":[0,0,0,0,0,0,0,0,0,0,0,0,0,0,0,0,0,0,0,0,0,0,0,0,0,0,0,0,0],"sum_hessian":[2.41594E2,3.81195E1,2.034745E2,2.894E1,9.1795E0,1.928375E2,1.0637E1,5.2385E0,2.37015E1,1.65581E2,2.72565E1,5.166E0,5.471E0,1.54725E1,8.229E0,8.846E0,1.56735E2,2.016E1,7.0965E0,8.4397E1,7.2338E1,5.6725E0,1.44875E1,4.20855E1,4.23115E1,1.70825E1,5.52555E1,5.278E0,9.2095E0],"tree_param":{"num_deleted":"0","num_feature":"267","num_nodes":"29","size_leaf_vector":"1"}},{"base_weights":[-5.603112E-2,-2.570587E-1,6.067871E-1,-3.3573022E-1,8.3829165E-2,-2.5521237E-1,1.2073276E0,2.1344712E-2,-6.787054E-1,1.6914222E-1,-6.0519107E-2,2.2837293E0,4.7560626E-1,-1.0947206E0,3.5649642E-1,3.5386782E-2,-8.156603E-1,-2.1227354E-2,5.5419195E-2,6.7164086E-2,1.5454207E-1,-2.3296902E-2,1.1222868E0,-1.707145E-3,-1.4933202E0,9.551816E-2,1.0107789E-1,-9.6170956E-1,1.7506167E-1,2.5703995E-2,8.249975E-2,-1.0140425E-1,-4.489616E-2,1.447514E-2,-7.9975195E-2,-2.55406E-2,-6.613043E-2,5.2741867E-2,-3.6335107E-2],"categories":[],"categories_nodes":[],"categories_segments":[],"categories_sizes":[],"default_left":[0,0,0,0,0,0,0,0,0,0,0,0,0,0,0,0,0,0,0,0,0,0,0,0,0,0,0,0,0,0,0,0,0,0,0,0,0,0,0],"id":8,"left_children":[1,3,5,7,-1,9,11,13,15,17,-1,19,21,23,25,-1,27,-1,-1,-1,-1,-1,29,-1,31,33,-1,35,37,-1,-1,-1,-1,-1,-1,-1,-1,-1,-1],"loss_changes":[3.0993952E1,2.7597795E1,2.8409819E1,2.1205925E1,0E0,9.620107E0,2.394395E1,3.2237785E1,1.7327972E1,9.857016E0,0E0,5.0324707E0,1.30373745E1,8.20278E0,2.8472443E1,0E0,1.1933247E1,0E0,0E0,0E0,0E0,0E0,2.93993E0,0E0,2.4589996E0,1.9584112E1,0E0,1.0634651E1,9.63292E0,0E0,0E0,0E0,0E0,0E0,0E0,0E0,0E0,0E0,0E0],"parents":[2147483647,0,0,1,1,2,2,3,3,5,5,6,6,7,7,8,8,9,9,11,11,12,12,13,13,14,14,16,16,22,22,24,24,25,25,27,27,28,28],"right_children":[2,4,6,8,-1,10,12,14,16,18,-1,20,22,24,26,-1,28,-1,-1,-1,-1,-1,30,-1,32,34,-1,36,38,-1,-1,-1,-1,-1,-1,-1,-1,-1,-1],"split_conditions":[1.0063254E1,8.873826E-1,2.2984984E0,2.4306929E-2,8.3829165E-2,5.5E1,1.2188E2,3E0,9E0,5.634778E-2,-6.0519107E-2,9.852E-1,4.6E1,-3.183024E-2,3.2955974E-2,3.5386782E-2,8.552632E-1,-2.1227354E-2,5.5419195E-2,6.7164086E-2,1.5454207E-1,-2.3296902E-2,5.1746666E1,-1.707145E-3,1.9723183E-1,2.9209873E1,1.0107789E-1,1.4739945E1,8.75E-1,2.5703995E-2,8.249975E-2,-1.0140425E-1,-4.489616E-2,1.447514E-2,-7.9975195E-2,-2.55406E-2,-6.613043E-2,5.2741867E-2,-3.6335107E-2],"split_indices":[107,7,58,67,0,53,189,57,117,247,0,96,98,229,241,0,83,0,0,0,0,0,240,0,116,54,0,118,83,0,0,0,0,0,0,0,0,0,0],"split_type":[0,0,0,0,0,0,0,0,0,0,0,0,0,0,0,0,0,0,0,0,0,0,0,0,0,0,0,0,0,0,0,0,0,0,0,0,0,0,0],"sum_hessian":[2.30701E2,1.775995E2,5.31015E1,1.715E2,6.0995E0,2.1972E1,3.11295E1,8.43395E1,8.71605E1,1.57105E1,6.2615E0,1.1684E1,1.94455E1,1.88855E1,6.5454E1,7.3955E0,7.9765E1,9.8965E0,5.814E0,6.684E0,5E0,7.9685E0,1.1477E1,5.524E0,1.33615E1,5.7551E1,7.903E0,6.96305E1,1.01345E1,6.337E0,5.14E0,5.683E0,7.6785E0,5.2438E1,5.113E0,3.21525E1,3.7478E1,5.1E0,5.0345E0],"tree_param":{"num_deleted":"0","num_feature":"267","num_nodes":"39","size_leaf_vector":"1"}},{"base_weights":[1.908728E-2,3.8066378E-1,-3.1055897E-1,-6.566657E-1,6.424741E-1,5.6529105E-2,-4.201648E-1,-1.1955247E0,1.2785728E-2,1.6383555E0,7.726746E-2,-2.5340608E-1,-1.285925E0,-7.5569905E-2,-3.1859387E-2,-1.4469094E-3,2.2918055E0,-1.7864689E-1,1.0754801E0,-7.9875916E-1,-4.5726363E-2,-1.6564564E0,-1.312829E-2,2.910112E0,3.252909E-2,1.5892369E-1,-1.0997427E0,5.196504E-3,8.647981E-2,-1.2368373E0,1.4874811E-2,-4.7047654E-1,4.1319516E-1,-4.2686544E-2,-1.0116377E-1,1.0081986E-1,2.0752442E-1,-2.4978058E-2,3.289072E-2,-7.9474874E-2,-1.4646853E-2,-7.830509E-2,-9.764384E-3,1.623984E-2,-5.449604E-2,7.62991E-2,1.5712448E-3],"categories":[],"categories_nodes":[],"categories_segments":[],"categories_sizes":[],"default_left":[0,0,0,0,0,0,0,0,0,0,0,0,0,0,0,0,0,0,0,0,0,0,0,0,0,0,0,0,0,0,0,0,0,0,0,0,0,0,0,0,0,0,0,0,0,0,0],"id":9,"left_children":[1,3,5,7,9,-1,11,13,-1,15,17,19,21,-1,-1,-1,23,25,27,29,31,33,-1,35,-1,37,39,-1,-1,41,-1,43,45,-1,-1,-1,-1,-1,-1,-1,-1,-1,-1,-1,-1,-1,-1],"loss_changes":[2.8826565E1,3.1769766E1,2.0364601E1,1.2041834E1,5.1909706E1,0E0,1.6589289E1,1.4909229E0,0E0,3.675576E1,1.5681653E1,1.1258873E1,6.4838657E0,0E0,0E0,0E0,2.2206833E1,1.5430038E1,7.5956564E0,1.3676804E1,1.4616829E1,1.9623184E0,0E0,1.0051285E1,0E0,1.2327574E1,4.594736E0,0E0,0E0,6.3493195E0,0E0,1.963831E1,1.5076977E1,0E0,0E0,0E0,0E0,0E0,0E0,0E0,0E0,0E0,0E0,0E0,0E0,0E0,0E0],"parents":[2147483647,0,0,1,1,2,2,3,3,4,4,6,6,7,7,9,9,10,10,11,11,12,12,16,16,17,17,18,18,19,19,20,20,21,21,23,23,25,25,26,26,29,29,31,31,32,32],"right_children":[2,4,6,8,10,-1,12,14,-1,16,18,20,22,-1,-1,-1,24,26,28,30,32,34,-1,36,-1,38,40,-1,-1,42,-1,44,46,-1,-1,-1,-1,-1,-1,-1,-1,-1,-1,-1,-1,-1,-1],"split_conditions":[2.4095415E-1,3E0,2.872E1,4.0857263E-2,1.5E1,5.6529105E-2,4.3001089E-1,1.4634146E-1,1.2785728E-2,5.537365E0,3.1E1,5.5845445E-3,1.85E2,-7.5569905E-2,-3.1859387E-2,-1.4469094E-3,3.7E1,8.593034E0,1.5E-1,4.4780132E-1,8.0128206E-4,7.976015E-1,-1.312829E-2,9.7833336E1,3.252909E-2,-5.42024E-2,1.368293E-1,5.196504E-3,8.647981E-2,9.737404E0,1.4874811E-2,2.0984E2,3.6720315E-1,-4.2686544E-2,-1.0116377E-1,1.0081986E-1,2.0752442E-1,-2.4978058E-2,3.289072E-2,-7.9474874E-2,-1.4646853E-2,-7.830509E-2,-9.764384E-3,1.623984E-2,-5.449604E-2,7.62991E-2,1.5712448E-3],"split_indices":[89,57,94,67,85,0,23,50,0,107,106,198,80,0,0,0,101,107,50,89,241,202,0,6,0,148,26,0,0,107,0,94,199,0,0,0,0,0,0,0,0,0,0,0,0,0,0],"split_type":[0,0,0,0,0,0,0,0,0,0,0,0,0,0,0,0,0,0,0,0,0,0,0,0,0,0,0,0,0,0,0,0,0,0,0,0,0,0,0,0,0,0,0,0,0,0,0],"sum_hessian":[2.397985E2,1.144315E2,1.25367E2,2.268E1,9.17515E1,8.138E0,1.17229E2,1.41325E1,8.5475E0,3.2468E1,5.92835E1,9.94765E1,1.77525E1,7.8215E0,6.311E0,9.368E0,2.31E1,4.776E1,1.15235E1,2.6517E1,7.29595E1,1.25075E1,5.245E0,1.6173E1,6.927E0,3.5477E1,1.2283E1,5.1645E0,6.359E0,1.89195E1,7.5975E0,3.79905E1,3.4969E1,5.052E0,7.4555E0,1.0973E1,5.2E0,1.52055E1,2.02715E1,6.9625E0,5.3205E0,1.39195E1,5E0,1.6772E1,2.12185E1,8.1E0,2.6869E1],"tree_param":{"num_deleted":"0","num_feature":"267","num_nodes":"47","size_leaf_vector":"1"}},{"base_weights":[1.3690125E-3,-1.5606081E-1,6.3088113E-1,6.221202E-1,-2.5980577E-1,1.31273E0,-1.1978235E-1,-2.4534795E-2,1.3560388E0,7.521526E-2,-6.431355E-1,1.1334572E-1,6.5633273E-1,5.7636805E-2,-6.0410726E-1,4.4197906E-3,1.17183626E-1,-6.501776E-1,4.6921387E-1,-3.2331827E-1,-1.3471485E0,6.75069E-2,-1.39393E-3,9.249534E-4,-6.1827537E-2,-1.41123505E-2,-1.4623016E0,-5.1145222E-2,6.8311906E-1,-7.292602E-2,-8.593579E-2,-1.8147402E0,2.3126046E-3,-3.34385E-2,2.4946623E-2,-3.4515213E-2,-9.052267E-2,-1.8813962E-2,4.83333E-2,5.8151516E-3,-6.9152385E-2,-4.580431E-2,-1.0749852E-1],"categories":[],"categories_nodes":[],"categories_segments":[],"categories_sizes":[],"default_left":[0,0,0,0,0,0,0,0,0,0,0,0,0,0,0,0,0,0,0,0,0,0,0,0,0,0,0,0,0,0,0,0,0,0,0,0,0,0,0,0,0,0,0],"id":10,"left_children":[1,3,5,7,9,11,13,-1,15,17,19,-1,21,-1,23,-1,-1,25,27,29,31,-1,-1,-1,-1,33,35,-1,37,-1,39,41,-1,-1,-1,-1,-1,-1,-1,-1,-1,-1,-1],"loss_changes":[2.4447569E1,1.6016151E1,2.5551659E1,1.9810425E1,2.2514685E1,1.4523037E1,1.5649337E1,0E0,1.7554783E1,2.711595E1,1.7775711E1,0E0,8.188185E0,0E0,7.370631E0,0E0,0E0,1.7069714E1,2.0294334E1,1.5226198E1,1.6604069E1,0E0,0E0,0E0,0E0,6.9983363E0,2.4183216E0,0E0,1.6778511E1,0E0,1.3069381E1,3.4055214E0,0E0,0E0,0E0,0E0,0E0,0E0,0E0,0E0,0E0,0E0,0E0],"parents":[2147483647,0,0,1,1,2,2,3,3,4,4,5,5,6,6,8,8,9,9,10,10,12,12,14,14,17,17,18,18,19,19,20,20,25,25,26,26,28,28,30,30,31,31],"right_children":[2,4,6,8,10,12,14,-1,16,18,20,-1,22,-1,24,-1,-1,26,28,30,32,-1,-1,-1,-1,34,36,-1,38,-1,40,42,-1,-1,-1,-1,-1,-1,-1,-1,-1,-1,-1],"split_conditions":[1.9E1,-5.256E1,5.6E1,3.0241862E-1,3.6842105E-1,4.3E1,4.4937086E0,-2.4534795E-2,-3.3564813E-2,1.3770311E0,3.648E1,1.1334572E-1,1E1,5.7636805E-2,5.963399E-2,4.4197906E-3,1.17183626E-1,3.905538E-2,-1.988E1,-5.6028716E-2,6.005483E-1,6.75069E-2,-1.39393E-3,9.249534E-4,-6.1827537E-2,3.5643566E-1,8.811928E-2,-5.1145222E-2,5.0966873E0,-7.292602E-2,1.9444445E-1,3.3E1,2.3126046E-3,-3.34385E-2,2.4946623E-2,-3.4515213E-2,-9.052267E-2,-1.8813962E-2,4.83333E-2,5.8151516E-3,-6.9152385E-2,-4.580431E-2,-1.0749852E-1],"split_indices":[57,143,87,23,51,101,107,0,131,58,143,0,95,0,198,0,0,151,143,198,25,0,0,0,0,88,201,0,119,0,113,117,0,0,0,0,0,0,0,0,0,0,0],"split_type":[0,0,0,0,0,0,0,0,0,0,0,0,0,0,0,0,0,0,0,0,0,0,0,0,0,0,0,0,0,0,0,0,0,0,0,0,0,0,0,0,0,0,0],"sum_hessian":[2.442135E2,1.958325E2,4.8381E1,2.23355E1,1.73497E2,2.503E1,2.3351E1,8.954E0,1.33815E1,9.2872E1,8.0625E1,9.139E0,1.5891E1,6E0,1.7351E1,6.3815002E0,7E0,3.23705E1,6.05015E1,5.6541E1,2.4084E1,7.4795E0,8.4115E0,9.153E0,8.198E0,1.87925E1,1.3578E1,7.053E0,5.34485E1,8.816E0,4.7725E1,1.786E1,6.224E0,8.209E0,1.05835E1,5.2365E0,8.3415E0,1.11415E1,4.2307E1,4.20085E1,5.7165E0,5.9475E0,1.19125E1],"tree_param":{"num_deleted":"0","num_feature":"267","num_nodes":"43","size_leaf_vector":"1"}},{"base_weights":[-2.1972736E-2,-7.367966E-1,1.3076103E-1,3.0052025E-2,-1.1146891E0,5.521776E-1,-1.4015926E-1,-1.4695735E0,-1.3550579E-2,1.1651992E0,5.6191035E-2,-5.553475E-1,4.430875E-1,-4.1667864E-2,-1.8266224E0,1.5900457E0,-1.6119612E-2,-6.9262725E-1,6.3593435E-1,-2.1755901E-1,-1.4047521E0,9.8216844E-1,-2.5894952E-1,-1.1070865E-1,-4.963838E-2,9.5540327E-1,2.2064233E0,-1.6403073E-1,-8.616529E-2,8.9236654E-2,1.2558764E-1,1.0340338E-1,-8.847047E-1,-1.43648265E-2,-1.7749008E0,1.690752E-1,1.5373375E0,4.292251E-1,-5.5982973E-2,2.6111482E-3,9.330261E-2,6.2247623E-2,1.3503331E-1,8.221431E-3,-3.0763466E-2,-1.7100735E-2,5.6689948E-2,3.1475894E-2,-1.893325E-2,-7.135001E-2,-2.6557667E-3,-4.6394236E-2,-1.101409E-1,-2.459619E-2,4.225575E-2,1.3185534E-1,2.7525216E-2,5.2579906E-2,-1.5275734E-2],"categories":[],"categories_nodes":[],"categories_segments":[],"categories_sizes":[],"default_left":[0,0,0,0,0,0,0,0,0,0,0,0,0,0,0,0,0,0,0,0,0,0,0,0,0,0,0,0,0,0,0,0,0,0,0,0,0,0,0,0,0,0,0,0,0,0,0,0,0,0,0,0,0,0,0,0,0,0,0],"id":11,"left_children":[1,3,5,-1,7,9,11,13,-1,15,17,19,21,-1,23,25,-1,27,29,31,33,35,37,-1,-1,39,41,43,-1,-1,45,47,49,-1,51,53,55,57,-1,-1,-1,-1,-1,-1,-1,-1,-1,-1,-1,-1,-1,-1,-1,-1,-1,-1,-1,-1,-1],"loss_changes":[2.5052912E1,2.1151472E1,2.1653454E1,0E0,8.98447E0,2.2359703E1,2.8217733E1,3.245308E0,0E0,2.1510803E1,1.872524E1,1.9040781E1,1.8670544E1,0E0,1.7641602E0,7.710861E0,0E0,9.764812E0,1.3857072E1,1.0857843E1,7.1752014E0,1.2076267E1,1.3440852E1,0E0,0E0,1.1726335E1,2.0881958E0,2.1602514E0,0E0,0E0,8.948902E0,9.012319E0,7.180849E0,0E0,2.7430382E0,6.0093403E0,1.5884979E1,6.227378E0,0E0,0E0,0E0,0E0,0E0,0E0,0E0,0E0,0E0,0E0,0E0,0E0,0E0,0E0,0E0,0E0,0E0,0E0,0E0,0E0,0E0],"parents":[2147483647,0,0,1,1,2,2,4,4,5,5,6,6,7,7,9,9,10,10,11,11,12,12,14,14,15,15,17,17,18,18,19,19,20,20,21,21,22,22,25,25,26,26,27,27,30,30,31,31,32,32,34,34,35,35,36,36,37,37],"right_children":[2,4,6,-1,8,10,12,14,-1,16,18,20,22,-1,24,26,-1,28,30,32,34,36,38,-1,-1,40,42,44,-1,-1,46,48,50,-1,52,54,56,58,-1,-1,-1,-1,-1,-1,-1,-1,-1,-1,-1,-1,-1,-1,-1,-1,-1,-1,-1,-1,-1],"split_conditions":[3.5217467E-1,-7.54E0,3.559322E-1,3.0052025E-2,5.660036E-3,2.2330096E-1,7.137446E-1,5E0,-1.3550579E-2,7.7E1,1.2E1,4.5099042E-2,8E0,-4.1667864E-2,2.017E3,3.1914893E-1,-1.6119612E-2,7.5238097E-1,2.014E3,2.81E2,1.9E1,3.3906667E0,7E0,-1.1070865E-1,-4.963838E-2,1.87E2,2.1E1,3.018868E-1,-8.616529E-2,8.9236654E-2,3.6E1,1.7753096E1,4.4E1,-1.43648265E-2,6.086956E-1,3.4285715E-1,1.94E2,7.54676E-1,-5.5982973E-2,2.6111482E-3,9.330261E-2,6.2247623E-2,1.3503331E-1,8.221431E-3,-3.0763466E-2,-1.7100735E-2,5.6689948E-2,3.1475894E-2,-1.893325E-2,-7.135001E-2,-2.6557667E-3,-4.6394236E-2,-1.101409E-1,-2.459619E-2,4.225575E-2,1.3185534E-1,2.7525216E-2,5.2579906E-2,-1.5275734E-2],"split_indices":[59,240,51,0,76,91,19,48,0,82,228,71,47,0,192,88,0,83,192,109,117,110,49,0,0,80,53,91,0,0,90,118,53,0,19,103,105,19,0,0,0,0,0,0,0,0,0,0,0,0,0,0,0,0,0,0,0,0,0],"split_type":[0,0,0,0,0,0,0,0,0,0,0,0,0,0,0,0,0,0,0,0,0,0,0,0,0,0,0,0,0,0,0,0,0,0,0,0,0,0,0,0,0,0,0,0,0,0,0,0,0,0,0,0,0,0,0,0,0,0,0],"sum_hessian":[2.270315E2,3.9411E1,1.876205E2,8.492E0,3.0919E1,7.31565E1,1.14464E2,2.11585E1,9.7605E0,3.20245E1,4.1132E1,6.69935E1,4.74705E1,8.905E0,1.22535E1,2.4909E1,7.1155E0,1.77885E1,2.33435E1,4.8915E1,1.80785E1,2.6706501E1,2.0764E1,7.1535E0,5.1E0,1.3609E1,1.13E1,1.25885E1,5.2E0,6.352E0,1.69915E1,3.34955E1,1.54195E1,5.0075E0,1.3071E1,1.14385E1,1.5268E1,1.17525E1,9.0115E0,7.4185E0,6.1905E0,5.1E0,6.2E0,7.525E0,5.0635E0,1.19915E1,5E0,1.5969E1,1.75265E1,8.827E0,6.5925E0,5.529E0,7.542E0,5.8465E0,5.592E0,6.382E0,8.886E0,6.203E0,5.5495E0],"tree_param":{"num_deleted":"0","num_feature":"267","num_nodes":"59","size_leaf_vector":"1"}},{"base_weights":[8.50148E-2,-9.261573E-2,8.557179E-1,-1.4974996E-1,8.1755824E-2,1.3225743E0,-4.175287E-1,-8.714039E-2,-8.721563E-2,7.096869E-1,2.3020906E0,1.934979E-2,-6.5709434E-2,-6.289805E-1,1.1461334E-1,1.1710882E0,-2.206604E-2,6.836968E-2,1.380052E-1,-9.610967E-1,2.5314376E-1,-1.4427911E-2,1.3065182E0,1.6655656E-2,7.7093415E-2,-6.1787754E-2,-2.255609E-2,5.5256616E-2,-3.97983E-2,-4.273908E-2,9.399359E-3,8.873417E-2,2.4615414E-2],"categories":[],"categories_nodes":[],"categories_segments":[],"categories_sizes":[],"default_left":[0,0,0,0,0,0,0,0,0,0,0,0,0,0,0,0,0,0,0,0,0,0,0,0,0,0,0,0,0,0,0,0,0],"id":12,"left_children":[1,3,5,7,-1,9,11,13,-1,15,17,-1,-1,19,21,23,-1,-1,-1,25,27,29,31,-1,-1,-1,-1,-1,-1,-1,-1,-1,-1],"loss_changes":[3.217294E1,1.8937014E1,2.6802986E1,1.820684E1,0E0,1.7575588E1,9.625831E0,1.978141E1,0E0,1.2007682E1,9.503403E-1,0E0,0E0,1.4692511E1,2.041093E1,4.1716633E0,0E0,0E0,0E0,4.3086815E0,1.3543057E1,2.0603254E1,3.8384304E0,0E0,0E0,0E0,0E0,0E0,0E0,0E0,0E0,0E0,0E0],"parents":[2147483647,0,0,1,1,2,2,3,3,5,5,6,6,7,7,9,9,10,10,13,13,14,14,15,15,19,19,20,20,21,21,22,22],"right_children":[2,4,6,8,-1,10,12,14,-1,16,18,-1,-1,20,22,24,-1,-1,-1,26,28,30,32,-1,-1,-1,-1,-1,-1,-1,-1,-1,-1],"split_conditions":[1.9E1,8.873826E-1,3E1,2.297619E-1,8.1755824E-2,9.893E-1,8.874E-1,1.3066106E-1,-8.721563E-2,9.134E-1,1.8292683E-1,1.934979E-2,-6.5709434E-2,6.056386E-1,5.96034E-2,7.1304345E-1,-2.206604E-2,6.836968E-2,1.380052E-1,3.0349014E1,3.1119667E-5,1.0077935E0,2.0236847E1,1.6655656E-2,7.7093415E-2,-6.1787754E-2,-2.255609E-2,5.5256616E-2,-3.97983E-2,-4.273908E-2,9.399359E-3,8.873417E-2,2.4615414E-2],"split_indices":[57,7,90,113,0,96,96,26,0,96,91,0,0,25,67,190,0,0,0,118,151,58,54,0,0,0,0,0,0,0,0,0,0],"split_type":[0,0,0,0,0,0,0,0,0,0,0,0,0,0,0,0,0,0,0,0,0,0,0,0,0,0,0,0,0,0,0,0,0],"sum_hessian":[2.328735E2,1.89864E2,4.30095E1,1.847265E2,5.1375E0,3.14995E1,1.151E1,1.788225E2,5.904E0,2.04995E1,1.1E1,6.3075E0,5.2025E0,4.80785E1,1.30744E2,1.4683E1,5.8165E0,5E0,6E0,3.49455E1,1.3133E1,1.187875E2,1.19565E1,5.169E0,9.514E0,2.16605E1,1.3285E1,7.2705E0,5.8625E0,2.25285E1,9.6259E1,6.7645E0,5.192E0],"tree_param":{"num_deleted":"0","num_feature":"267","num_nodes":"33","size_leaf_vector":"1"}},{"base_weights":[6.337079E-2,-1.4825419E-1,5.497565E-1,-2.7855027E-1,1.1052333E0,8.3269185E-1,-5.8586216E-1,1.9847254E-1,-5.703345E-1,1.9385565E-2,9.440139E-2,1.4486513E-1,1.2087709E0,2.2430062E-2,-7.828315E-2,-6.1507355E-2,5.1652974E-1,-1.3147862E-1,-9.5464283E-1,5.967952E-1,-4.59888E-2,1.5827374E0,1.6696865E-3,9.143475E-1,-6.9136286E-1,2.9463157E-1,-7.6373273E-1,-3.3703786E-1,-1.3291601E0,6.5014504E-2,-5.71759E-3,1.8592758E0,2.4528433E-2,2.0569848E-2,1.036301E-1,-1.8914394E-2,-4.2499725E-2,5.989476E-2,-2.2355773E-2,-6.919838E-2,-1.1569346E-2,-4.5377392E-2,1.7590916E-2,-8.5260175E-2,-8.211023E-3,1.2381198E-1,3.9022133E-2],"categories":[],"categories_nodes":[],"categories_segments":[],"categories_sizes":[],"default_left":[0,0,0,0,0,0,0,0,0,0,0,0,0,0,0,0,0,0,0,0,0,0,0,0,0,0,0,0,0,0,0,0,0,0,0,0,0,0,0,0,0,0,0,0,0,0,0],"id":13,"left_children":[1,3,5,7,9,11,13,15,17,-1,-1,19,21,-1,-1,-1,23,25,27,29,-1,31,-1,33,35,37,39,41,43,-1,-1,45,-1,-1,-1,-1,-1,-1,-1,-1,-1,-1,-1,-1,-1,-1,-1],"loss_changes":[2.385248E1,2.6568707E1,2.3085766E1,2.0608055E1,7.6432705E0,1.4363117E1,1.5540195E1,2.6188738E1,1.5212147E1,0E0,0E0,1.0756312E1,1.5804329E1,0E0,0E0,0E0,2.3184643E1,1.2136473E1,1.0614159E1,8.078035E0,0E0,7.1770706E0,0E0,1.9732779E1,1.5772581E-1,1.8657274E1,5.495635E0,8.14289E0,1.25784645E1,0E0,0E0,1.2092796E1,0E0,0E0,0E0,0E0,0E0,0E0,0E0,0E0,0E0,0E0,0E0,0E0,0E0,0E0,0E0],"parents":[2147483647,0,0,1,1,2,2,3,3,4,4,5,5,6,6,7,7,8,8,11,11,12,12,16,16,17,17,18,18,19,19,21,21,23,23,24,24,25,25,26,26,27,27,28,28,31,31],"right_children":[2,4,6,8,10,12,14,16,18,-1,-1,20,22,-1,-1,-1,24,26,28,30,-1,32,-1,34,36,38,40,42,44,-1,-1,46,-1,-1,-1,-1,-1,-1,-1,-1,-1,-1,-1,-1,-1,-1,-1],"split_conditions":[6.0598564E-1,3.5E1,7.7213657E-1,5.4862505E-1,3.3333335E-2,5.9580555E0,1.1E1,-3.2107693E-1,1.2E1,1.9385565E-2,9.440139E-2,5.1652894E0,1.6325578E-2,2.2430062E-2,-7.828315E-2,-6.1507355E-2,3.95E1,4.5E1,7.565638E-2,7.1929824E-1,-4.59888E-2,1.1139401E1,1.6696865E-3,7.5789475E-1,-1E-1,3.559322E-1,1.3317599E0,1.8421052E-1,8.037825E-2,6.5014504E-2,-5.71759E-3,1.6E1,2.4528433E-2,2.0569848E-2,1.036301E-1,-1.8914394E-2,-4.2499725E-2,5.989476E-2,-2.2355773E-2,-6.919838E-2,-1.1569346E-2,-4.5377392E-2,1.7590916E-2,-8.5260175E-2,-8.211023E-3,1.2381198E-1,3.9022133E-2],"split_indices":[25,106,114,197,245,107,53,89,95,0,0,107,72,0,0,0,228,53,89,190,0,107,0,177,148,51,202,91,113,0,0,85,0,0,0,0,0,0,0,0,0,0,0,0,0,0,0],"split_type":[0,0,0,0,0,0,0,0,0,0,0,0,0,0,0,0,0,0,0,0,0,0,0,0,0,0,0,0,0,0,0,0,0,0,0,0,0,0,0,0,0,0,0,0,0,0,0],"sum_hessian":[2.2955E2,1.602955E2,6.92545E1,1.45979E2,1.43165E1,5.57255E1,1.3529E1,5.53945E1,9.05845E1,8.3165E0,6E0,2.0282E1,3.54435E1,6.795E0,6.734E0,9.5075E0,4.5887E1,4.3039E1,4.75455E1,1.46125E1,5.6695E0,2.6561E1,8.8825E0,3.47635E1,1.11235E1,2.59355E1,1.71035E1,1.8766E1,2.87795E1,7E0,7.6125E0,2.0561E1,6E0,2.52435E1,9.52E0,5.091E0,6.0325E0,1.1478E1,1.44575E1,7.074E0,1.00295E1,1.01705E1,8.5955E0,2.1341E1,7.4385E0,1.21975E1,8.3635E0],"tree_param":{"num_deleted":"0","num_feature":"267","num_nodes":"47","size_leaf_vector":"1"}},{"base_weights":[-2.5479814E-2,2.4196553E-1,-5.2062684E-1,-4.319572E-1,5.0672466E-1,-9.7101074E-1,3.540812E-2,-6.124758E-2,-7.694714E-2,-5.683358E-1,6.995027E-1,-1.1322824E0,1.0997226E-3,-3.447644E-1,4.806185E-2,-5.3440064E-1,4.4009748E-1,3.692354E-2,-6.7556284E-2,1.0754433E0,4.9159746E-3,-1.3209184E0,-5.212474E-3,1.4517185E-2,-6.07443E-1,-9.7113633E-1,1.8275743E-2,7.308194E-2,-1.5364549E-2,2.1015341E0,7.844124E-1,3.9436802E-1,-4.199632E-2,-1.248206E-2,-1.5461999E0,-1.7540999E-1,-5.6158986E-2,-6.230074E-2,-2.7231563E-2,1.7082773E-1,2.9503098E-2,2.605137E-2,8.713464E-2,-1.3934684E-2,4.6076905E-2,-3.9977454E-2,-9.014245E-2,1.7093852E-2,-3.5087798E-2],"categories":[],"categories_nodes":[],"categories_segments":[],"categories_sizes":[],"default_left":[0,0,0,0,0,0,0,0,0,0,0,0,0,0,0,0,0,0,0,0,0,0,0,0,0,0,0,0,0,0,0,0,0,0,0,0,0,0,0,0,0,0,0,0,0,0,0,0,0],"id":14,"left_children":[1,3,5,7,9,11,13,15,-1,17,19,21,-1,23,-1,25,27,-1,-1,29,31,33,-1,-1,35,37,-1,-1,-1,39,41,43,-1,-1,45,47,-1,-1,-1,-1,-1,-1,-1,-1,-1,-1,-1,-1,-1],"loss_changes":[2.9121098E1,2.5666773E1,1.945194E1,1.6426859E1,2.1743227E1,6.9847107E0,1.2851896E1,7.731178E0,0E0,1.7553162E1,2.2815521E1,6.8749924E0,0E0,4.504348E0,0E0,7.014813E0,1.260441E1,0E0,0E0,1.5047028E1,1.0793788E1,6.91798E0,0E0,0E0,3.829186E0,5.084801E-1,0E0,0E0,0E0,2.1227055E1,1.0470585E1,8.346917E0,0E0,0E0,3.1562386E0,3.3908293E0,0E0,0E0,0E0,0E0,0E0,0E0,0E0,0E0,0E0,0E0,0E0,0E0,0E0],"parents":[2147483647,0,0,1,1,2,2,3,3,4,4,5,5,6,6,7,7,9,9,10,10,11,11,13,13,15,15,16,16,19,19,20,20,21,21,24,24,25,25,29,29,30,30,31,31,34,34,35,35],"right_children":[2,4,6,8,10,12,14,16,-1,18,20,22,-1,24,-1,26,28,-1,-1,30,32,34,-1,-1,36,38,-1,-1,-1,40,42,44,-1,-1,46,48,-1,-1,-1,-1,-1,-1,-1,-1,-1,-1,-1,-1,-1],"split_conditions":[3.764E1,-3.0106707E-2,7E1,7.943925E-1,-6.0907867E-2,7.735849E-1,2.6450258E-2,5.9447646E-1,-7.694714E-2,-3.8E1,4.1414142E-1,1.7142858E-1,1.0997226E-3,2.5E1,4.806185E-2,1.6562553E-1,8.472718E-3,3.692354E-2,-6.7556284E-2,1.2696382E-1,6.6972476E-1,-1.7463125E-2,-5.212474E-3,1.4517185E-2,2.652106E0,8.223684E0,1.8275743E-2,7.308194E-2,-1.5364549E-2,7.5E1,6.289275E-1,4.4827586E-1,-4.199632E-2,-1.248206E-2,-7.9732195E-2,2.2E1,-5.6158986E-2,-6.230074E-2,-2.7231563E-2,1.7082773E-1,2.9503098E-2,2.605137E-2,8.713464E-2,-1.3934684E-2,4.6076905E-2,-3.9977454E-2,-9.014245E-2,1.7093852E-2,-3.5087798E-2],"split_indices":[240,245,98,177,198,99,65,197,0,130,88,148,0,130,0,200,247,0,0,114,99,151,0,0,108,58,0,0,0,81,199,88,0,0,241,48,0,0,0,0,0,0,0,0,0,0,0,0,0],"split_type":[0,0,0,0,0,0,0,0,0,0,0,0,0,0,0,0,0,0,0,0,0,0,0,0,0,0,0,0,0,0,0,0,0,0,0,0,0,0,0,0,0,0,0,0,0,0,0,0,0],"sum_hessian":[2.17745E2,1.415815E2,7.61635E1,3.9649E1,1.019325E2,4.17665E1,3.4397E1,3.05605E1,9.0885E0,1.5124E1,8.68085E1,3.5897E1,5.8695E0,2.47525E1,9.6445E0,1.5791E1,1.47695E1,5.639E0,9.485E0,5.58745E1,3.0934E1,3.00085E1,5.8885E0,7.1E0,1.76525E1,1.0653E1,5.138E0,5.893E0,8.8765E0,1.08955E1,4.4979E1,2.16195E1,9.3145E0,5.6575E0,2.4351E1,1.04405E1,7.212E0,5.167E0,5.486E0,5.117E0,5.7785E0,3.65745E1,8.4045E0,9.6195E0,1.2E1,7.3815002E0,1.69695E1,5.3465E0,5.094E0],"tree_param":{"num_deleted":"0","num_feature":"267","num_nodes":"49","size_leaf_vector":"1"}},{"base_weights":[5.8161233E-2,1.4226815E-1,-8.148467E-1,8.075217E-2,8.3979696E-2,-8.0159746E-2,-2.6508382E-1,-7.018571E-1,2.0300755E-1,1.774518E-2,-5.21696E-2,-1.0255829E0,7.6620826E-3,3.1648126E-1,-7.1135056E-1,-2.0603376E-2,-7.754695E-2,5.7179415E-1,-2.3660034E-2,-1.294029E0,3.905162E-2,-3.4602683E-3,4.8230227E-2,9.552747E-3,-4.4130176E-2,-2.6887706E-2,-1.1115449E-1],"categories":[],"categories_nodes":[],"categories_segments":[],"categories_sizes":[],"default_left":[0,0,0,0,0,0,0,0,0,0,0,0,0,0,0,0,0,0,0,0,0,0,0,0,0,0,0],"id":15,"left_children":[1,3,5,-1,7,-1,9,11,13,-1,-1,15,-1,17,19,-1,-1,21,23,25,-1,-1,-1,-1,-1,-1,-1],"loss_changes":[1.7141764E1,1.800473E1,8.273419E0,0E0,1.9388468E1,0E0,6.88156E0,7.787673E0,1.886606E1,0E0,0E0,5.604927E0,0E0,1.4046068E1,1.8529652E1,0E0,0E0,2.3358864E1,1.3111778E1,8.977531E0,0E0,0E0,0E0,0E0,0E0,0E0,0E0],"parents":[2147483647,0,0,1,1,2,2,4,4,6,6,7,7,8,8,11,11,13,13,14,14,17,17,18,18,19,19],"right_children":[2,4,6,-1,8,-1,10,12,14,-1,-1,16,-1,18,20,-1,-1,22,24,26,-1,-1,-1,-1,-1,-1,-1],"split_conditions":[1.3900419E-1,1E-1,6.045241E-2,8.075217E-2,-5.8232967E-2,-8.0159746E-2,5.172212E-2,3.1E1,1.3E1,1.774518E-2,-5.21696E-2,5.576923E-1,7.6620826E-3,3.7288135E-1,1.2032085E-2,-2.0603376E-2,-7.754695E-2,-3.0303031E-2,7.1E1,1.4352621E1,3.905162E-2,-3.4602683E-3,4.8230227E-2,9.552747E-3,-4.4130176E-2,-2.6887706E-2,-1.1115449E-1],"split_indices":[150,91,67,0,198,0,151,101,47,0,0,99,0,112,144,0,0,245,82,118,0,0,0,0,0,0,0],"split_type":[0,0,0,0,0,0,0,0,0,0,0,0,0,0,0,0,0,0,0,0,0,0,0,0,0,0,0],"sum_hessian":[2.317935E2,2.122925E2,1.9501E1,7E0,2.052925E2,7.15E0,1.2351E1,2.625E1,1.790425E2,7.106E0,5.245E0,1.89815E1,7.2685E0,1.59955E2,1.90875E1,9.667E0,9.3145E0,9.115E1,6.8805E1,1.38715E1,5.216E0,3.485E1,5.63E1,5.5574E1,1.3231E1,8.5765E0,5.295E0],"tree_param":{"num_deleted":"0","num_feature":"267","num_nodes":"27","size_leaf_vector":"1"}},{"base_weights":[-2.4628665E-2,9.1822165E-1,-1.1768721E-1,-1.216741E-2,1.7839615E0,-7.415181E-1,2.4444401E-2,4.245977E-2,1.17703736E-1,1.6308626E-2,-9.266745E-1,5.088632E-1,-2.964784E-1,-8.518463E-2,-6.6294545E-1,6.562462E-1,-4.9364887E-2,-7.710333E-1,1.677406E-1,-4.027025E-1,-6.70145E-2,-3.841897E-2,8.113028E-1,-3.2858944E-1,-1.4643626E0,4.6921298E-1,-5.6156646E-2,2.0666309E-3,-3.2698587E-2,7.420435E-2,1.9614613E-2,-7.11995E-2,-3.098442E-3,-3.1219473E-2,-9.428535E-2,3.854265E-2,-6.8454775E-3],"categories":[],"categories_nodes":[],"categories_segments":[],"categories_sizes":[],"default_left":[0,0,0,0,0,0,0,0,0,0,0,0,0,0,0,0,0,0,0,0,0,0,0,0,0,0,0,0,0,0,0,0,0,0,0,0,0],"id":16,"left_children":[1,3,5,-1,7,9,11,-1,-1,-1,13,15,17,-1,19,21,-1,23,25,27,-1,-1,29,31,33,35,-1,-1,-1,-1,-1,-1,-1,-1,-1,-1,-1],"loss_changes":[1.9490776E1,2.0644213E1,1.8078278E1,0E0,3.8606415E0,7.8366585E0,2.5989521E1,0E0,0E0,0E0,5.3063526E0,1.5316111E1,2.2307522E1,0E0,3.876668E0,1.4180416E1,0E0,1.465679E1,2.0490828E1,2.3588476E0,0E0,0E0,1.4983074E1,9.067638E0,5.3222046E0,7.937687E0,0E0,0E0,0E0,0E0,0E0,0E0,0E0,0E0,0E0,0E0,0E0],"parents":[2147483647,0,0,1,1,2,2,4,4,5,5,6,6,10,10,11,11,12,12,14,14,15,15,17,17,18,18,19,19,22,22,23,23,24,24,25,25],"right_children":[2,4,6,-1,8,10,12,-1,-1,-1,14,16,18,-1,20,22,-1,24,26,28,-1,-1,30,32,34,36,-1,-1,-1,-1,-1,-1,-1,-1,-1,-1,-1],"split_conditions":[-1.7290312E-1,-1.4199135E-1,1.145213E0,-1.216741E-2,1.8981548E-1,6E0,3.7254903E-1,4.245977E-2,1.17703736E-1,1.6308626E-2,4.6210723E0,7.378105E-1,5.8620816E-1,-8.518463E-2,4.9610518E-2,-1E-1,-4.9364887E-2,2.0548E2,4.5614034E-1,5E-1,-6.70145E-2,-3.841897E-2,3.8E1,-5.00091E-2,1.2468828E1,1.8965265E-1,-5.6156646E-2,2.0666309E-3,-3.2698587E-2,7.420435E-2,1.9614613E-2,-7.11995E-2,-3.098442E-3,-3.1219473E-2,-9.428535E-2,3.854265E-2,-6.8454775E-3],"split_indices":[100,144,58,0,26,53,51,0,0,0,107,100,25,0,248,131,0,94,112,52,0,0,111,198,118,200,0,0,0,0,0,0,0,0,0,0,0],"split_type":[0,0,0,0,0,0,0,0,0,0,0,0,0,0,0,0,0,0,0,0,0,0,0,0,0,0,0,0,0,0,0,0,0,0,0,0,0],"sum_hessian":[2.208225E2,1.8944E1,2.018785E2,8.3475E0,1.05965E1,3.68085E1,1.6507E2,5.024E0,5.5725E0,5.2475E0,3.1561E1,6.567E1,9.94E1,6.518E0,2.5043E1,6.0353E1,5.317E0,4.89325E1,5.04675E1,1.93505E1,5.6925E0,5.4725E0,5.48805E1,3.08585E1,1.8074E1,4.14915E1,8.976E0,7.151E0,1.21995E1,1.9995E1,3.48855E1,5.1175E0,2.5741E1,6.946E0,1.1128E1,2.7633E1,1.38585005E1],"tree_param":{"num_deleted":"0","num_feature":"267","num_nodes":"37","size_leaf_vector":"1"}},{"base_weights":[-4.0380828E-2,-1.7534614E-1,5.490408E-1,5.324727E-1,-3.0808038E-1,1.1267401E0,1.5041907E-3,-1.09709665E-1,1.2068825E0,-5.5761397E-1,1.427021E-1,9.290221E-2,1.6653478E-2,-3.0516783E-2,2.907478E-1,-2.9615194E-2,2.8707197E-2,7.751055E-3,8.823898E-2,1.865422E-1,-7.408094E-1,-9.0159184E-1,4.5480454E-1,3.0886114E-2,-1.3762672E-2,5.17199E-2,-4.636195E-1,-9.7310704E-1,-3.2230588E-3,-6.0814958E-2,-2.0390972E-2,7.438236E-1,-3.812243E-2,-1.7893635E-3,-4.1238587E-2,-1.0051493E-2,-5.5193543E-2,5.076712E-2,-2.9100155E-2,-2.4880273E-2,4.9589876E-2],"categories":[],"categories_nodes":[],"categories_segments":[],"categories_sizes":[],"default_left":[0,0,0,0,0,0,0,0,0,0,0,0,0,0,0,0,0,0,0,0,0,0,0,0,0,0,0,0,0,0,0,0,0,0,0,0,0,0,0,0,0],"id":17,"left_children":[1,3,5,7,9,11,13,15,17,19,21,-1,-1,-1,23,-1,-1,-1,-1,25,27,29,31,-1,-1,-1,33,35,37,-1,-1,39,-1,-1,-1,-1,-1,-1,-1,-1,-1],"loss_changes":[1.7600718E1,1.708304E1,1.2913877E1,1.2681669E1,1.728611E1,1.0742458E1,4.080705E0,5.4749084E0,7.8492374E0,1.3631475E1,1.8299974E1,0E0,0E0,0E0,3.1444516E0,0E0,0E0,0E0,0E0,1.1651641E1,1.3504963E1,1.3497105E0,1.572948E1,0E0,0E0,0E0,1.7441411E0,5.7337112E0,1.2412092E1,0E0,0E0,1.1442242E1,0E0,0E0,0E0,0E0,0E0,0E0,0E0,0E0,0E0],"parents":[2147483647,0,0,1,1,2,2,3,3,4,4,5,5,6,6,7,7,8,8,9,9,10,10,14,14,19,19,20,20,21,21,22,22,26,26,27,27,28,28,31,31],"right_children":[2,4,6,8,10,12,14,16,18,20,22,-1,-1,-1,24,-1,-1,-1,-1,26,28,30,32,-1,-1,-1,34,36,38,-1,-1,40,-1,-1,-1,-1,-1,-1,-1,-1,-1],"split_conditions":[4.2783155E0,-9.4017096E-2,1.4831821E-2,-1.4199135E-1,1.6355112E2,2.202166E-1,2.9566811E-2,5.9003588E-2,-5.194607E-2,-1.9999443E-2,3.326392E-1,9.290221E-2,1.6653478E-2,-3.0516783E-2,4E0,-2.9615194E-2,2.8707197E-2,7.751055E-3,8.823898E-2,3.06E0,5.862069E-1,6E0,7.692308E-1,3.0886114E-2,-1.3762672E-2,5.17199E-2,4E0,-1.6E1,4.0170133E-2,-6.0814958E-2,-2.0390972E-2,-2.541806E-2,-3.812243E-2,-1.7893635E-3,-4.1238587E-2,-1.0051493E-2,-5.5193543E-2,5.076712E-2,-2.9100155E-2,-2.4880273E-2,4.9589876E-2],"split_indices":[59,144,67,144,18,91,248,75,150,151,100,0,0,0,97,0,0,0,0,110,51,47,99,0,0,0,57,228,201,0,0,144,0,0,0,0,0,0,0,0,0],"split_type":[0,0,0,0,0,0,0,0,0,0,0,0,0,0,0,0,0,0,0,0,0,0,0,0,0,0,0,0,0,0,0,0,0,0,0,0,0,0,0,0,0],"sum_hessian":[2.19509E2,1.793205E2,4.01885E1,2.77225E1,1.51598E2,1.8952E1,2.12365E1,1.45535E1,1.3169E1,9.75715E1,5.40265E1,9.1E0,9.852E0,6.3495E0,1.4887E1,8.6965E0,5.857E0,5.0690002E0,8.1E0,1.91635E1,7.8408E1,1.1923E1,4.21035E1,9.49E0,5.397E0,8.1275E0,1.1036E1,5.92825E1,1.91255E1,6.2645E0,5.6584997E0,3.44055E1,7.698E0,5.6815E0,5.3545E0,9.0645E0,5.0218E1,6.594E0,1.25315E1,5.4934998E0,2.8912E1],"tree_param":{"num_deleted":"0","num_feature":"267","num_nodes":"41","size_leaf_vector":"1"}},{"base_weights":[-2.7325075E-2,7.342633E-2,-5.9057397E-1,4.006057E-1,-1.6109385E-1,7.970628E-3,-8.38786E-1,1.9763033E-1,1.0134622E-1,-4.150956E-1,3.465134E-1,-1.0252434E0,-1.7252302E-3,9.1127425E-1,-1.2412256E-1,-5.6724185E-1,3.1269485E-1,-3.9129928E-2,6.810199E-1,-1.50640905E-2,-1.253478E0,1.521882E0,2.6494431E-1,-6.4314656E-2,2.74467E-2,-2.7765778E-1,-1.0700791E0,4.493622E-2,-3.219989E-2,3.486111E-1,7.693485E-2,-7.998989E-2,-3.4119207E-2,4.010127E-2,9.64683E-2,-1.825239E-2,3.6549006E-2,1.241465E-2,-3.6397245E-2,5.8637154E-3,-3.3878177E-2,-1.4196192E-2,-7.696699E-2,4.9945716E-2,-9.480837E-3],"categories":[],"categories_nodes":[],"categories_segments":[],"categories_sizes":[],"default_left":[0,0,0,0,0,0,0,0,0,0,0,0,0,0,0,0,0,0,0,0,0,0,0,0,0,0,0,0,0,0,0,0,0,0,0,0,0,0,0,0,0,0,0,0,0],"id":18,"left_children":[1,3,5,7,9,-1,11,13,-1,15,17,19,-1,21,23,25,27,-1,29,-1,31,33,35,-1,37,39,41,-1,-1,43,-1,-1,-1,-1,-1,-1,-1,-1,-1,-1,-1,-1,-1,-1,-1],"loss_changes":[1.3741241E1,1.5796724E1,7.042593E0,2.774582E1,1.5594433E1,0E0,4.038227E0,1.800241E1,0E0,9.107728E0,1.5767156E1,3.1828823E0,0E0,9.016289E0,9.716584E0,9.321819E0,8.697796E0,0E0,8.323919E0,0E0,1.9785976E0,1.7626324E0,4.1510487E0,0E0,8.288957E0,7.0817356E0,8.235247E0,0E0,0E0,8.75864E0,0E0,0E0,0E0,0E0,0E0,0E0,0E0,0E0,0E0,0E0,0E0,0E0,0E0,0E0,0E0],"parents":[2147483647,0,0,1,1,2,2,3,3,4,4,6,6,7,7,9,9,10,10,11,11,13,13,14,14,15,15,16,16,18,18,20,20,21,21,22,22,24,24,25,25,26,26,29,29],"right_children":[2,4,6,8,10,-1,12,14,-1,16,18,20,-1,22,24,26,28,-1,30,-1,32,34,36,-1,38,40,42,-1,-1,44,-1,-1,-1,-1,-1,-1,-1,-1,-1,-1,-1,-1,-1,-1,-1],"split_conditions":[8.392941E-2,2.248062E-1,1.2E1,2.1929824E-1,1.778656E-2,7.970628E-3,1.004902E-1,6.016176E-1,1.0134622E-1,1.1120616E1,1.36E2,-2.8571429E-2,-1.7252302E-3,2.3E1,1.3214205E-1,3.4146342E-1,4.4937086E0,-3.9129928E-2,5.552761E-2,-1.50640905E-2,1.69E2,6.666821E-1,3.339527E-1,-6.4314656E-2,3.9278752E-1,1.8E1,5.464481E-1,4.493622E-2,-3.219989E-2,2.5153676E-2,7.693485E-2,-7.998989E-2,-3.4119207E-2,4.010127E-2,9.64683E-2,-1.825239E-2,3.6549006E-2,1.241465E-2,-3.6397245E-2,5.8637154E-3,-3.3878177E-2,-1.4196192E-2,-7.696699E-2,4.9945716E-2,-9.480837E-3],"split_indices":[150,91,117,91,144,0,229,202,0,58,109,229,0,95,26,50,107,0,67,0,109,19,23,0,23,115,197,0,0,67,0,0,0,0,0,0,0,0,0,0,0,0,0,0,0],"split_type":[0,0,0,0,0,0,0,0,0,0,0,0,0,0,0,0,0,0,0,0,0,0,0,0,0,0,0,0,0,0,0,0,0,0,0,0,0,0,0,0,0,0,0,0,0],"sum_hessian":[2.39469E2,2.037205E2,3.57485E1,8.49395E1,1.18781E2,8.878E0,2.68705E1,7.65665E1,8.373E0,7.94195E1,3.93615E1,2.14895E1,5.381E0,2.33205E1,5.3246E1,6.59835E1,1.3436E1,8.6215E0,3.074E1,5.812E0,1.56775E1,1.12155E1,1.2105E1,5.3555E0,4.78905E1,4.29815E1,2.3002E1,8.4345E0,5.0015E0,2.32515E1,7.4885E0,8.529E0,7.1485E0,5.2155E0,6E0,5.148E0,6.9570003E0,3.76785E1,1.0212E1,2.1855E1,2.11265E1,9.2775E0,1.37245E1,1.0226E1,1.30255E1],"tree_param":{"num_deleted":"0","num_feature":"267","num_nodes":"45","size_leaf_vector":"1"}},{"base_weights":[-1.0871569E-1,-1.9385365E-1,7.744114E-1,-6.116492E-1,-2.9426772E-2,-1.2972656E-2,1.1868974E0,-7.7143157E-1,3.387415E-2,5.146043E-1,-2.8767112E-1,2.3924932E-2,7.703259E-2,-1.4587848E0,-5.568837E-1,-6.0685117E-2,2.4343212E0,-5.1698244E-1,1.6102846E-1,-4.07148E-2,-9.017151E-2,-7.281937E-1,1.000443E-2,3.1599402E-1,-5.876441E-2,7.066097E-2,1.5580003E-1,-7.189843E-1,2.0261863E-1,-2.620362E-1,4.795793E-1,-5.582692E-2,-1.995037E-2,3.1244641E-2,-3.1713706E-2,-5.0889503E-2,-8.394471E-4,3.858337E-2,-1.6996011E-2,-2.9525906E-2,1.181423E-2,6.5966323E-3,4.829549E-2],"categories":[],"categories_nodes":[],"categories_segments":[],"categories_sizes":[],"default_left":[0,0,0,0,0,0,0,0,0,0,0,0,0,0,0,0,0,0,0,0,0,0,0,0,0,0,0,0,0,0,0,0,0,0,0,0,0,0,0,0,0,0,0],"id":19,"left_children":[1,3,5,7,9,-1,11,13,-1,15,17,-1,-1,19,21,23,25,27,29,-1,-1,31,-1,33,-1,-1,-1,35,37,39,41,-1,-1,-1,-1,-1,-1,-1,-1,-1,-1,-1,-1],"loss_changes":[1.7474623E1,1.4465406E1,9.111026E0,1.2804867E1,2.1646263E1,0E0,2.7819061E0,6.882862E0,0E0,5.509836E1,1.0885452E1,0E0,0E0,9.373646E-1,5.714777E0,1.6854048E1,3.1395264E0,1.0319439E1,4.9997964E0,0E0,0E0,3.8787308E0,0E0,9.175243E0,0E0,0E0,0E0,1.1356609E1,5.2249546E0,2.7903006E0,3.318009E0,0E0,0E0,0E0,0E0,0E0,0E0,0E0,0E0,0E0,0E0,0E0,0E0],"parents":[2147483647,0,0,1,1,2,2,3,3,4,4,6,6,7,7,9,9,10,10,13,13,14,14,15,15,16,16,17,17,18,18,21,21,23,23,27,27,28,28,29,29,30,30],"right_children":[2,4,6,8,10,-1,12,14,-1,16,18,-1,-1,20,22,24,26,28,30,-1,-1,32,-1,34,-1,-1,-1,36,38,40,42,-1,-1,-1,-1,-1,-1,-1,-1,-1,-1,-1,-1],"split_conditions":[1.3938166E1,6.094771E-1,-1.4774949E-2,2.1185195E0,-6.0412217E-2,-1.2972656E-2,8.076923E-1,4.6210723E0,3.387415E-2,5.4378575E-1,7.857143E-2,2.3924932E-2,7.703259E-2,5.251201E-1,5.1E1,7.4E-1,2.3738873E-1,8.2872925E0,-3.0319149E-2,-4.07148E-2,-9.017151E-2,5.9183675E-1,1.000443E-2,1.8E1,-5.876441E-2,7.066097E-2,1.5580003E-1,2.24E2,3.8768277E0,4.6666667E-1,2.0852585E-1,-5.582692E-2,-1.995037E-2,3.1244641E-2,-3.1713706E-2,-5.0889503E-2,-8.394471E-4,3.858337E-2,-1.6996011E-2,-2.9525906E-2,1.181423E-2,6.5966323E-3,4.829549E-2],"split_indices":[107,19,66,202,71,0,52,107,0,84,131,0,0,25,117,190,103,58,245,0,0,99,0,95,0,0,0,109,107,88,200,0,0,0,0,0,0,0,0,0,0,0,0],"split_type":[0,0,0,0,0,0,0,0,0,0,0,0,0,0,0,0,0,0,0,0,0,0,0,0,0,0,0,0,0,0,0,0,0,0,0,0,0,0,0,0,0,0,0],"sum_hessian":[2.30189E2,2.10764E2,1.9425E1,5.85825E1,1.521815E2,5.5765E0,1.38485E1,5.25485E1,6.034E0,4.85415E1,1.0364E2,5.49E0,8.3585005E0,1.101E1,4.15385E1,3.8054E1,1.04875E1,6.86345E1,3.50055E1,5.109E0,5.901E0,3.40115E1,7.527E0,2.89105E1,9.1435E0,5.4875E0,5E0,5.37E1,1.49345E1,1.49775E1,2.0028E1,1.4367E1,1.96445E1,2.2156E1,6.7545E0,3.7255E1,1.6445E1,7.173E0,7.7615E0,9.0365E0,5.941E0,1.25405E1,7.4875E0],"tree_param":{"num_deleted":"0","num_feature":"267","num_nodes":"43","size_leaf_vector":"1"}},{"base_weights":[2.1522492E-2,-1.079971E0,8.119732E-2,-6.4359866E-2,-3.2172102E-2,1.3295245E-2,7.9505704E-2,-1.1903983E-1,5.5381405E-1,-5.2406806E-2,-5.5434596E-2,2.606413E-1,7.9441555E-2,-1.6756776E-1,8.5314316E-1,-3.972614E-1,8.922917E-1,-1.9781634E-3,-3.9332222E-2,-5.4841763E-3,8.723004E-2,3.4275742E-3,-6.1531253E-2,6.93278E-2,4.7943727E-3],"categories":[],"categories_nodes":[],"categories_segments":[],"categories_sizes":[],"default_left":[0,0,0,0,0,0,0,0,0,0,0,0,0,0,0,0,0,0,0,0,0,0,0,0,0],"id":20,"left_children":[1,3,5,-1,-1,7,-1,9,11,13,-1,15,-1,17,19,21,23,-1,-1,-1,-1,-1,-1,-1,-1],"loss_changes":[1.5638138E1,8.4124565E-2,2.3063807E1,0E0,0E0,1.5715517E1,0E0,1.1427954E1,1.2520416E1,1.7384138E1,0E0,1.4933775E1,0E0,1.1629751E1,1.6485668E1,7.0872803E0,6.892193E0,0E0,0E0,0E0,0E0,0E0,0E0,0E0,0E0],"parents":[2147483647,0,0,1,1,2,2,5,5,7,7,8,8,9,9,11,11,13,13,14,14,15,15,16,16],"right_children":[2,4,6,-1,-1,8,-1,10,12,14,-1,16,-1,18,20,22,24,-1,-1,-1,-1,-1,-1,-1,-1],"split_conditions":[-3.5263237E-2,2E0,2.2009321E1,-6.4359866E-2,-3.2172102E-2,1.0673624E1,7.9505704E-2,6.5E1,1.2806567E-2,2.4283217E-1,-5.5434596E-2,2.9631386E0,7.9441555E-2,6.5165825E-2,1.5087314E1,1.6966406E0,1.8089725E1,-1.9781634E-3,-3.9332222E-2,-5.4841763E-3,8.723004E-2,3.4275742E-3,-6.1531253E-2,6.93278E-2,4.7943727E-3],"split_indices":[201,47,58,0,0,107,0,117,76,200,0,58,0,247,54,58,118,0,0,0,0,0,0,0,0],"split_type":[0,0,0,0,0,0,0,0,0,0,0,0,0,0,0,0,0,0,0,0,0,0,0,0,0],"sum_hessian":[2.37095E2,1.122E1,2.25875E2,6.1315E0,5.0885E0,2.17177E2,8.698E0,1.74941E2,4.2236E1,1.649865E2,9.9545E0,3.3964E1,8.272E0,1.47193E2,1.77935E1,1.67405E1,1.72235E1,1.229885E2,2.42045E1,8.922E0,8.8715E0,1.125E1,5.4905E0,1.0093E1,7.1305E0],"tree_param":{"num_deleted":"0","num_feature":"267","num_nodes":"25","size_leaf_vector":"1"}},{"base_weights":[6.859048E-3,-9.736928E-1,7.147028E-2,-6.4292826E-2,-2.0661784E-2,-6.87962E-2,6.424598E-1,6.285073E-1,-1.7996985E-1,1.4260004E0,-1.582354E-2,3.0387564E-2,8.025575E-2,-3.147729E-1,5.2739054E-1,1.8300506E0,1.0048161E-2,-4.3344805E-1,3.284621E-2,3.770342E-2,-2.0480262E-2,-1.1060108E-1,-7.935127E-1,-1.17388755E-1,1.251198E0,1.06440924E-1,5.6456007E-2,7.854528E-3,-6.1118346E-2,-1.5019029E-2,2.8625483E-2,-6.6924624E-2,-1.20027205E-2,2.0682778E-2,-3.1616822E-2,2.0807188E-2,9.62992E-2],"categories":[],"categories_nodes":[],"categories_segments":[],"categories_sizes":[],"default_left":[0,0,0,0,0,0,0,0,0,0,0,0,0,0,0,0,0,0,0,0,0,0,0,0,0,0,0,0,0,0,0,0,0,0,0,0,0],"id":21,"left_children":[1,3,5,-1,-1,7,9,11,13,15,17,19,-1,21,23,25,-1,27,-1,-1,-1,29,31,33,35,-1,-1,-1,-1,-1,-1,-1,-1,-1,-1,-1,-1],"loss_changes":[1.4793686E1,1.8229704E0,1.7753834E1,0E0,0E0,1.3843918E1,2.2705225E1,1.4118971E1,1.4845142E1,9.345238E0,7.1934376E0,5.5329933E0,0E0,1.2551574E1,1.18959255E1,3.8661957E-1,0E0,7.7131424E0,0E0,0E0,0E0,1.2150238E1,1.1171949E1,4.1192617E0,5.6725655E0,0E0,0E0,0E0,0E0,0E0,0E0,0E0,0E0,0E0,0E0,0E0,0E0],"parents":[2147483647,0,0,1,1,2,2,5,5,6,6,7,7,8,8,9,9,10,10,11,11,13,13,14,14,15,15,17,17,21,21,22,22,23,23,24,24],"right_children":[2,4,6,-1,-1,8,10,12,14,16,18,20,-1,22,24,26,-1,28,-1,-1,-1,30,32,34,36,-1,-1,-1,-1,-1,-1,-1,-1,-1,-1,-1,-1],"split_conditions":[-3.5263237E-2,6.888889E-1,8.972825E0,-6.4292826E-2,-2.0661784E-2,-1.8177632E-2,1.8E1,6.560892E-2,9.6875E-2,3E0,1.34E2,5.733253E-1,8.025575E-2,2.2183098E-2,1.16E2,4.1414142E-1,1.0048161E-2,8.1666664E1,3.284621E-2,3.770342E-2,-2.0480262E-2,6.2529373E-1,1.81E2,1.13E2,8.892424E-2,1.06440924E-1,5.6456007E-2,7.854528E-3,-6.1118346E-2,-1.5019029E-2,2.8625483E-2,-6.6924624E-2,-1.20027205E-2,2.0682778E-2,-3.1616822E-2,2.0807188E-2,9.62992E-2],"split_indices":[201,50,58,0,0,151,95,245,131,46,95,197,0,229,6,88,0,6,0,0,0,25,109,80,201,0,0,0,0,0,0,0,0,0,0,0,0],"split_type":[0,0,0,0,0,0,0,0,0,0,0,0,0,0,0,0,0,0,0,0,0,0,0,0,0,0,0,0,0,0,0,0,0,0,0,0,0],"sum_hessian":[2.328315E2,1.34279995E1,2.194035E2,7.6784997E0,5.7495E0,1.767005E2,4.2703E1,2.35345E1,1.53166E2,1.90335E1,2.36695E1,1.52985E1,8.236E0,1.29234E2,2.3932E1,1.388E1,5.1535E0,1.4915E1,8.7545E0,5.6005E0,9.698E0,9.1606E1,3.7628E1,1.3027E1,1.0905E1,8.2035E0,5.6765E0,8.9155E0,5.9995E0,7.22425E1,1.93635E1,1.81535E1,1.94745E1,6.4145E0,6.6125E0,5.6625E0,5.2425E0],"tree_param":{"num_deleted":"0","num_feature":"267","num_nodes":"37","size_leaf_vector":"1"}},{"base_weights":[-9.733257E-3,-6.8188325E-2,1.136917E0,2.3274338E-1,-3.6171165E-1,2.0508897E-2,8.3365224E-2,-2.7532807E-1,6.0980517E-1,-5.012391E-1,4.7906765E-1,1.7196785E-1,-8.2601595E-1,4.4144204E-1,1.03782296E-1,-7.512288E-1,1.8861403E-1,7.09637E-2,-1.0816921E-2,-3.0856398E-1,6.71814E-2,-1.914422E-1,-7.2748326E-2,-3.1975374E-2,9.3198705E-1,2.3484522E-2,-8.5186625E-1,-3.9937896E-1,7.394433E-1,-3.2500383E-2,2.9058576E-2,-2.846233E-2,1.1760007E-2,3.211211E-2,-1.3862676E-2,9.824849E-2,2.119301E-2,-4.749487E-2,-7.453433E-3,-4.6926357E-2,1.6955247E-2,5.845166E-2,9.618913E-3],"categories":[],"categories_nodes":[],"categories_segments":[],"categories_sizes":[],"default_left":[0,0,0,0,0,0,0,0,0,0,0,0,0,0,0,0,0,0,0,0,0,0,0,0,0,0,0,0,0,0,0,0,0,0,0,0,0,0,0,0,0,0,0],"id":22,"left_children":[1,3,5,7,9,-1,-1,11,13,15,17,19,21,23,-1,25,27,-1,-1,29,-1,31,-1,33,35,-1,37,39,41,-1,-1,-1,-1,-1,-1,-1,-1,-1,-1,-1,-1,-1,-1],"loss_changes":[1.5694404E1,1.9903778E1,3.4842176E0,2.1496748E1,1.3624575E1,0E0,0E0,1.201347E1,1.4683687E1,1.7172558E1,1.1310584E1,1.5818171E1,8.239373E0,1.3808633E1,0E0,9.353111E0,9.033377E0,0E0,0E0,6.4678307E0,0E0,2.1111305E0,0E0,5.244743E0,1.419482E1,0E0,4.3962708E0,5.7771454E0,3.0029483E0,0E0,0E0,0E0,0E0,0E0,0E0,0E0,0E0,0E0,0E0,0E0,0E0,0E0,0E0],"parents":[2147483647,0,0,1,1,2,2,3,3,4,4,7,7,8,8,9,9,10,10,11,11,12,12,13,13,15,15,16,16,19,19,21,21,23,23,24,24,26,26,27,27,28,28],"right_children":[2,4,6,8,10,-1,-1,12,14,16,18,20,22,24,-1,26,28,-1,-1,30,-1,32,-1,34,36,-1,38,40,42,-1,-1,-1,-1,-1,-1,-1,-1,-1,-1,-1,-1,-1,-1],"split_conditions":[2.2361359E1,3.7254903E-1,4.6E1,4E0,6.538238E-1,2.0508897E-2,8.3365224E-2,2E1,7.380952E-1,2E1,4.0170133E-2,1.7E1,3.1590194E-2,7.3763734E-1,1.03782296E-1,-3.6295585E-2,4.9438202E-1,7.09637E-2,-1.0816921E-2,5E0,6.71814E-2,1.3317599E0,-7.2748326E-2,2.027972E-1,2.439088E-2,2.3484522E-2,1.01886794E-1,1.1770245E1,1.3143483E1,-3.2500383E-2,2.9058576E-2,-2.846233E-2,1.1760007E-2,3.211211E-2,-1.3862676E-2,9.824849E-2,2.119301E-2,-4.749487E-2,-7.453433E-3,-4.6926357E-2,1.6955247E-2,5.845166E-2,9.618913E-3],"split_indices":[58,51,81,57,25,0,0,115,99,57,201,106,151,7,0,151,51,0,0,97,0,202,0,91,89,0,131,58,118,0,0,0,0,0,0,0,0,0,0,0,0,0,0],"split_type":[0,0,0,0,0,0,0,0,0,0,0,0,0,0,0,0,0,0,0,0,0,0,0,0,0,0,0,0,0,0,0,0,0,0,0,0,0,0,0,0,0,0,0],"sum_hessian":[2.335865E2,2.23234E2,1.03525E1,1.1016E2,1.13074E2,5.1955E0,5.157E0,4.69295E1,6.32305E1,9.74285E1,1.56455E1,2.6175E1,2.07545E1,5.79445E1,5.286E0,7.15545E1,2.5874E1,6.2705E0,9.375E0,1.9024E1,7.151E0,1.10595E1,9.695E0,2.9859E1,2.80855E1,5.094E0,6.64605E1,1.256E1,1.3314E1,1.4024E1,5E0,5.8125E0,5.247E0,7.4245E0,2.24345E1,8.25E0,1.98355E1,5.78915E1,8.569E0,7.1815E0,5.3785E0,6.7185E0,6.5955E0],"tree_param":{"num_deleted":"0","num_feature":"267","num_nodes":"43","size_leaf_vector":"1"}},{"base_weights":[2.8723149E-2,2.3779331E-1,-3.3143756E-1,-8.2149583E-1,3.8361377E-1,-1.0069438E0,-1.4698507E-1,-5.302445E-3,-1.0779808E0,6.2864345E-1,-2.5639498E-1,-4.450107E-1,-8.8050686E-2,-2.770503E-1,5.0846826E-2,-6.53586E-2,-2.9880172E-2,1.5268454E-1,9.447805E-1,1.688578E-2,-6.899392E-2,-4.596937E-3,-3.587079E-2,-9.7287655E-1,-5.7513922E-2,-1.7634752E-1,6.1199237E-2,1.1604488E0,-5.875727E-3,6.2355068E-2,-2.5530738E-1,-8.160875E-2,-2.05024E-2,-4.7507292E-1,3.4097254E-1,7.1353973E-3,-4.9887754E-2,6.688129E-2,1.059928E-2,-3.3020556E-2,2.8942421E-2,-5.475731E-2,-2.8074218E-3,-0E0,4.8585426E-2],"categories":[],"categories_nodes":[],"categories_segments":[],"categories_sizes":[],"default_left":[0,0,0,0,0,0,0,0,0,0,0,0,0,0,0,0,0,0,0,0,0,0,0,0,0,0,0,0,0,0,0,0,0,0,0,0,0,0,0,0,0,0,0,0,0],"id":23,"left_children":[1,3,5,7,9,11,13,-1,15,17,19,21,-1,23,-1,-1,-1,25,27,29,-1,-1,-1,31,33,35,-1,37,-1,-1,39,-1,-1,41,43,-1,-1,-1,-1,-1,-1,-1,-1,-1,-1],"loss_changes":[1.8368015E1,2.413875E1,1.088782E1,3.2413244E0,2.1617582E1,7.0081673E0,1.1045153E1,0E0,5.39341E-1,1.4668236E1,1.1952942E1,1.0311978E0,0E0,9.809383E0,0E0,0E0,0E0,1.4737538E1,1.3820076E1,1.10701885E1,0E0,0E0,0E0,4.870145E0,8.624264E0,8.638521E0,0E0,7.869583E0,0E0,0E0,9.450906E0,0E0,0E0,6.4046283E0,5.707073E0,0E0,0E0,0E0,0E0,0E0,0E0,0E0,0E0,0E0,0E0],"parents":[2147483647,0,0,1,1,2,2,3,3,4,4,5,5,6,6,8,8,9,9,10,10,11,11,13,13,17,17,18,18,19,19,23,23,24,24,25,25,27,27,30,30,33,33,34,34],"right_children":[2,4,6,8,10,12,14,-1,16,18,20,22,-1,24,-1,-1,-1,26,28,30,-1,-1,-1,32,34,36,-1,38,-1,-1,40,-1,-1,42,44,-1,-1,-1,-1,-1,-1,-1,-1,-1,-1],"split_conditions":[1.3E1,8.560824E-2,2.2807017E-1,0E0,2.5482344E1,5.9483916E-1,1E0,-5.302445E-3,6.969697E-1,4.7826087E-1,1.1632184E-1,2E1,-8.8050686E-2,3.8E1,5.0846826E-2,-6.53586E-2,-2.9880172E-2,9.902E-1,3.22E2,-7.267676E-2,-6.899392E-2,-4.596937E-3,-3.587079E-2,5.8441557E-2,2.7582402E0,2.4412E2,6.1199237E-2,3.8E1,-5.875727E-3,6.2355068E-2,3.811944E0,-8.160875E-2,-2.05024E-2,3.276522E-1,2.18E2,7.1353973E-3,-4.9887754E-2,6.688129E-2,1.059928E-2,-3.3020556E-2,2.8942421E-2,-5.475731E-2,-2.8074218E-3,-0E0,4.8585426E-2],"split_indices":[49,26,116,228,54,197,52,0,190,52,113,49,0,82,0,0,0,96,109,100,0,0,0,113,108,94,0,111,0,0,108,0,0,100,80,0,0,0,0,0,0,0,0,0,0],"split_type":[0,0,0,0,0,0,0,0,0,0,0,0,0,0,0,0,0,0,0,0,0,0,0,0,0,0,0,0,0,0,0,0,0,0,0,0,0,0,0,0,0,0,0,0,0],"sum_hessian":[2.420125E2,1.535155E2,8.8497E1,1.7932E1,1.355835E2,1.7909E1,7.0588E1,5.208E0,1.2724E1,9.8172E1,3.74115E1,1.1249E1,6.66E0,6.42555E1,6.3325E0,7.308E0,5.416E0,3.99E1,5.8272E1,3.08125E1,6.599E0,5.6415E0,5.6075E0,1.44785E1,4.9777E1,3.10925E1,8.8075E0,4.84395E1,9.8325E0,5E0,2.58125E1,5.711E0,8.7675E0,2.43355E1,2.54415E1,2.29015E1,8.191E0,4.03805E1,8.059E0,1.7595499E1,8.217E0,9.065E0,1.52705E1,1.71415E1,8.3E0],"tree_param":{"num_deleted":"0","num_feature":"267","num_nodes":"45","size_leaf_vector":"1"}},{"base_weights":[-2.286215E-2,-1.7926913E-1,3.4925163E-1,2.3301902E-1,-3.996125E-1,9.0261525E-1,8.968166E-2,-2.067079E-1,1.1094031E0,-5.67867E-2,-7.4947524E-1,1.5720056E0,1.1293594E-1,8.4271795E-1,-1.1731613E-1,3.2598475E-1,-6.8745196E-1,9.55713E-2,3.8594234E-1,-4.676699E-2,1.4675869E-1,-2.7464753E-1,-1.0286964E0,1.0586359E-1,3.2405306E-2,2.9125273E-2,-1.9638054E-2,-0E0,7.7655874E-2,1.5263118E-1,-5.1452424E-2,-3.003698E-2,8.693112E-1,-5.9168506E-2,-2.0263188E-1,-1.0606487E-3,4.0581863E-2,6.9538957E-1,-2.8200167E-1,-4.8342448E-2,2.4677251E-1,-1.2531955E0,-1.14087565E-2,7.264041E-1,-2.97059E-1,6.843566E-2,7.6971217E-3,1.0863253E-2,-3.0200029E-2,-1.2578244E-2,5.6376364E-2,1.5868101E-2,-3.558361E-2,4.360366E-2,-1.7945332E-2,-7.088391E-2,-2.4161654E-2,6.8557556E-3,5.7345908E-2,-3.4219008E-2,1.6237402E-2],"categories":[],"categories_nodes":[],"categories_segments":[],"categories_sizes":[],"default_left":[0,0,0,0,0,0,0,0,0,0,0,0,0,0,0,0,0,0,0,0,0,0,0,0,0,0,0,0,0,0,0,0,0,0,0,0,0,0,0,0,0,0,0,0,0,0,0,0,0,0,0,0,0,0,0,0,0,0,0,0,0],"id":24,"left_children":[1,3,5,7,9,11,13,15,17,19,21,23,25,27,29,31,33,-1,35,-1,37,39,41,-1,-1,-1,-1,-1,-1,43,-1,-1,45,-1,47,-1,-1,49,51,-1,53,55,-1,57,59,-1,-1,-1,-1,-1,-1,-1,-1,-1,-1,-1,-1,-1,-1,-1,-1],"loss_changes":[1.4096398E1,1.5628275E1,1.0103267E1,2.3430597E1,1.3292683E1,1.1614422E1,7.960102E0,1.0683316E1,1.0793867E1,1.0538111E1,6.8966484E0,4.4468803E0,2.9848416E0,6.6611342E0,1.0081372E1,1.0562467E1,4.866374E0,0E0,2.1719007E0,0E0,1.1442794E1,8.219248E0,5.715805E0,0E0,0E0,0E0,0E0,0E0,0E0,8.418087E0,0E0,0E0,4.28619E0,0E0,2.2494361E0,0E0,0E0,9.082401E0,7.308191E0,0E0,5.368111E0,2.468914E0,0E0,3.2536006E0,4.6753216E0,0E0,0E0,0E0,0E0,0E0,0E0,0E0,0E0,0E0,0E0,0E0,0E0,0E0,0E0,0E0,0E0],"parents":[2147483647,0,0,1,1,2,2,3,3,4,4,5,5,6,6,7,7,8,8,9,9,10,10,11,11,12,12,13,13,14,14,15,15,16,16,18,18,20,20,21,21,22,22,29,29,32,32,34,34,37,37,38,38,40,40,41,41,43,43,44,44],"right_children":[2,4,6,8,10,12,14,16,18,20,22,24,26,28,30,32,34,-1,36,-1,38,40,42,-1,-1,-1,-1,-1,-1,44,-1,-1,46,-1,48,-1,-1,50,52,-1,54,56,-1,58,60,-1,-1,-1,-1,-1,-1,-1,-1,-1,-1,-1,-1,-1,-1,-1,-1],"split_conditions":[6.088653E-1,5.441091E-1,3.75E-1,4.416476E-3,1.2E1,2.777778E-1,8.141428E0,1.6307692E-1,3.1062746E-2,5.8536583E-1,1.8146329E-2,1.5E1,3.339527E-1,4.6413503E0,4.3001089E-1,1.329322E-1,3.6E1,9.55713E-2,4.313065E-2,-4.676699E-2,3.559322E-1,3E1,4E0,1.0586359E-1,3.2405306E-2,2.9125273E-2,-1.9638054E-2,-0E0,7.7655874E-2,6.9491524E-1,-5.1452424E-2,-3.003698E-2,1.7874166E1,-5.9168506E-2,1.3333334E-1,-1.0606487E-3,4.0581863E-2,8.3333336E-2,2.8E1,-4.8342448E-2,3E0,2.4637284E0,-1.14087565E-2,-7.5759226E-3,4.82949E-2,6.843566E-2,7.6971217E-3,1.0863253E-2,-3.0200029E-2,-1.2578244E-2,5.6376364E-2,1.5868101E-2,-3.558361E-2,4.360366E-2,-1.7945332E-2,-7.088391E-2,-2.4161654E-2,6.8557556E-3,5.7345908E-2,-3.4219008E-2,1.6237402E-2],"split_indices":[25,197,88,247,95,103,54,116,248,99,151,85,23,54,23,26,81,0,151,0,51,53,45,0,0,0,0,0,0,99,0,0,54,0,50,0,0,50,111,0,228,59,0,151,248,0,0,0,0,0,0,0,0,0,0,0,0,0,0,0,0],"split_type":[0,0,0,0,0,0,0,0,0,0,0,0,0,0,0,0,0,0,0,0,0,0,0,0,0,0,0,0,0,0,0,0,0,0,0,0,0,0,0,0,0,0,0,0,0,0,0,0,0,0,0,0,0,0,0,0,0,0,0,0,0],"sum_hessian":[2.404175E2,1.69824E2,7.05935E1,5.8971E1,1.10853E2,2.16265E1,4.8967E1,3.9701E1,1.927E1,5.6721E1,5.4132E1,1.11E1,1.05265E1,1E1,3.8967E1,1.8887E1,2.0814E1,8.2945E0,1.09755E1,1.00855E1,4.66355E1,2.0912E1,3.322E1,6.1E0,5E0,5.482E0,5.0445E0,5E0,5E0,3.0623E1,8.344E0,6.8735E0,1.20135E1,9.475E0,1.1339E1,5.9755E0,5E0,2.02875E1,2.6348E1,8.7E0,1.2212E1,2.5405E1,7.815E0,1.32825E1,1.73405E1,6.4545E0,5.559E0,5.644E0,5.695E0,6.4155E0,1.3872E1,1.10135E1,1.53345E1,5.8735E0,6.3385E0,2.0133E1,5.272E0,6.1825E0,7.1E0,1.0722E1,6.6184998E0],"tree_param":{"num_deleted":"0","num_feature":"267","num_nodes":"61","size_leaf_vector":"1"}},{"base_weights":[2.7608844E-2,-9.5117405E-2,4.5904353E-1,-1.879216E-1,5.8981997E-1,2.8284553E-1,7.973726E-2,-1.29835E-1,-6.187984E-2,2.7183063E-2,7.052443E-2,-2.2393731E-2,7.617063E-1,2.1297875E-1,-3.6141676E-1,-5.431452E-2,3.6818396E-2,5.831368E-2,-3.299196E-1,1.0650003E0,7.312944E-4,-2.863923E-1,6.101235E-1,-6.088088E-1,2.5295678E-1,-6.737663E-1,1.7155474E-2,7.3364146E-2,1.6635349E-2,2.8374571E-2,-3.1088961E-2,4.467557E-2,-2.1247549E-2,-2.1407688E-2,-5.824707E-2,-8.6433515E-3,9.4061084E-2,-5.8965653E-2,-9.505273E-3],"categories":[],"categories_nodes":[],"categories_segments":[],"categories_sizes":[],"default_left":[0,0,0,0,0,0,0,0,0,0,0,0,0,0,0,0,0,0,0,0,0,0,0,0,0,0,0,0,0,0,0,0,0,0,0,0,0,0,0],"id":25,"left_children":[1,3,5,7,9,11,-1,13,-1,15,-1,17,19,21,23,-1,-1,-1,25,27,-1,29,31,33,35,37,-1,-1,-1,-1,-1,-1,-1,-1,-1,-1,-1,-1,-1],"loss_changes":[1.2976237E1,1.2165143E1,1.0225459E1,9.97347E0,1.0353376E1,7.1496897E0,0E0,1.2859779E1,0E0,1.2316438E1,0E0,1.1390526E1,4.1714926E0,1.3156879E1,1.4861369E1,0E0,0E0,0E0,6.0375624E0,3.2713623E0,0E0,8.804958E0,1.1221593E1,6.2971783E0,2.0119339E1,3.782751E0,0E0,0E0,0E0,0E0,0E0,0E0,0E0,0E0,0E0,0E0,0E0,0E0,0E0],"parents":[2147483647,0,0,1,1,2,2,3,3,4,4,5,5,7,7,9,9,11,11,12,12,13,13,14,14,18,18,19,19,21,21,22,22,23,23,24,24,25,25],"right_children":[2,4,6,8,10,12,-1,14,-1,16,-1,18,20,22,24,-1,-1,-1,26,28,-1,30,32,34,36,38,-1,-1,-1,-1,-1,-1,-1,-1,-1,-1,-1,-1,-1],"split_conditions":[1.0109763E1,8.5714287E-1,1.4509767E-1,6.5E1,7.649046E-2,9E0,7.973726E-2,3.7254903E-1,-6.187984E-2,2.5E1,7.052443E-2,-3.752E1,7.649046E-2,6.226415E-1,1E0,-5.431452E-2,3.6818396E-2,5.831368E-2,1.0063715E-1,3.7E-1,7.312944E-4,-4.1666668E-2,3.942606E-2,3.9429616E-2,5.8961753E-2,6.481481E-1,1.7155474E-2,7.3364146E-2,1.6635349E-2,2.8374571E-2,-3.1088961E-2,4.467557E-2,-2.1247549E-2,-2.1407688E-2,-5.824707E-2,-8.6433515E-3,9.4061084E-2,-5.8965653E-2,-9.505273E-3],"split_indices":[107,83,198,117,198,57,0,51,0,95,0,143,198,99,52,0,0,0,201,112,0,113,67,150,75,190,0,0,0,0,0,0,0,0,0,0,0,0,0],"split_type":[0,0,0,0,0,0,0,0,0,0,0,0,0,0,0,0,0,0,0,0,0,0,0,0,0,0,0,0,0,0,0,0,0,0,0,0,0,0,0],"sum_hessian":[2.425615E2,1.892695E2,5.3292E1,1.674525E2,2.1817E1,4.7292E1,6E0,1.59827E2,7.6255E0,1.36285E1,8.1885E0,2.93365E1,1.79555E1,6.42965E1,9.55305E1,5.041E0,8.5875E0,5.389E0,2.39475E1,1.2373E1,5.5825E0,2.84945E1,3.5802E1,6.82285E1,2.7302E1,1.59475E1,8E0,7.25E0,5.123E0,7.7565002E0,2.0738E1,2.829E1,7.512E0,5.2971E1,1.52575E1,2.2302E1,5E0,6.993E0,8.9545E0],"tree_param":{"num_deleted":"0","num_feature":"267","num_nodes":"39","size_leaf_vector":"1"}},{"base_weights":[-3.3320498E-2,-1.021127E-1,5.451038E-1,3.3673093E-2,-4.5171323E-1,7.288584E-2,-9.203198E-3,1.3230631E-1,-5.337849E-1,4.029292E-2,-5.897059E-1,3.754392E-2,-2.3401074E-2,-5.263646E-1,2.5629315E-1,-9.320628E-2,5.000805E-2,-1.0820364E0,-3.4651023E-1,1.0430501E-2,-9.90735E-1,-4.621244E-2,3.4311765E-1,-3.6560427E-2,4.6860245E-1,-6.886067E-2,-1.70245E-2,-5.633569E-1,2.253429E-2,-2.8822808E-2,-5.900515E-2,2.699711E-2,-8.97978E-3,4.6041485E-2,-8.4879354E-4,-4.5849733E-2,-1.3190984E-2],"categories":[],"categories_nodes":[],"categories_segments":[],"categories_sizes":[],"default_left":[0,0,0,0,0,0,0,0,0,0,0,0,0,0,0,0,0,0,0,0,0,0,0,0,0,0,0,0,0,0,0,0,0,0,0,0,0],"id":26,"left_children":[1,3,5,7,9,-1,11,13,15,-1,17,-1,-1,19,21,-1,23,25,27,-1,29,-1,31,-1,33,-1,-1,35,-1,-1,-1,-1,-1,-1,-1,-1,-1],"loss_changes":[9.176859E0,9.876559E0,1.2544949E1,8.409886E0,1.0543399E1,0E0,5.9584208E0,1.0601597E1,1.752971E1,0E0,5.833128E0,0E0,0E0,7.3004913E0,1.1425257E1,0E0,5.667297E0,3.0652866E0,6.680602E0,0E0,1.5247822E-1,0E0,1.065627E1,0E0,2.5977247E0,0E0,0E0,2.7880096E0,0E0,0E0,0E0,0E0,0E0,0E0,0E0,0E0,0E0],"parents":[2147483647,0,0,1,1,2,2,3,3,4,4,6,6,7,7,8,8,10,10,13,13,14,14,16,16,17,17,18,18,20,20,22,22,24,24,27,27],"right_children":[2,4,6,8,10,-1,12,14,16,-1,18,-1,-1,20,22,-1,24,26,28,-1,30,-1,32,-1,34,-1,-1,36,-1,-1,-1,-1,-1,-1,-1,-1,-1],"split_conditions":[8.5714287E-1,3.9371774E-2,-2.7613489E-2,3.22E2,5.461205E-1,7.288584E-2,8.181818E-1,8.669518E-1,5.7701653E-1,4.029292E-2,1.3519461E-2,3.754392E-2,-2.3401074E-2,-3.183024E-2,8.0039404E-2,-9.320628E-2,5.838641E0,9.42029E-2,7.543142E-1,1.0430501E-2,9.8E1,-4.621244E-2,9.2E1,-3.6560427E-2,4.057971E-1,-6.886067E-2,-1.70245E-2,3.92652E-2,2.253429E-2,-2.8822808E-2,-5.900515E-2,2.699711E-2,-8.97978E-3,4.6041485E-2,-8.4879354E-4,-4.5849733E-2,-1.3190984E-2],"split_indices":[83,229,65,109,19,0,7,58,197,0,75,0,0,229,26,0,107,131,199,0,109,0,81,0,88,0,0,67,0,0,0,0,0,0,0,0,0],"split_type":[0,0,0,0,0,0,0,0,0,0,0,0,0,0,0,0,0,0,0,0,0,0,0,0,0,0,0,0,0,0,0,0,0,0,0,0,0],"sum_hessian":[2.293405E2,2.058545E2,2.3486E1,1.48712E2,5.71425E1,8.327E0,1.5159E1,1.274945E2,2.12175E1,5.1E0,5.20425E1,5.3845E0,9.7745E0,1.95555E1,1.07939E2,5.8545E0,1.5363E1,1.5931E1,3.61115E1,7.7015E0,1.1854E1,6.655E0,1.01284E2,5.0160003E0,1.0347E1,1.06855E1,5.2455E0,2.87185E1,7.393E0,5.153E0,6.7009997E0,7.36935E1,2.75905E1,5E0,5.347E0,1.20715E1,1.6647E1],"tree_param":{"num_deleted":"0","num_feature":"267","num_nodes":"37","size_leaf_vector":"1"}},{"base_weights":[2.4602227E-2,6.854247E-2,-1.7428994E-2,-7.320141E-2,9.458026E-1,-2.0608002E-2,-5.865841E-2,9.931013E-2,-6.3141407E-3,3.4303358E-1,-1.5720384E-1,-4.343495E-1,7.933691E-1,5.01067E-2,-5.045906E-1,-3.550606E-2,1.6325075E-2,2.6162505E-2,9.5876954E-2,2.2022625E-2,-1.4221646E-2,-3.8904022E-2,4.7947336E-3],"categories":[],"categories_nodes":[],"categories_segments":[],"categories_sizes":[],"default_left":[0,0,0,0,0,0,0,0,0,0,0,0,0,0,0,0,0,0,0,0,0,0,0],"id":27,"left_children":[1,-1,3,5,7,9,-1,-1,-1,11,13,15,17,19,21,-1,-1,-1,-1,-1,-1,-1,-1],"loss_changes":[1.358666E1,0E0,1.2393311E1,1.2549621E1,1.4511462E1,1.0491482E1,0E0,0E0,0E0,2.0543545E1,1.1154785E1,4.821447E0,9.958824E0,1.2823015E1,9.63382E0,0E0,0E0,0E0,0E0,0E0,0E0,0E0,0E0],"parents":[2147483647,0,0,2,2,3,3,4,4,5,5,9,9,10,10,11,11,12,12,13,13,14,14],"right_children":[2,-1,4,6,8,10,-1,-1,-1,12,14,16,18,20,22,-1,-1,-1,-1,-1,-1,-1,-1],"split_conditions":[1E-1,6.854247E-2,2.7067083E-1,2.2225697E-1,5E0,5.4406595E-1,-5.865841E-2,9.931013E-2,-6.3141407E-3,4.904163E-1,4.028E1,6.6E1,1.10516936E-1,3.859649E-1,6.293619E-1,-3.550606E-2,1.6325075E-2,2.6162505E-2,9.5876954E-2,2.2022625E-2,-1.4221646E-2,-3.8904022E-2,4.7947336E-3],"split_indices":[91,0,200,113,48,197,0,0,0,197,143,81,131,88,197,0,0,0,0,0,0,0,0],"split_type":[0,0,0,0,0,0,0,0,0,0,0,0,0,0,0,0,0,0,0,0,0,0,0],"sum_hessian":[2.36299E2,6.269E0,2.3003E2,2.184115E2,1.16185E1,2.09504E2,8.9075E0,5.511E0,6.1075E0,5.6595E1,1.52909E2,2.0691E1,3.5904E1,9.6117E1,5.6792E1,1.5332E1,5.359E0,3.02015E1,5.7025E0,4.43505E1,5.17665E1,3.89315E1,1.78605E1],"tree_param":{"num_deleted":"0","num_feature":"267","num_nodes":"23","size_leaf_vector":"1"}},{"base_weights":[2.2608666E-2,-1.0510206E-1,4.754817E-1,5.9909844E-1,-1.9185911E-1,1.055256E0,8.884045E-2,8.089644E-2,8.557908E-2,-3.867412E-1,1.3393061E-1,6.952641E-3,1.6365869E0,-2.4041435E-1,6.400776E-1,2.4793409E-2,-2.4602514E-2,-5.976532E-1,2.838896E-3,2.7425686E-1,-5.3807866E-2,4.742912E-2,1.0742178E-1,-5.078214E-1,2.222256E-2,6.0593545E-2,3.0587392E-3,-1.1637131E0,-3.5341245E-1,2.0341939E-1,-3.5540927E-2,4.399583E-1,-5.1878598E-2,-3.9822016E-2,2.278074E-3,-1.7859364E-2,-7.206803E-2,3.011844E-2,-3.466395E-2,-2.2503395E-2,1.9921577E-2,4.2686653E-3,5.555765E-2],"categories":[],"categories_nodes":[],"categories_segments":[],"categories_sizes":[],"default_left":[0,0,0,0,0,0,0,0,0,0,0,0,0,0,0,0,0,0,0,0,0,0,0,0,0,0,0,0,0,0,0,0,0,0,0,0,0,0,0,0,0,0,0],"id":28,"left_children":[1,3,5,7,9,11,13,15,-1,17,19,-1,21,23,25,-1,-1,27,29,31,-1,-1,-1,33,-1,-1,-1,35,37,39,-1,41,-1,-1,-1,-1,-1,-1,-1,-1,-1,-1,-1],"loss_changes":[1.3554384E1,1.1210377E1,1.1352798E1,1.1275238E1,1.0436739E1,1.0480495E1,6.026363E0,3.7703056E0,0E0,8.487047E0,1.0678976E1,0E0,1.9994965E0,4.0288525E0,3.904276E0,0E0,0E0,8.65855E0,5.368202E0,1.258923E1,0E0,0E0,0E0,2.5841107E0,0E0,0E0,0E0,3.682022E0,1.6069115E1,3.9525657E0,0E0,1.1820922E1,0E0,0E0,0E0,0E0,0E0,0E0,0E0,0E0,0E0,0E0,0E0],"parents":[2147483647,0,0,1,1,2,2,3,3,4,4,5,5,6,6,7,7,9,9,10,10,12,12,13,13,14,14,17,17,18,18,19,19,23,23,27,27,28,28,29,29,31,31],"right_children":[2,4,6,8,10,12,14,16,-1,18,20,-1,22,24,26,-1,-1,28,30,32,-1,-1,-1,34,-1,-1,-1,36,38,40,-1,42,-1,-1,-1,-1,-1,-1,-1,-1,-1,-1,-1],"split_conditions":[1.0063254E1,1.1764706E-1,2.9411766E-1,4E0,6.029101E-1,7.883E-1,1.3938166E1,5.744938E-3,8.557908E-2,6.1593213E0,1.9444445E-1,6.952641E-3,2.0833333E-1,2.6E1,-1.596E1,2.4793409E-2,-2.4602514E-2,4.472272E0,5.769231E-1,1.74E2,-5.3807866E-2,4.742912E-2,1.0742178E-1,6.710758E-1,2.222256E-2,6.0593545E-2,3.0587392E-3,3.4615386E-1,5.618949E0,-3.3333335E-2,-3.5540927E-2,1.4538933E2,-5.1878598E-2,-3.9822016E-2,2.278074E-3,-1.7859364E-2,-7.206803E-2,3.011844E-2,-3.466395E-2,-2.2503395E-2,1.9921577E-2,4.2686653E-3,5.555765E-2],"split_indices":[107,51,23,57,25,96,107,65,0,58,113,0,112,49,143,0,0,107,50,6,0,0,0,19,0,0,0,51,107,241,0,18,0,0,0,0,0,0,0,0,0,0,0],"split_type":[0,0,0,0,0,0,0,0,0,0,0,0,0,0,0,0,0,0,0,0,0,0,0,0,0,0,0,0,0,0,0,0,0,0,0,0,0,0,0,0,0,0,0],"sum_hessian":[2.318515E2,1.81278E2,5.05735E1,1.91095E1,1.621685E2,1.9438E1,3.11355E1,1.383E1,5.2795E0,1.015455E2,6.0623E1,8.0935E0,1.13445E1,1.9732E1,1.14035E1,8.2E0,5.63E0,6.56995E1,3.5846E1,5.50905E1,5.5325E0,6.14E0,5.2045E0,1.4482E1,5.25E0,5.1E0,6.3035E0,1.8545E1,4.71545E1,2.8649E1,7.197E0,4.957E1,5.5205E0,9.348E0,5.134E0,5.427E0,1.3118E1,1.20895E1,3.5065E1,6.166E0,2.2483E1,3.327E1,1.63E1],"tree_param":{"num_deleted":"0","num_feature":"267","num_nodes":"43","size_leaf_vector":"1"}},{"base_weights":[2.6615296E-2,-1.7761696E-2,5.6278296E-2,8.6733595E-2,-4.9339595E-1,4.847346E-1,-6.414455E-2,1.825825E-2,-6.875456E-1,-2.1993235E-1,1.0386078E0,6.696172E-1,-2.2919162E-1,-9.4486487E-1,-1.1147398E-3,2.6907299E-2,-5.7322526E-1,1.445781E-1,1.5798728E0,1.7003097E-1,8.138775E-2,-3.8716754E-1,2.514488E-1,-1.1244423E0,-1.6472865E-2,-5.6415536E-2,-1.0307475E-2,-1.9361997E-2,2.9226393E-2,2.6204541E-2,9.844761E-2,2.72012E-2,-1.8371135E-2,-1.3243337E-2,-7.425228E-2,-2.0700996E-3,4.5554843E-2,-2.8924195E-2,-6.833965E-2],"categories":[],"categories_nodes":[],"categories_segments":[],"categories_sizes":[],"default_left":[0,0,0,0,0,0,0,0,0,0,0,0,0,0,0,0,0,0,0,0,0,0,0,0,0,0,0,0,0,0,0,0,0,0,0,0,0,0,0],"id":29,"left_children":[1,3,-1,5,7,9,11,-1,13,15,17,19,21,23,-1,-1,25,27,29,31,-1,33,35,37,-1,-1,-1,-1,-1,-1,-1,-1,-1,-1,-1,-1,-1,-1,-1],"loss_changes":[1.1964748E1,1.1720405E1,0E0,1.1641178E1,7.366851E0,2.1094732E1,1.7111149E1,0E0,5.8907013E0,6.7885E0,1.4150711E1,1.1952078E1,8.878137E0,2.2666016E0,0E0,0E0,3.1119056E0,3.173203E0,6.3431244E0,3.8806424E0,0E0,1.1174036E1,5.729281E0,1.5221462E0,0E0,0E0,0E0,0E0,0E0,0E0,0E0,0E0,0E0,0E0,0E0,0E0,0E0,0E0,0E0],"parents":[2147483647,0,0,1,1,3,3,4,4,5,5,6,6,8,8,9,9,10,10,11,11,12,12,13,13,16,16,17,17,18,18,19,19,21,21,22,22,23,23],"right_children":[2,4,-1,6,8,10,12,-1,14,16,18,20,22,24,-1,-1,26,28,30,32,-1,34,36,38,-1,-1,-1,-1,-1,-1,-1,-1,-1,-1,-1,-1,-1,-1,-1],"split_conditions":[2.2361359E1,5.3333336E-1,5.6278296E-2,4.062667E0,2.3E1,4E0,-4.201975E-2,1.825825E-2,4.9E1,8E0,8.2862854E1,1.9178081E-2,9.603658E-2,3.4615386E-1,-1.1147398E-3,2.6907299E-2,1.36E2,5.703908E-1,3.7752903E-1,2.1E1,8.138775E-2,3.6434747E-2,1.4276136E-2,1.6666667E-1,-1.6472865E-2,-5.6415536E-2,-1.0307475E-2,-1.9361997E-2,2.9226393E-2,2.6204541E-2,9.844761E-2,2.72012E-2,-1.8371135E-2,-1.3243337E-2,-7.425228E-2,-2.0700996E-3,4.5554843E-2,-2.8924195E-2,-6.833965E-2],"split_indices":[58,50,0,110,80,49,114,0,101,117,18,229,148,103,0,0,109,197,84,48,0,66,76,112,0,0,0,0,0,0,0,0,0,0,0,0,0,0,0],"split_type":[0,0,0,0,0,0,0,0,0,0,0,0,0,0,0,0,0,0,0,0,0,0,0,0,0,0,0,0,0,0,0,0,0,0,0,0,0,0,0],"sum_hessian":[2.41658E2,2.331365E2,8.5215E0,1.91641E2,4.14955E1,5.2253E1,1.39388E2,7.3955E0,3.41E1,2.3182E1,2.9071E1,2.4923E1,1.14465E2,2.41775E1,9.9225E0,7.113E0,1.6069E1,1.15105E1,1.75605E1,1.7223999E1,7.699E0,8.64525E1,2.80125E1,1.795E1,6.2275E0,5.4625E0,1.06065E1,5.1625E0,6.348E0,5.43E0,1.21305E1,1.0259E1,6.965E0,7.8986E1,7.4665E0,1.9944E1,8.0685E0,6.6865E0,1.12635E1],"tree_param":{"num_deleted":"0","num_feature":"267","num_nodes":"39","size_leaf_vector":"1"}},{"base_weights":[-1.0044105E-2,-1.1151862E-1,4.2321268E-1,5.0045705E-1,-2.2582373E-1,1.3244424E0,6.450677E-2,1.8076135E-2,7.367874E-2,-3.8517244E-2,-4.924188E-1,9.170364E-2,3.4471568E-2,-2.838912E-1,5.9954196E-1,6.1884546E-1,-5.918562E-1,1.1035386E-1,-6.249145E-1,-8.852959E-1,-8.209852E-2,8.063001E-2,-4.8748046E-2,-7.109499E-3,5.8162816E-2,8.702447E-4,5.5918295E-2,-3.6812104E-2,-1.6604057E-2,6.005604E-2,1.3733917E-3,-5.9583362E-2,-9.908593E-2,-1.0999395E0,-0E0,-4.7519815E-1,3.545656E-1,-1.4095758E-2,2.4426362E-2,5.5980785E-3,-5.0763167E-2,1.7314857E-2,-2.660397E-2,-6.2105622E-2,-2.7320398E-2,-1.8766988E-4,-6.472313E-2,-4.045255E-3,3.9158624E-2],"categories":[],"categories_nodes":[],"categories_segments":[],"categories_sizes":[],"default_left":[0,0,0,0,0,0,0,0,0,0,0,0,0,0,0,0,0,0,0,0,0,0,0,0,0,0,0,0,0,0,0,0,0,0,0,0,0,0,0,0,0,0,0,0,0,0,0,0,0],"id":30,"left_children":[1,3,5,7,9,11,13,15,-1,17,19,-1,-1,21,23,25,27,29,31,33,35,37,-1,-1,-1,-1,-1,-1,-1,-1,39,-1,41,43,-1,45,47,-1,-1,-1,-1,-1,-1,-1,-1,-1,-1,-1,-1],"loss_changes":[1.0390468E1,1.3528323E1,1.4258936E1,1.4102816E1,8.055034E0,2.568737E0,6.386134E0,8.217134E0,0E0,8.579294E0,1.060821E1,0E0,0E0,5.3721185E0,5.9199324E0,3.280314E0,6.338143E-2,9.149188E0,5.6848316E0,6.544594E0,6.0045495E0,2.2809968E0,0E0,0E0,0E0,0E0,0E0,0E0,0E0,0E0,8.117257E0,0E0,2.4220338E0,1.2977638E0,0E0,6.973256E0,3.2180958E0,0E0,0E0,0E0,0E0,0E0,0E0,0E0,0E0,0E0,0E0,0E0,0E0],"parents":[2147483647,0,0,1,1,2,2,3,3,4,4,5,5,6,6,7,7,9,9,10,10,13,13,14,14,15,15,16,16,17,17,18,18,19,19,20,20,21,21,30,30,32,32,33,33,35,35,36,36],"right_children":[2,4,6,8,10,12,14,16,-1,18,20,-1,-1,22,24,26,28,30,32,34,36,38,-1,-1,-1,-1,-1,-1,-1,-1,40,-1,42,44,-1,46,48,-1,-1,-1,-1,-1,-1,-1,-1,-1,-1,-1,-1],"split_conditions":[1.9E1,1.1764706E-1,1.12E2,7.692308E-2,1.6037663E-2,1.32E2,9.599713E-2,2.5114155E-1,7.367874E-2,2.95E2,1.81E2,9.170364E-2,3.4471568E-2,1.2E1,0E0,9.053582E-3,-2.8838512E-2,8E0,2.7E1,1.01886794E-1,2.4808E2,1.5E1,-4.8748046E-2,-7.109499E-3,5.8162816E-2,8.702447E-4,5.5918295E-2,-3.6812104E-2,-1.6604057E-2,6.005604E-2,7.966102E-1,-5.9583362E-2,3.119582E-3,7.3E1,-0E0,1.0642857E2,7.5200534E0,-1.4095758E-2,2.4426362E-2,5.5980785E-3,-5.0763167E-2,1.7314857E-2,-2.660397E-2,-6.2105622E-2,-2.7320398E-2,-1.8766988E-4,-6.472313E-2,-4.045255E-3,3.9158624E-2],"split_indices":[57,51,176,51,151,109,201,91,0,109,109,0,0,47,245,113,65,81,101,131,94,49,0,0,0,0,0,0,0,0,99,0,66,98,0,6,107,0,0,0,0,0,0,0,0,0,0,0,0],"split_type":[0,0,0,0,0,0,0,0,0,0,0,0,0,0,0,0,0,0,0,0,0,0,0,0,0,0,0,0,0,0,0,0,0,0,0,0,0,0,0,0,0,0,0,0,0,0,0,0,0],"sum_hessian":[2.34973E2,1.911715E2,4.38015E1,2.9418E1,1.617535E2,1.16245E1,3.2177002E1,2.0418E1,9E0,9.5897E1,6.58565E1,5.314E0,6.3105E0,1.96585E1,1.25185E1,1.03615E1,1.00565E1,7.6992E1,1.8905E1,3.29275E1,3.2929E1,1.33535E1,6.305E0,5.652E0,6.8665E0,5.2615E0,5.1E0,5.0375E0,5.019E0,6E0,7.0992E1,8.3975E0,1.05075E1,2.63875E1,6.54E0,1.7403E1,1.5526E1,7.1035E0,6.25E0,6.49185E1,6.0735E0,5.1645E0,5.343E0,1.98615E1,6.526E0,1.17615E1,5.6415E0,7.988E0,7.538E0],"tree_param":{"num_deleted":"0","num_feature":"267","num_nodes":"49","size_leaf_vector":"1"}},{"base_weights":[6.0245503E-2,5.983589E-3,1.0776634E0,-3.595772E-2,6.1749544E-2,7.308417E-3,9.704291E-2,8.985777E-3,-5.2853536E-2,-6.572488E-2,6.4336294E-1,-3.0207604E-1,1.5412816E-1,5.150683E-3,7.262854E-2,-2.3163026E-2,7.896155E-3,-2.823909E-2,1.5263512E-2,-2.7159965E-2,3.1408504E-2],"categories":[],"categories_nodes":[],"categories_segments":[],"categories_sizes":[],"default_left":[0,0,0,0,0,0,0,0,0,0,0,0,0,0,0,0,0,0,0,0,0],"id":31,"left_children":[1,3,5,7,-1,-1,-1,9,-1,11,13,15,17,19,-1,-1,-1,-1,-1,-1,-1],"loss_changes":[1.3095708E1,1.1930936E1,9.170017E0,1.0285599E1,0E0,0E0,0E0,1.0204013E1,0E0,1.0011762E1,1.1567755E1,6.9873247E0,1.0974345E1,5.0509253E0,0E0,0E0,0E0,0E0,0E0,0E0,0E0],"parents":[2147483647,0,0,1,1,2,2,3,3,7,7,9,9,10,10,11,11,12,12,13,13],"right_children":[2,4,6,8,-1,-1,-1,10,-1,12,14,16,18,20,-1,-1,-1,-1,-1,-1,-1],"split_conditions":[2.7067083E-1,2.2361359E1,3.4054287E-2,2.2222222E-1,6.1749544E-2,7.308417E-3,9.704291E-2,1.3095239E-1,-5.2853536E-2,7.6610007E0,1.499482E-1,9.91E-1,-4.1422807E-2,8.404646E0,7.262854E-2,-2.3163026E-2,7.896155E-3,-2.823909E-2,1.5263512E-2,-2.7159965E-2,3.1408504E-2],"split_indices":[200,58,71,113,0,0,0,131,0,55,26,96,198,107,0,0,0,0,0,0,0],"split_type":[0,0,0,0,0,0,0,0,0,0,0,0,0,0,0,0,0,0,0,0,0],"sum_hessian":[2.382905E2,2.272735E2,1.1017E1,2.206335E2,6.64E0,5.917E0,5.1E0,2.121875E2,8.446E0,1.90492E2,2.16955E1,9.18405E1,9.86515E1,1.2761E1,8.9345E0,6.81655E1,2.3675E1,1.6547E1,8.21045E1,6.77E0,5.991E0],"tree_param":{"num_deleted":"0","num_feature":"267","num_nodes":"21","size_leaf_vector":"1"}},{"base_weights":[1.1617769E-1,6.7196363E-1,4.9315747E-2,3.103916E-1,8.8249736E-2,-6.545652E-2,4.6207097E-1,6.326885E-1,-1.0764409E-2,-1.6113319E-1,5.1594853E-1,8.303666E-1,-1.1261966E-1,1.4296633E-2,4.464231E-2,6.9406375E-2,-4.56751E-1,1.2114191E0,-2.1097971E-1,7.298911E-2,4.7544068E-1,-6.9667965E-1,3.3338454E-2,-8.494479E-1,2.1807756E-1,-5.3624713E-1,1.8542787E-2,9.9689625E-3,1.0204089E-1,-3.3436723E-2,1.625269E-2,4.3263298E-2,2.0606725E-3,-6.203137E-2,-2.6230856E-3,-2.0188855E-2,-5.7565577E-2,4.4845518E-2,-2.4410572E-3,-1.3075371E-3,-3.3964843E-2],"categories":[],"categories_nodes":[],"categories_segments":[],"categories_sizes":[],"default_left":[0,0,0,0,0,0,0,0,0,0,0,0,0,0,0,0,0,0,0,0,0,0,0,0,0,0,0,0,0,0,0,0,0,0,0,0,0,0,0,0,0],"id":32,"left_children":[1,3,5,7,-1,9,11,13,-1,15,17,19,21,-1,-1,23,25,27,29,-1,31,33,-1,35,37,39,-1,-1,-1,-1,-1,-1,-1,-1,-1,-1,-1,-1,-1,-1,-1],"loss_changes":[8.723668E0,9.232751E0,1.0175178E1,3.612703E0,0E0,9.370167E0,1.0054602E1,7.9411554E-1,0E0,9.940013E0,1.2373735E1,5.5240116E0,9.126971E0,0E0,0E0,1.1329769E1,4.4112654E0,9.750172E0,3.2954583E0,0E0,3.2483978E0,3.8131938E0,0E0,9.316435E-1,1.3084114E1,4.195347E0,0E0,0E0,0E0,0E0,0E0,0E0,0E0,0E0,0E0,0E0,0E0,0E0,0E0,0E0,0E0],"parents":[2147483647,0,0,1,1,2,2,3,3,5,5,6,6,7,7,9,9,10,10,11,11,12,12,15,15,16,16,17,17,18,18,20,20,21,21,23,23,24,24,25,25],"right_children":[2,4,6,8,-1,10,12,14,-1,16,18,20,22,-1,-1,24,26,28,30,-1,32,34,-1,36,38,40,-1,-1,-1,-1,-1,-1,-1,-1,-1,-1,-1,-1,-1,-1,-1],"split_conditions":[1.1764706E-1,2.93E2,1.9E1,2.8870293E-1,8.8249736E-2,1.01886794E-1,2.65625E-1,1.14285715E-1,-1.0764409E-2,2.1391146E-2,8.0246913E-1,6.1E1,3.3136094E-1,1.4296633E-2,4.464231E-2,-7.016118E-2,5.7645667E-2,1.5E-1,6E1,7.298911E-2,1E1,7.234042E-1,3.3338454E-2,2.510989E-1,1.8909091E-1,9.781304E-1,1.8542787E-2,9.9689625E-3,1.0204089E-1,-3.3436723E-2,1.625269E-2,4.3263298E-2,2.0606725E-3,-6.203137E-2,-2.6230856E-3,-2.0188855E-2,-5.7565577E-2,4.4845518E-2,-2.4410572E-3,-1.3075371E-3,-3.3964843E-2],"split_indices":[51,109,57,91,0,131,91,50,0,248,177,98,91,0,0,198,65,116,130,0,95,99,0,23,103,202,0,0,0,0,0,0,0,0,0,0,0,0,0,0,0],"split_type":[0,0,0,0,0,0,0,0,0,0,0,0,0,0,0,0,0,0,0,0,0,0,0,0,0,0,0,0,0,0,0,0,0,0,0,0,0,0,0,0,0],"sum_hessian":[2.365865E2,2.4273E1,2.123135E2,1.9273E1,5E0,1.6659E2,4.57235E1,1.19395E1,7.3335E0,1.43818E2,2.2772E1,2.77005E1,1.8023E1,6.1825E0,5.757E0,8.1043E1,6.2775E1,1.13675E1,1.14045E1,8.764E0,1.89365E1,1.04365E1,7.5865E0,1.05365E1,7.05065E1,5.7705E1,5.07E0,5.733E0,5.6345E0,6.1185E0,5.286E0,9.334E0,9.6025E0,5.0725E0,5.364E0,5.3325E0,5.204E0,1.93375E1,5.1169E1,1.30505E1,4.46545E1],"tree_param":{"num_deleted":"0","num_feature":"267","num_nodes":"41","size_leaf_vector":"1"}},{"base_weights":[-6.4521864E-2,-0E0,-7.831262E-1,-5.618307E-1,8.9593954E-2,-1.1258796E0,-1.1768237E-2,4.7351155E-2,-9.0868706E-1,-6.731582E-1,1.6183479E-1,-3.139639E-2,-7.166427E-2,-1.1205131E0,-2.0217378E-2,-6.1534088E-2,-2.768083E-3,2.5429827E-1,-3.749351E-1,-2.2053435E-2,-6.846703E-2,2.5699291E-2,4.9708351E-1,-7.5268306E-2,-4.0841993E-2,3.0229548E-2,-1.0625271E-2,8.0258735E-2,1.1514442E-2,-1.6446337E-2,1.9359848E-2],"categories":[],"categories_nodes":[],"categories_segments":[],"categories_sizes":[],"default_left":[0,0,0,0,0,0,0,0,0,0,0,0,0,0,0,0,0,0,0,0,0,0,0,0,0,0,0,0,0,0,0],"id":33,"left_children":[1,3,5,7,9,11,-1,-1,13,15,17,-1,-1,19,-1,-1,-1,21,23,-1,-1,25,27,29,-1,-1,-1,-1,-1,-1,-1],"loss_changes":[1.0845974E1,1.1021409E1,3.2192125E0,1.6628296E1,1.0416514E1,6.5184784E-1,0E0,0E0,2.0723991E0,5.430834E0,8.652353E0,0E0,0E0,2.0803738E0,0E0,0E0,0E0,8.151096E0,3.2414842E0,0E0,0E0,1.0856321E1,2.059179E1,2.057235E0,0E0,0E0,0E0,0E0,0E0,0E0,0E0],"parents":[2147483647,0,0,1,1,2,2,3,3,4,4,5,5,8,8,9,9,10,10,13,13,17,17,18,18,21,21,22,22,23,23],"right_children":[2,4,6,8,10,12,-1,-1,14,16,18,-1,-1,20,-1,-1,-1,22,24,-1,-1,26,28,30,-1,-1,-1,-1,-1,-1,-1],"split_conditions":[7.7213657E-1,8.151288E-1,3.4E1,-4.219035E-2,4.9916804E-1,6.3451777E0,-1.1768237E-2,4.7351155E-2,6.8E1,2.29E2,7.4E1,-3.139639E-2,-7.166427E-2,5.6806237E-1,-2.0217378E-2,-6.1534088E-2,-2.768083E-3,2.8432473E-3,2.8E1,-2.2053435E-2,-6.846703E-2,-7.1007535E-3,2.0698925E-2,4.6E1,-4.0841993E-2,3.0229548E-2,-1.0625271E-2,8.0258735E-2,1.1514442E-2,-1.6446337E-2,1.9359848E-2],"split_indices":[114,58,228,151,25,58,0,0,111,109,82,0,0,19,0,0,0,113,115,0,0,247,113,53,0,0,0,0,0,0,0],"split_type":[0,0,0,0,0,0,0,0,0,0,0,0,0,0,0,0,0,0,0,0,0,0,0,0,0,0,0,0,0,0,0],"sum_hessian":[2.344105E2,2.161275E2,1.8283E1,2.91355E1,1.86992E2,1.04845E1,7.7985E0,5.0685E0,2.4067E1,1.53385E1,1.716535E2,5.2875E0,5.197E0,1.59485E1,8.1185E0,7.456E0,7.8825E0,1.470375E2,2.4616E1,5.126E0,1.08225E1,7.6513E1,7.05245E1,1.5501E1,9.115E0,2.19795E1,5.45335E1,1.2639E1,5.78855E1,1.03365E1,5.1645E0],"tree_param":{"num_deleted":"0","num_feature":"267","num_nodes":"31","size_leaf_vector":"1"}},{"base_weights":[-4.9523073E-3,-4.689487E-2,3.865129E-2,-7.171422E-2,4.1365302E-1,-4.6610552E-1,4.240505E-2,-8.018334E-2,7.4958014E-1,-1.084047E0,-1.23151794E-1,3.8341814E-1,-2.1182542E-1,2.9503047E-2,-4.6129525E-1,7.884056E-2,4.5130512E-1,-2.138547E-2,-7.110724E-2,-3.4788743E-1,2.4887243E-2,2.0379785E-1,8.942423E-2,-3.939757E-1,3.4031647E-1,3.9766575E-4,-4.2248126E-2,1.3533656E-1,5.967958E-2,-5.8714678E-3,-3.2350246E-2,2.8355205E-2,-2.179049E-2,2.0355403E-3,-2.760329E-2,4.523417E-2,-1.805806E-2,-1.0060686E-2,2.4657665E-2],"categories":[],"categories_nodes":[],"categories_segments":[],"categories_sizes":[],"default_left":[0,0,0,0,0,0,0,0,0,0,0,0,0,0,0,0,0,0,0,0,0,0,0,0,0,0,0,0,0,0,0,0,0,0,0,0,0,0,0],"id":34,"left_children":[1,-1,3,5,7,9,11,13,15,17,19,21,23,-1,25,-1,27,-1,-1,29,-1,31,-1,33,35,-1,-1,37,-1,-1,-1,-1,-1,-1,-1,-1,-1,-1,-1],"loss_changes":[9.672801E0,0E0,9.378351E0,7.9172535E0,8.6752615E0,8.1057005E0,1.1896044E1,5.7880173E0,6.7060795E0,2.2794876E0,3.8699431E0,1.4236892E1,8.02802E0,0E0,2.692741E0,0E0,5.3789563E0,0E0,0E0,1.2426665E0,0E0,1.261999E1,0E0,4.167858E0,8.242489E0,0E0,0E0,2.3188634E0,0E0,0E0,0E0,0E0,0E0,0E0,0E0,0E0,0E0,0E0,0E0],"parents":[2147483647,0,0,2,2,3,3,4,4,5,5,6,6,7,7,8,8,9,9,10,10,11,11,12,12,14,14,16,16,19,19,21,21,23,23,24,24,27,27],